413 100
-105250379 -0.24207121 0.26096702 -0.4654189 0.39608008 -0.52220553 1.2173784 0.32459617 -1.1892003 -0.300945 0.33146828 -0.8973661 0.98245853 1.1351436 -2.9339397 0.633715 -1.7212429 -0.6472891 0.6937401 -0.79898983 -0.093623415 -0.8307894 0.67162764 -0.59138304 0.13582185 0.63852876 -1.1580068 -0.014593289 -0.9270392 0.32648677 -1.051235 0.9497144 -0.40666717 -1.4537574 1.1221875 -2.630193 -0.5094075 1.603482 0.6260534 -0.9537258 0.00811862 -1.7991654 1.2056441 0.7719743 0.9034328 0.093839444 0.9374623 0.7247865 -0.48758888 0.54522157 -1.654751 0.95917714 -0.7018293 -0.93434095 -1.2455379 0.863064 0.12575874 0.26457804 1.3571923 0.18659267 -0.13746507 0.7077053 -1.0862273 -0.4259758 0.9384445 0.93942654 0.09658068 -0.5953359 -1.0362248 0.62632346 -0.15520194 -0.9028168 2.3400075 -0.39682356 -0.2049773 1.0328032 -0.22127503 -0.057714764 1.2399247 -1.3374747 0.05985261 -0.18976107 0.8240157 0.16497128 -0.87757576 1.684515 -1.2877322 -1.0945089 0.78079027 0.27883855 -0.9240564 -0.25994208 0.4880792 -0.16441451 -0.85851973 -1.1700252 -0.5847428 0.1520815 -0.4272709 -0.1726687 1.3968226
-28261265 -0.47259727 -0.5840062 -0.10856374 1.7169074 -0.20938236 1.6439664 0.33129162 -0.8110917 -1.2814031 1.2493495 -0.123104945 0.55095977 2.1804717 -1.7485752 -1.61884 -1.202194 -2.1882987 -0.8532292 -1.6014326 0.011153177 0.35369253 0.29967794 -0.88853145 0.17908412 0.9438703 -0.14912415 0.5712455 -1.1790471 0.5756649 -0.5677115 0.5766654 -0.5705935 0.23621888 2.226405 -1.6281011 0.52833515 1.2323606 0.7807328 -0.7139514 1.8481259 -1.0656768 0.5568358 1.4180666 -0.6456026 -1.4840974 0.8106739 -0.4047259 0.049355116 1.098871 -0.42001924 0.24416392 0.56805444 -0.774301 -2.8223183 0.853037 0.07731351 1.3727981 1.476031 -0.084918536 0.019261435 0.16830103 -0.2042355 -1.5359604 1.0397162 0.65444016 0.20989086 -1.2337718 -0.19956334 0.4462224 -0.62188154 -0.83114254 1.3466402 0.39234254 0.37419704 0.50481427 -2.1775112 -0.7688579 1.0689766 -0.32718617 0.17923364 0.4352369 0.4263996 0.008061129 -0.5478093 0.43704775 -1.9027944 -0.1317493 -0.14892489 -0.0007617504 -0.0608854 -0.7730254 -0.553426 0.20189223 -0.37337926 -1.7475059 1.3009964 -0.020724457 0.11553013 -1.318888 -0.13851067
-113636713 -0.33967665 0.76350075 -1.2442497 -0.16 -1.7221125 1.7013435 -0.3693466 -1.517074 -0.5332817 0.29411018 -0.38025793 -0.19616556 1.9838729 -2.5301797 -0.52677405 -3.1166754 -0.8018925 0.23936354 -0.7829811 -0.6167673 -0.13598572 0.76308775 0.40886763 -0.26172343 1.2599175 -0.7033402 -0.95687467 -0.8982306 1.3826679 -1.4267782 0.22353683 0.32828254 -1.0834079 1.2758942 -2.8203979 -1.1639863 1.5439359 0.87318224 -0.80305856 -0.546381 -2.7399702 0.7788883 0.41279322 0.2405407 0.3731345 0.7528228 0.45917526 -0.59356254 0.54620004 -2.3015928 0.5181152 -1.5357703 -0.997859 -1.8006581 0.75223625 -0.698719 0.107082814 0.63865453 0.110588625 0.031672876 0.62284005 -1.1893622 0.64078194 -0.00097232393 1.1748316 -0.26143655 -1.56641 0.1237625 0.24059501 -0.5298309 -0.3355988 2.166621 -0.68333507 -0.5386889 1.4243993 -0.63525236 -1.0422261 1.3720806 -1.7381661 0.8559036 -0.08216727 0.22498439 0.75783694 -1.4345802 1.6643753 -1.693482 -0.7461311 0.91334134 0.7177536 -0.026452761 0.13718992 1.080418 -0.035318196 -1.1108882 -0.7898829 -0.75501925 0.09229375 -0.4557449 -1.2580382 2.0072494
-37160097 0.5794667 0.45913383 0.2579081 -0.3340214 0.40506282 2.0169075 0.1816341 -2.2338223 -0.053661548 0.7040051 -0.34386778 1.0584462 0.93380743 -2.571763 0.3172097 -0.7570741 -0.21203326 1.241876 1.2989446 0.11086354 -0.10150364 0.10552886 -0.1402448 1.2794043 -1.0352942 -0.93619335 -0.33165005 -1.0290974 1.0404289 -0.76716405 0.55321115 -1.1197072 -0.80847174 1.5409684 -1.2051699 -0.17958042 1.762962 -0.7842502 -0.38028097 0.5767675 -2.170438 -0.003733413 0.21185501 1.025241 0.5350467 -0.2869863 -0.38343358 0.041581787 0.5642924 0.6242842 -0.77275336 0.30953258 0.6310848 -1.5445678 0.29626378 0.11313144 0.5687061 1.2743284 -1.152931 0.047246855 1.5699321 0.06282438 -1.8436995 0.9528295 0.27820462 0.4377829 -0.7504577 -0.73312664 0.5936646 0.314095 -0.42760992 1.4827075 0.8037755 -1.8919473 1.4673781 -0.44465676 -0.33963367 0.5819648 0.5508739 -0.0766906 0.40786356 1.7640191 0.09016445 -0.17466386 0.7482549 -1.2305542 -1.4898407 0.61749804 0.6548551 -0.2800287 -0.2328626 -0.43514627 -1.038351 0.14430146 -2.0449023 1.2724361 0.86156744 0.16685504 -0.20337428 0.08563606
-45661658 -0.42177615 0.4284831 -0.98550415 0.85349834 -0.6873133 1.181152 0.40135676 -1.1708971 -0.43493947 0.5298098 0.06590332 0.96887803 1.6558148 -2.5280693 -0.42199102 -2.0741668 -0.9522803 -0.01261377 -0.9086794 0.09881024 -0.07458722 0.8474957 -0.3138108 0.31871724 1.2419168 -0.5504834 0.07374924 -1.1418661 -0.10182348 -0.61144674 0.6227247 -0.36973855 -0.716928 1.7147673 -2.0470715 -0.16294827 0.9308877 0.6613156 -1.085013 0.16001962 -0.7453602 0.7434767 1.0440464 0.12174106 -0.06303072 0.45739844 0.6169803 -0.07077652 0.6776274 -1.3718635 0.7323578 0.009221929 -0.7692216 -1.7110581 -0.060244698 -0.03834649 1.0194898 1.4985169 0.009323246 -0.70284575 0.4558386 -1.1494462 -0.63180995 0.6373083 1.0709467 0.18776605 -0.65195197 -1.0188224 0.11391612 -0.13286597 -0.8587876 2.041247 -0.5159062 0.47023144 1.2027676 -0.7946618 -0.42223403 1.5108824 -1.1175158 0.20076638 0.038449828 0.61268216 -0.053955305 -0.774509 1.0723823 -1.3905473 -0.65606207 -0.07698655 1.3212508 -0.39139396 0.04539468 0.1489011 -0.20582435 -1.117299 -1.4380592 0.44064125 0.2101469 -0.6261796 -0.71039647 0.66358113
-37628914 -0.117678806 -0.38640407 -0.34995902 1.0206571 0.2629335 1.6894937 0.32527235 -1.4336255 -0.96996695 0.7781877 -0.8588221 1.2402817 2.6261647 -1.8243083 -1.5779452 -1.1769402 -1.4617481 -0.42852193 -1.2455055 -0.20864391 0.32510695 0.7367884 -0.6547681 0.14891587 0.3826062 -1.0849823 0.07377697 -0.87714875 0.19106555 -1.2449882 0.14164807 -0.90711117 -0.07112423 1.9904832 -1.3145899 0.57888097 1.8024755 0.3456073 -0.064991914 0.72380966 -1.0656662 1.1479015 0.70543927 0.039852872 -0.88610435 0.80939895 -0.35301912 0.24349111 0.005185221 -0.14531377 0.55977315 0.2046087 -0.94270414 -1.9460351 0.5876588 0.28209496 1.0604948 1.5864248 -0.6204579 -0.64171594 0.54287887 0.0720559 -1.3582706 0.5799814 0.94330263 0.0477759 -0.99006754 0.537821 0.7292152 -0.78118 -0.8748941 1.0345125 -0.84314984 0.0109573575 0.77434653 -1.4362348 -0.8407744 0.48912796 -0.23865321 0.4823015 0.05138304 0.98003286 -0.28092512 -0.34044066 0.70141256 -1.2625139 0.20803876 -0.06051803 0.17100072 0.0609302 -0.40029082 -0.6848327 -0.63072485 0.5250358 -2.1035962 0.8129031 0.23796137 -0.62347764 -1.9418294 -0.07925331
-57876954 0.3427168 0.26323327 -0.5189598 1.3735102 -0.1798625 1.5741147 0.4435107 -1.593039 -0.63962525 1.138792 -0.82592475 1.2412789 2.045942 -1.515929 -1.256955 -1.3218616 -1.2842726 -0.11615501 -1.4917235 -0.49365488 0.26815453 0.99244064 -0.80547035 0.4797851 0.09830171 -0.8332017 -0.17593002 -1.2763652 -0.3751945 -0.84947944 -0.025009617 -0.357184 0.45978758 1.9164195 -0.40825096 0.47207958 0.89084786 -0.17801973 -0.6466866 0.64527583 -0.57084024 0.4812206 0.26801553 0.32215416 -0.1750243 0.15143944 -0.32946438 0.15722059 -0.32352617 0.7151973 0.4305282 0.65328264 -1.1416327 -2.1494074 0.5191756 0.11090266 1.0975564 1.7304271 -1.3891791 -0.36433625 0.38696507 0.31748888 -1.9750303 1.3836403 0.5907129 0.44595674 -1.3156216 0.013799413 0.3673102 -0.7249348 -0.8892526 1.6745638 -0.57647383 0.13552988 1.1215452 -1.3935815 -0.47301808 0.83970124 -1.0172554 0.13531168 0.51589066 1.1407278 0.18323806 -0.42479107 0.6692656 -0.7302171 -0.47367877 -0.20455666 0.62628573 -0.24951875 -0.3325099 -0.5524543 -0.49839985 -0.28418416 -2.1894844 1.071844 -0.7499431 -0.8543142 -1.6698886 -0.6166791
-95868857 -0.72569674 0.39781255 -0.8511764 0.7608306 -0.50032866 0.80332506 0.46543878 -1.4710257 -0.5481517 0.5904058 -0.3405595 0.4803792 1.5274689 -2.6695783 0.36948708 -2.4559786 -0.87381405 -0.1025167 -1.1097064 0.5935397 -0.9332001 1.2550822 -0.4272499 0.020308264 0.85408807 -0.9931885 -0.8782078 -1.3006232 -0.6678154 -1.102297 1.3366898 -0.16435432 -1.5662167 1.2903697 -2.2944636 -0.47068533 1.3805506 0.8289635 -0.8271293 -0.28847006 -1.1212969 1.0857947 1.3086046 0.41568092 -0.057010893 1.203791 0.7784343 0.30223718 0.34490097 -1.7045776 0.45085576 -0.31806427 -0.9100547 -1.1623554 0.64498055 0.34822252 -0.026041843 1.252226 -0.10821032 -0.46745083 0.40991235 -1.412147 -0.03873254 0.21860981 0.6520873 -0.019530006 0.016010454 -1.2033799 0.19728105 -0.19759564 -0.6895358 1.5903447 -0.57094634 0.6502085 1.3410097 -0.7702702 0.5665765 1.5522914 -1.8642795 0.22120395 -0.42592952 0.67249364 0.016300105 -1.04286 0.7209188 -1.2514092 -0.7540623 -0.74859494 1.6326374 -1.0161048 -0.25042278 0.0094903 -0.8260427 -1.2655236 -1.7219073 -0.100400954 0.40107808 -0.42468593 -0.23017536 1.1395292
-28256828 -0.09408186 0.32162464 -0.108357236 1.7097193 -0.1265558 1.9819258 0.5837372 -1.126444 -0.9148799 1.241208 -0.36279348 1.1165668 1.7875516 -2.005125 -1.0340381 -1.7008274 -1.6427857 -0.41351956 -2.0293105 -0.46254814 0.30241117 1.5392115 -0.9802071 0.35123825 0.22734167 -0.96692854 -0.36586657 -1.7348255 -0.3669425 -1.0445591 -0.0075948257 -0.16779982 0.18117 1.5777292 -1.2312545 0.04124539 1.0317965 -0.33471096 -0.7667537 0.97204244 -0.34528327 0.9137211 1.2353485 0.6426945 -0.37151423 0.80822515 -0.011181614 -0.42072716 -0.4521545 0.04951662 0.41021955 0.62354684 -1.4151196 -2.0169625 0.31316093 -0.4012347 0.97419673 1.4294053 -0.6409967 -0.5384934 -0.4691283 0.03915377 -1.7372305 1.9111844 0.4926176 0.4024901 -0.7530929 -0.3884643 0.4012113 -0.24563764 -0.42763302 1.5747979 -0.20629835 0.21731189 1.2878566 -1.2780342 -0.33578876 1.1841674 -1.0744846 -0.04754935 -0.38062006 0.7943179 -0.23735666 -0.9558049 0.69992846 -1.0703675 -0.4818773 -0.4056847 0.23943503 -0.522766 0.32200617 -0.1832593 -0.168268 -0.7034162 -1.9353417 0.47901356 -0.88626176 -0.79380804 -1.1786242 -0.5876466
-45172787 -1.0388885 0.1852851 -0.25985193 -0.07546634 -0.4746183 1.5106072 0.999345 -1.9799687 -0.3662629 0.22800823 -1.442697 1.4199615 0.37714377 -4.006648 0.76475847 -0.55996096 0.26724684 0.69139326 -0.21772511 -0.10121441 -0.57235444 0.04396944 0.017381664 0.23303987 0.5033046 -0.39470053 0.17612393 -1.1609061 -0.6263348 -0.2689455 1.5845151 -0.9730228 -2.2058158 0.7957255 -2.6452422 0.26158404 0.9799688 -0.3115962 -2.1605763 -0.50088024 -1.717684 1.1961602 0.55794764 0.06808781 -0.66489273 0.6818807 -0.0022825287 0.2135373 -0.33628845 -0.85448784 0.7389011 0.559011 -0.37938964 -0.5695743 0.2248777 -0.0050231493 0.708428 1.8640358 0.39378858 -0.90416145 0.865081 0.034088347 -1.3014275 1.1219939 1.2671703 0.22941437 0.04781355 -2.1725764 -0.7216277 0.6415538 -1.035521 0.82092714 -0.46772414 0.6570534 1.1609273 0.6810659 0.06676814 0.5023592 0.14459807 0.41314825 -0.68382794 0.43838388 -0.28614783 -0.5195194 0.7766744 -1.2622627 -1.1719533 -0.8322012 0.7525031 -1.2604232 -0.41653466 -0.46874815 0.09064907 -1.2787073 -1.7055249 0.03809655 0.36540255 0.094710276 0.4709958 0.9363626
-137029671 -0.6102836 -0.4517834 -0.43679434 1.4810903 -0.021777263 1.8603778 0.25758937 -1.3123045 -0.55292606 0.6691364 -0.31662118 0.61036795 1.8869579 -2.7525735 0.2953317 -2.1312828 -1.0516564 -0.11935454 -1.3949767 0.44623473 -0.44431466 1.0606114 -1.107508 0.32096934 1.2471555 -1.0414948 -0.42356464 -0.79020983 -0.2456383 -0.45402867 1.2681897 -0.539655 -1.121593 1.3854121 -2.005977 -0.6642061 1.1286628 0.49193415 -0.7961319 0.48381695 -1.0616782 1.5213034 0.8492935 0.46730828 -0.30371773 0.53786737 0.34712577 -0.11686854 0.4532331 -1.9185624 0.9302284 -0.17489366 -1.28336 -1.4393847 0.31273386 -0.45646632 0.26800534 1.3759153 0.29576385 -0.5670889 0.61311585 -0.38069573 -0.9748583 0.8243265 1.545039 0.3672345 -0.4192142 -0.6167646 -0.12625298 -0.61388874 -1.0697356 2.1793177 -1.0689111 0.20901889 1.1696169 -0.07959247 0.44453797 1.2703679 -1.4941633 0.015773194 -0.30961066 0.4008601 -0.43508893 -0.6016944 1.0455334 -1.7953199 -0.5073015 -0.57972175 0.5409445 -0.299217 0.07104759 0.90025175 0.061407268 -0.8175596 -2.061005 -0.051923875 -0.4138071 -0.3806115 -0.62400115 0.6750942
-138638111 -0.3048547 0.3198804 -0.8546441 1.2838643 -0.8164035 1.2514466 0.04523064 -0.91484356 -0.9808021 0.8632962 0.1543723 -0.041239917 1.4947642 -2.0130057 -0.839267 -2.484029 -1.7049271 -0.59556216 -0.8561659 0.23441398 -0.16161868 1.1210015 -0.4386119 0.01644983 0.8264587 -0.7082792 -0.5481028 -1.2780861 -0.5139736 -1.309302 0.66546404 0.20076615 -0.6348839 1.6487747 -1.9750768 -0.3606206 1.1259267 0.677142 -0.6915077 0.645112 -0.75259334 0.26589662 1.4544401 0.3657878 -0.35168636 1.5177876 0.4804768 -0.0691035 0.24257572 -1.371588 0.33853662 0.30093518 -0.9228524 -1.3384117 0.31138518 -0.5896721 0.5176642 0.81688535 -0.12517336 -0.26763287 0.36789462 -0.6907579 -0.19219574 0.47356185 0.4822022 -0.044836815 -0.6133081 -0.91282517 0.25945202 0.012044419 0.0007394047 1.6782312 -0.08865965 -0.1314809 1.2524137 -1.3809153 0.48428458 1.7298568 -1.3727671 -0.12487386 -0.3215713 0.6748761 -0.15107046 -0.97679 0.45231324 -1.7247372 -0.3774996 -0.26364222 1.1343244 -0.89061356 0.49412116 0.3268395 -0.088670015 -1.4739763 -1.6913404 0.5109544 0.17872779 -0.5983346 -0.59453344 0.5618369
-74085170 0.29612422 0.15877374 -0.48930764 0.79988277 -0.08838411 0.9856966 -0.0041191294 -1.0480537 -0.8286472 0.5091443 -0.72699183 0.47792068 2.7783246 -2.2623024 -0.66223013 -2.6087725 -1.5064317 -0.4464395 -1.0930609 -0.25532705 0.48488215 1.3727266 -0.5720748 0.753968 0.50935394 -1.2584851 0.03240525 -0.38331932 0.810263 -2.251246 0.12169708 -0.4969907 0.013609917 1.7348844 -1.6085359 -0.07060544 2.3239093 0.844239 0.35567003 -0.009261628 -1.2730939 1.1545204 0.9034544 0.56162107 -0.3336015 0.6706748 0.37658957 -0.20378101 0.75610036 -1.1309934 0.20214625 -0.4249162 -0.119439624 -1.4710344 0.6002129 -0.3405707 0.475473 1.1940806 -0.2578495 -0.89904714 1.042661 -0.5667543 -0.6335564 0.05463814 1.0642755 0.034992024 -0.49137774 0.111905076 1.2371248 -0.37467334 -0.89026356 1.668231 -1.0466361 -0.528421 1.1811706 -0.8252097 -0.40365097 1.721263 -0.64650875 0.8724516 0.03407554 1.2814655 0.05144888 -0.20437919 1.1674232 -1.96077 -0.031807315 0.71069926 0.44624203 0.15389961 -0.27818587 -0.22369003 -0.6265079 -0.08029689 -2.0031693 -0.50901926 -0.20551346 -0.87944007 -1.4401857 0.6748249
-22310525 -0.0073622456 0.055686366 -0.8152799 0.28818187 -0.99603367 1.1418124 0.6186276 -1.3879642 -0.9288321 0.8189666 -0.28822201 1.1039112 1.8203982 -2.953089 -0.04708385 -2.3680832 -1.0240307 -0.07961921 -0.9484225 0.28775007 -0.2775327 1.1473606 -0.48612553 -0.18038298 0.28759664 -0.418479 -0.54261 -0.8111091 0.6135858 -1.160568 0.16390051 0.2303945 -0.0016904194 2.3190382 -1.8393148 -0.3840922 1.4311361 0.7731378 -0.6452649 0.03353066 -0.8933769 0.78595895 1.1661513 0.15402636 0.32609248 0.93792254 0.2723141 -0.09279988 0.5629559 -1.3821448 0.28247187 -0.09922194 -0.9625985 -2.0435262 0.52663505 -0.5639619 0.5059355 1.0695084 -0.38477945 -0.6803235 0.64713866 -1.1526077 -0.3608791 0.8776882 1.0994568 0.33678502 -0.78759503 -0.69318795 0.24329361 0.35881972 -0.4862344 1.7488086 -0.23486778 0.055867996 0.41851136 -0.5104385 -0.26487964 1.3740343 -1.6300442 0.27896562 -0.3599222 0.22128685 0.20255895 -1.2546933 1.0268221 -1.5066599 -0.49571437 -0.107380286 1.3725555 -0.7101525 0.5362775 -0.34079194 -0.6692542 -1.0797936 -1.3856202 -0.6458243 -0.36919597 -0.9288986 -0.5918942 1.1929123
-112754766 -0.5254432 0.20986167 0.7391472 -0.44122815 1.2392668 -0.45989135 -0.73868895 1.1013509 1.377745 -0.27045882 1.0066209 0.721077 -1.799295 -0.61969775 1.014649 3.081968 0.63391334 1.9176954 -0.92479897 0.09366378 0.11855267 -2.263223 0.62701786 0.741889 -0.2826986 0.14289325 -0.8488816 0.014226034 -1.5168062 1.233938 1.0234125 -0.95302296 -2.8081543 -2.0635629 -3.343924 -0.565052 -0.4248024 -1.6717434 -0.5432811 -0.74595135 -0.75330037 -0.015047429 0.33530062 -0.63877445 -1.8214632 -0.008004102 0.1321695 1.223432 -0.25600442 -0.121194504 0.33797577 -2.2881398 0.11797673 1.3010079 -1.6895123 0.0121474825 -1.0616833 1.3642774 1.0560502 -0.31861034 -0.8987275 0.35729745 -0.97428787 -1.5905654 -0.23151971 1.5416007 1.1533486 0.79033387 -1.2746679 0.2080961 -1.2798004 -0.9689009 -0.17088321 -0.17697018 1.0607219 2.7086344 0.31456012 -2.2350361 0.783054 -0.20836651 -2.1426208 0.8385544 -0.8159206 0.26507217 1.9668947 -0.86511767 -0.3713971 -0.7977098 -2.0359433 -0.030699247 1.2854571 0.18738088 -0.29454446 0.87577 1.4322631 0.40365916 3.4849875 2.5964363 1.1748556 0.3772046
-17210652 -0.17008252 0.06227168 -0.6417115 -0.19684668 0.29818463 0.7454979 -0.27425608 -1.3343335 0.062774174 0.4304321 -1.1565089 1.8016495 2.3345056 -2.1732142 -0.2716095 -1.4672347 -1.0995826 0.054271128 0.40330756 0.06699862 0.046352625 0.06456913 -0.1262892 0.45640138 0.08777497 -1.446055 0.46460807 0.4725024 0.7138828 -1.8905663 0.10085358 -0.31452084 0.2475961 1.8248938 -1.1097797 0.7590539 2.422569 -0.17452961 -0.50092477 0.23274599 -1.6135226 0.059127282 0.42472938 0.08872998 -0.26324382 -0.5181397 -0.40802622 -0.20036113 0.7810658 0.23389354 -1.010185 0.27985385 0.07323394 -1.0679389 -0.16362657 0.489986 0.6319746 1.0272512 -0.68374556 -1.1050997 0.27306825 -0.041776355 -1.7775002 -0.14286113 -0.085647784 -0.6075052 0.11534277 0.069920056 0.69831324 0.2670418 -0.46245903 0.8753553 -0.49322107 -0.18399635 2.038566 -2.0748894 -0.38785705 0.92450154 0.4090836 0.2315314 0.8922707 0.8825251 0.42920166 0.54481924 0.21684842 -0.1811295 -0.43823004 0.9788257 0.46842882 0.71351093 -1.5488569 -0.7335191 -1.3315834 0.79572004 -2.795121 1.339587 -0.002200204 -0.94130105 -2.1727045 -0.89599925
-108454578 -0.11436223 -0.16207431 -0.9921023 -0.3116341 -0.45143378 0.92841 0.10289074 -1.3885078 0.16066465 0.80617374 -1.216118 1.1256281 0.34167323 -3.4859507 0.8387348 -1.5874609 -0.65406835 0.7953251 -0.7386559 -0.487607 -0.52380145 -0.4386951 0.81078744 1.0280789 -0.02348441 -1.0985318 -0.34245718 -1.071371 -0.012634674 -0.61292535 1.0592062 -0.44142604 -1.8684533 0.6472807 -3.1291983 -0.13714854 1.8927839 -0.31042838 -1.4004126 -0.6644828 -2.2638872 0.9341208 0.23456289 0.021705283 -0.97843474 0.76889485 0.31066597 0.14092608 0.31277552 -1.1728135 0.08793454 -1.3388497 -0.030006055 -1.1649494 0.49904102 0.23526567 -0.13694715 1.5985839 -0.21631815 0.1740194 0.23077644 -0.64372665 -0.3445336 0.018617876 0.24482395 -0.086689904 -0.6599891 -0.9170424 0.31697935 0.37166804 -0.97414386 1.4539591 -0.2767402 0.38550135 1.8917465 0.42273748 -0.48697817 0.66901636 -0.6089242 0.46217126 0.25780582 0.039717123 0.14187185 -0.1716297 1.2604822 -1.4025116 -1.2784433 0.50676477 -0.5481902 -0.77365077 -0.54742575 0.2586497 -0.28175682 -0.23788078 -1.4240541 0.11979413 0.64247304 0.24670799 -0.4622413 1.0047278
-105044974 -1.1440839 0.19581977 0.9138478 -0.32802427 0.68134147 0.6704159 -0.8387824 1.0695635 0.796089 0.2870679 0.5134835 0.010588883 -1.786166 -1.8739697 1.32335 1.4103023 0.030382324 1.4787576 -0.58858216 0.5817439 0.45016342 -1.7701778 0.60469425 2.2157586 -0.3037698 -0.58331674 -1.4593763 0.058094483 -2.0774019 1.091647 1.2275047 -1.381718 -3.1293614 -1.5022024 -3.5215914 -0.37549883 0.32286176 -2.0904624 -1.2741442 0.251932 -1.9308885 -0.030927917 0.3667962 -0.313309 -1.0536052 -0.6580635 0.7928632 1.1856022 -0.57287043 0.1759558 -0.65549016 -1.7095454 0.2866175 1.2941504 -0.7063244 -0.39645237 -0.91502744 1.137994 0.10262582 -0.03612548 -0.4248918 0.7084131 -1.6110207 -0.792836 0.42063138 1.1338431 0.9862594 -0.27972847 -1.6251421 0.8087797 -1.4743316 0.02976122 0.20222677 0.20771755 1.9305568 2.410614 0.5308396 -1.1868875 0.34124973 0.30894777 -1.1662595 1.2048582 -0.6598287 1.5455867 1.0596411 -1.3231831 -0.7675589 -0.95763916 -1.2578616 0.01137736 0.84620786 0.8587835 -0.5471575 1.189851 -0.2833587 1.4597487 2.6335623 2.4963944 0.23785159 -0.115137815
-40166773 -1.8580885 0.8839881 0.58453083 -2.9256976 -0.07779047 -0.56309974 -0.6846847 1.2660794 0.4034361 0.8993086 0.4130605 -1.372106 -2.6816418 -0.6729821 0.85725397 1.945918 0.25458592 1.7602262 -0.7509352 0.11349761 1.0458798 -2.4430356 1.3893325 1.0903043 0.13872302 0.9969551 -0.71129566 -0.3507531 -2.7397623 1.086012 -0.33547324 -0.09250864 -1.7288052 -1.9202086 -2.559017 -0.40221933 -2.5167274 -1.6395729 -0.22124709 -1.5289667 0.15202211 0.5812299 -0.7907633 -1.0296317 -0.71878177 -0.1413277 0.10168963 0.40286946 -1.5476903 0.0841452 0.4542261 -2.0078855 0.9647289 1.8751771 0.05162496 -0.7720624 -1.7736892 2.7026966 1.1939253 -0.38953817 -0.6815172 1.0740879 -0.96620893 -0.08555788 -0.19244461 1.713149 1.0165601 0.52994555 -1.02941 1.0276386 -1.1971158 -2.156546 0.3850179 0.33057228 0.7619884 1.355159 -0.009890503 -2.5952215 1.3864352 0.29844695 -1.855079 0.6884998 0.17321523 -0.22977105 1.4976177 -0.7402297 0.2387157 -0.75366807 -0.5311015 -1.2102761 1.0008899 -0.21625637 0.41510558 0.023179144 0.99172956 1.6564754 2.6990004 1.2389222 0.60197335 1.265331
-58011970 -0.79972434 -0.109815784 0.15558243 -1.0322055 0.49481845 -0.76476353 -0.49772692 0.6620281 0.9426041 0.075411566 -0.624924 1.2348763 -1.4098343 -2.4004164 1.295004 1.6077116 1.1207281 1.5855422 -1.132506 -0.3324647 -0.2646522 -1.9416074 1.6381259 1.1381505 0.0686239 -0.0077926493 -0.6699366 -0.69912404 -1.6326889 0.15112843 0.88457847 -0.48637182 -2.6804955 -1.9000831 -3.9853098 0.33155072 0.08041344 -1.0907334 -1.5707922 -1.0032257 -1.4148148 0.49848738 0.4379259 -0.7256388 -2.2590373 0.1027558 0.37990174 1.526563 -0.4771555 -0.03158798 0.26654503 -2.1651857 0.0335692 0.5055267 -0.69599384 0.5848454 -0.8296477 2.1938543 1.01691 -0.5037494 -0.91308683 0.2764595 -1.2669615 -0.72875726 -0.035872083 1.4195948 0.7336442 -0.4459651 -1.4330009 0.62649924 -1.6396773 -0.42408508 -0.046057347 0.98772603 1.1808941 1.6797534 -0.41693357 -1.8668383 0.7380257 0.4766099 -1.6738985 0.64042777 -0.6624484 0.23665275 1.8397622 -0.239705 -0.59267855 -0.9501568 -1.7674607 -0.76390433 0.43653783 -0.093601584 -0.24281165 0.09289137 0.38316527 -0.33445692 2.5205245 2.0578697 0.43174174 0.69533944
-33743708 -1.6662152 0.52400506 0.58145815 -1.8464658 -0.21781407 -0.47607547 0.46207613 0.86809444 2.6514926 0.020426253 -1.2404187 1.6495401 -1.754542 -3.3883083 3.1777825 -0.0156013 -1.2682815 0.8910494 1.7208604 0.78197783 -0.81712115 -1.0456796 0.45772058 0.82751775 -1.042018 -0.36565554 0.38598207 0.79936457 -1.2947077 0.20433417 0.90654093 0.15979226 -0.07236837 -0.037205342 -1.7422699 1.207393 1.1894827 -0.7144642 -1.5829395 -0.6814248 -2.496704 -0.6445642 -1.1096622 0.93166107 -0.7337954 -0.82827854 0.91138494 0.4353762 -0.111896545 0.8758282 -0.115508094 -0.7135707 1.5571477 0.8645287 -0.6430962 0.30364507 -0.44881347 0.14103271 -0.2012245 -0.014958268 1.2838801 1.4532311 -1.7307304 0.15296313 0.9532963 -0.16880387 -0.13957487 -1.2765915 -1.4078828 0.35895103 -0.4254703 1.6410726 1.1739199 -0.6478014 1.9173717 -0.086259305 0.44463196 -0.019154862 1.7186195 -1.1425931 1.0985183 1.5021077 0.54870766 1.7029785 0.9715922 -0.435926 -0.43753043 0.969499 0.45264006 -0.41263482 -1.3169451 1.0910741 -1.4245592 -0.40087667 0.13174753 1.019732 1.0386701 -1.5864333 0.08424808 -1.6751434
-28313198 0.17116801 0.32435665 1.2171148 -0.7099397 0.8144781 1.9492307 0.18170622 -3.3657713 0.6985853 0.14207664 -0.90956956 2.3367283 -0.029589752 -1.607936 0.4355901 -1.2510405 -0.160734 0.77816916 2.1480072 -0.8610171 0.14854695 -0.16321155 0.32006323 1.6023368 -1.1996869 -1.4132855 0.1116482 -1.5677462 1.3969648 0.08650999 1.2620468 -0.8120714 -0.69105726 1.1946523 -0.9823865 0.26729333 2.3722775 -0.33519852 -0.4799302 1.3238953 -2.933427 -1.2212216 -0.49097463 1.4116899 0.76146954 -0.9731035 -0.11844681 -0.117257945 -0.9344294 0.9143624 -1.5398043 0.27321327 1.5362446 -1.0184546 -0.49203175 1.1883317 -0.17583945 0.88559663 -0.9093905 -0.72130775 1.5806392 0.16908751 -2.0024514 1.1270827 0.7856488 -0.44079757 -0.06630533 -1.3114474 0.74241334 -0.05683569 0.5591546 0.9300816 0.84633636 -1.1367915 2.4511514 0.24403545 -0.3723668 0.089718804 1.3574982 0.28547528 0.8294226 0.42619795 0.42851418 0.36678544 0.68386096 -0.16748415 -2.284769 1.2303144 0.562079 -0.5544366 -1.0034188 -0.82278454 -0.99927413 -0.12347943 -1.2023771 1.3147379 0.08291683 -0.10461285 -0.6861649 -0.73222363
-42897151 -0.20696999 0.07736116 -0.5492319 0.9440094 -0.63926554 1.1673712 0.38025868 -1.5791489 -0.8157038 0.64213043 -0.20974684 0.9805681 1.5539516 -2.4069927 -0.60531545 -2.208875 -1.348189 -0.64233994 -1.1105833 0.064155936 -0.49582964 0.71436125 -0.75515324 0.13841519 0.32048813 -0.4867483 -0.10836176 -1.011713 0.14154293 -1.0785363 0.6218449 -0.19760808 -0.7344476 2.0178802 -2.3758073 -0.24976651 1.2154711 0.6663781 -0.82488453 0.53756064 -1.2019826 1.0279114 0.6434322 -0.050428722 -0.53915125 0.7398682 0.29528353 -0.82859474 0.13756484 -1.1955982 0.6754649 -0.15488505 -0.89294237 -1.3990717 0.19024982 -0.38841394 0.5302453 1.3185029 0.11545103 -0.7161416 0.5671906 -0.6901743 -0.67286927 0.8653448 0.9455079 0.024449432 -0.4126863 -0.76947355 0.13850491 -0.19967118 -0.54498357 1.3928432 -0.5777501 0.65945786 1.1468607 -0.45854342 0.06697237 1.046021 -0.9579726 0.31897455 -0.4503216 0.1480177 0.5753679 -0.37465298 1.0557998 -1.6966205 -0.66720206 -0.44392514 0.55529165 -0.47132322 0.20913243 0.09849357 0.00040017336 -0.85897005 -1.5639637 0.26725215 -0.6796417 -0.7866886 -1.1000849 0.7363662
-20877147 -0.47135767 0.17821442 -1.3877127 0.6041096 -0.30819866 1.564013 0.32381818 -1.0263377 -0.9060264 0.67902887 0.28497505 2.7007937 2.4834864 -2.6317883 -1.0091325 -0.30095893 -1.7073461 -0.76842856 -1.4274305 0.39530686 0.43773705 0.82559085 -1.1483753 -0.24017319 1.2229129 -0.89058715 1.2556449 -0.2845467 0.4088068 -0.23454629 -0.45156336 -0.257322 0.62715435 2.1535673 -0.8905823 1.6039163 0.874242 0.49902013 -1.1962345 0.23209016 -0.38759908 0.52323973 1.2839935 0.040600497 0.30894202 -0.17207313 0.0748959 0.75345546 0.7830934 -0.61683214 0.28276467 0.5409009 -0.7256584 -2.882855 -0.98284423 0.12911458 2.3505764 0.86571395 -0.79582 -1.0411782 0.1262825 -0.13434343 -1.1943508 1.1050228 1.9751651 0.31091523 -1.2687197 0.027068269 -0.3288011 -1.0575172 -1.077545 1.549294 -0.7876777 0.08194559 0.43883178 -1.2837478 -1.2080075 1.2469199 -0.95052624 0.13109356 0.29001582 0.5682665 0.36166963 -0.98833466 0.6108632 -0.8918744 0.6441333 0.018505279 1.4024533 0.5833846 -0.01989705 -0.8240486 -0.37749878 0.4188093 -1.4639252 0.22099021 -0.038996454 -1.1122501 -1.2502042 -0.7910254
-97902875 2.1481214 -0.733065 -0.029213864 -0.19721518 0.5187087 1.0827262 0.6484558 -1.8896441 1.270389 -0.22659302 -1.3225601 0.7177533 1.8046645 -1.2725942 -0.7223996 -0.08145893 -1.154456 0.9854037 3.2538881 0.23190689 0.20341118 0.22460848 0.2547802 -0.13155302 -2.9834838 -1.2206571 -0.21558401 0.736237 2.195204 -0.91756606 0.09772757 -1.2726085 0.43792337 2.5207 0.38017878 0.594799 2.0376797 0.006939972 0.34254128 -0.8548915 -1.0928216 -0.3494217 0.21023963 0.7996938 0.37480772 -0.5310445 -1.3968676 -0.43159142 -0.22940727 0.45641854 -1.636533 1.8432431 1.0286971 -2.1000504 1.3148767 0.14757098 1.223504 0.049409498 -1.6698987 0.53967667 1.9032654 0.8130504 -1.1921026 0.24730651 0.049364306 -1.0592166 -1.2176784 -1.0156664 1.6217006 1.472485 0.696649 1.5071899 0.10547023 -2.3452535 0.88335943 -0.81800383 0.75643516 1.1491094 0.58862716 0.23229112 -0.7860137 1.7243304 -0.8102191 1.0765376 -0.42695644 -1.4695019 -1.5014347 0.3551653 0.48681906 0.24664894 -0.11146492 -1.5535551 -2.472057 0.9328828 -1.5908498 0.62521774 1.0902171 0.64781123 -1.3810539 0.88516
-65697692 0.044143792 1.0420226 0.43452102 -0.77129644 0.8223735 1.396789 -0.23019682 -1.9103187 0.36191195 0.4422437 -0.9968956 2.6736906 0.74971956 -2.7816992 1.7873979 -1.6769458 0.4241251 1.1136236 0.5492145 0.17397381 -0.21376875 -0.5826417 -0.9111087 1.4317948 -0.83482623 -1.3367937 0.33944753 0.07118528 0.01875742 -0.20424077 1.4065975 -0.462309 -1.3209319 1.3166317 -0.80941164 -0.3152085 2.0396926 -0.6757447 -0.30798382 0.20601793 -1.8811508 -0.862822 0.25023562 0.82168055 -0.28655705 0.2359389 0.07529142 1.6242436 -0.33257964 0.92151296 -1.1590838 -0.5855702 0.74990517 -0.7812092 -1.1399877 -0.048626836 -0.59361315 1.5435846 -1.3833113 -0.17619048 1.2840567 -0.21950836 -1.6173337 0.73204905 0.20015033 0.3844446 -0.028836794 -1.2535547 -0.91746897 0.7806281 -0.6743105 1.3533155 0.6455258 -1.3245031 1.3042233 0.78874284 -0.029282887 0.049848925 0.98929495 -0.40231875 0.7538574 0.728676 -0.31964347 -0.99329185 0.9648691 -0.96586704 -1.1737605 0.6518126 1.0857451 -1.1249324 -1.2792168 -0.166462 -1.476834 -0.5405977 -1.5275627 0.6914006 -0.3752679 -0.027502362 0.68427974 -0.6243645
-29140284 0.98606884 0.033167552 -1.0065451 0.27403823 -1.1248616 1.55722 1.3156799 -1.3720406 -1.4027022 0.64645463 0.17765921 1.804296 2.1713884 -2.6443408 -0.96164227 -1.1326785 -0.056642234 -0.9199725 -0.04848348 0.3428945 -0.963754 0.7004666 -1.4450632 0.8367881 -0.40534115 -0.02199729 0.16775736 -0.48221853 -0.13913788 -1.2063619 -0.2276197 -0.35335863 0.34274873 2.9122279 -1.4772339 0.08147848 1.3036938 1.0378336 -0.6430113 0.314515 -1.1267736 0.3465704 1.3530588 -0.15880927 -0.60897136 0.9744318 0.21919693 -0.28739747 0.60516196 -0.32487822 0.9297936 0.9036562 -0.997381 -1.5015944 -0.28195214 -1.0313264 0.9663358 0.5096159 -0.63929343 -0.96847373 1.1009828 -0.698732 -0.3502075 0.7929405 1.6740649 0.89635307 -0.7715028 -0.6774303 -0.0069052526 1.217807 -0.5707864 2.059825 -0.7213178 -0.43927106 0.028661242 -0.54106736 -0.48147288 1.1313901 -0.3412477 0.45290092 -1.1677846 0.2706433 -0.2052926 -1.3959095 0.9263726 -1.1564735 -0.017145038 -0.18158004 0.7303389 -0.15738708 1.2339793 -0.020704072 -0.018077957 -0.6413212 -1.1360129 0.4371529 -0.3068765 -0.78913367 -0.48275018 0.47930512
-51171094 0.41679224 0.029262928 -0.7389586 0.62725747 0.81766254 1.4166442 -0.5325958 -2.1290753 -0.8749538 1.4025625 -0.29376322 1.1273273 2.014603 -1.7870812 -0.9259376 -1.843175 -1.2442986 -0.6141527 -0.36827344 -0.47198623 0.6837004 -0.0618256 -0.7698937 1.767686 0.5756768 -0.8786303 0.698488 -1.2415437 1.7629114 0.06244229 0.25861755 -0.714125 0.95289814 1.8945748 -0.01950849 1.1011996 1.6968379 -0.062259145 0.6263979 1.0157632 -0.6108028 0.6411691 0.7259274 0.21642761 -0.46261084 -0.78111404 -0.13192113 1.4619116 1.4049239 0.50382894 -0.38028407 0.25324258 0.10812286 -2.0596724 0.22484548 -0.20012236 0.68695945 2.3607504 -0.40729082 -0.036319707 0.5831507 -0.09774531 -1.725928 0.028959265 0.7054004 0.426555 -1.3884345 1.0938228 1.5142127 0.11769554 -1.111502 1.1887329 1.519344 -1.1154385 0.23818727 -1.3988224 -1.0103505 0.44281384 -0.622433 -0.11875655 1.2743425 1.621544 0.6905499 -0.39705488 1.1087021 -1.2017007 0.386847 0.76486766 1.071673 -0.6728158 -1.5521641 -1.7014642 0.04314071 1.0023826 -2.3464322 1.1775963 -0.61290765 -0.47730497 -0.98251987 -0.32857898
-140552805 -1.1685041 0.40534815 -1.451131 -0.051685967 -0.5564693 1.956971 0.49134406 -2.134877 -1.0351231 1.3269905 0.5396921 -0.25936866 2.177635 -2.7456954 -0.8862695 -1.4648001 -1.658733 -0.49390244 0.63759625 -0.2951414 0.4949472 0.25734925 -1.4409156 -1.2796841 2.0225358 -1.6833936 2.281973 -0.3618814 -1.0648333 0.65830564 1.3442602 -0.045827504 0.036246035 0.2249983 -2.2677093 -0.04664638 -0.25801176 -0.5195965 -1.0857768 0.019872054 -0.5937198 1.0877347 -0.49455714 1.2603158 2.32685 1.3073047 0.34268546 -2.0026197 0.20271029 -3.4848485 1.0551265 0.041981265 1.0097214 0.074115135 1.2869703 -1.085343 -0.079015955 0.86940086 -0.41266745 -0.29823226 0.22765239 -0.66697764 -0.8796889 1.5476711 0.6656597 -1.173866 -0.64241844 -2.1790946 1.5116299 0.9752136 -0.1590053 1.3286152 -2.9014542 0.22646636 2.234516 -0.9931158 1.3865485 0.027865587 -1.0332423 0.3077681 -0.51623845 0.18702762 -0.63943726 0.686811 0.340226 -1.0230145 -0.5851507 -1.068702 1.370174 -1.9675466 -0.45962223 1.7703904 1.3193 -1.1094686 -0.8690224 1.7072463 1.1517153 -2.525087 0.23375998 0.45671126
-96516729 -0.43864253 -0.110033825 -0.76450956 0.34733835 -0.453017 -0.47864878 0.17921928 -0.6082717 -0.4760661 0.46100512 -1.1789659 0.41106805 1.213373 -2.677046 0.8934124 -2.80379 -1.6136454 0.4685195 -1.2534283 -0.24220356 -0.45424426 1.3626226 -0.29794753 0.42746794 -0.32221058 -0.85095537 -0.474215 -0.76303774 1.0659344 -1.8106152 0.57166785 0.47039416 -1.1348999 0.815599 -2.6496685 -0.56410223 2.2645133 1.0068737 -0.5403328 -0.88898486 -1.0272838 1.6680942 1.1401713 0.7019077 0.33467332 0.69787025 0.6146799 -0.4163407 0.7356319 -1.8089936 -0.28899938 -1.7557893 0.49458277 -0.8899017 0.58611643 0.25073776 -0.05135736 1.0796647 0.08077059 -0.9293116 0.69630224 -1.6131066 0.35987353 0.8144929 1.012694 -0.18844771 0.7058001 -0.6300224 1.5642151 -0.35892603 -0.661365 1.2773335 -1.1010942 0.24325058 1.0133231 0.2466706 0.449374 1.6698171 -2.2134433 0.6667711 -0.19458008 0.89560074 1.4030987 -0.3688089 1.3831685 -2.0242348 -1.2227073 1.168934 1.0822675 -1.086278 0.40681022 -0.79369146 -0.16290471 -1.8765272 -0.9116843 -1.6859703 0.35068554 -0.9499859 -0.028748946 2.210453
-20376207 -0.032830622 0.6277422 0.9209726 -0.25531363 0.72440434 -0.74918646 -1.7272185 1.5872377 1.1756951 -0.42462975 0.679671 -0.47829792 -2.6451387 0.10392296 0.89467627 3.156225 1.0383582 2.0030556 -1.0613891 -0.106563464 0.10578047 -1.790801 0.54326314 1.3145455 -0.3298826 1.4064809 -0.9849444 -0.13641816 -2.294462 0.81261504 0.9375612 -0.28366274 -2.378419 -1.9125967 -2.0727043 0.19840655 -0.7321351 -1.7324396 -0.113698475 -0.5118785 -0.34558067 -0.4144652 -0.65738463 -0.7474265 -1.3258929 -0.4822833 0.5258072 1.1196532 -1.3713647 0.5521292 1.1738118 -2.350254 -0.7301566 1.4754388 -1.4608244 -0.5002225 -0.9641265 1.5448606 0.77507704 0.12324122 -0.6611054 0.7012404 -0.63420653 -0.99300617 -0.79746556 2.206969 0.7485968 0.8331455 -1.4267515 0.51782036 -0.958355 -0.79506195 0.47789732 0.05209348 0.29327017 2.0216117 0.114655755 -2.1162236 0.24339497 -0.1751827 -1.4075761 0.7853353 -0.9054686 0.011827142 1.595397 -0.716163 0.12111083 -0.700539 -1.7376842 -0.87362915 1.5761665 -0.0620118 -0.64117664 1.2222458 1.6108515 -0.04404132 1.9202851 2.0282505 0.81524116 0.24184549
-48910664 -0.8206125 0.927408 0.81532085 -1.9497997 0.09041371 -0.55690086 -1.2275088 0.71714056 0.44007406 0.047785737 1.2339718 -0.8436707 -2.3084877 0.7097866 0.29456386 2.7995057 0.117751375 2.5802624 -1.0426555 0.28172264 0.5823317 -2.8509057 1.5114208 0.91507804 -0.4560022 1.3083137 -0.66749 -0.0607456 -1.9182218 0.8931146 0.21184768 -0.08543733 -2.4380414 -2.4687974 -3.0842054 -0.8628443 -2.1468806 -1.5821501 0.090278246 -0.6184401 0.97725546 -0.08621456 -0.40988952 -0.8759092 -0.862923 -0.36914936 0.13505426 0.82018954 -1.0709535 0.17281134 1.2147775 -1.8290697 -0.097594455 1.7336576 -0.042968176 -0.7824211 -1.5159295 2.3457074 1.0224639 -0.5552401 -1.1153241 1.568954 -1.5642537 -0.5728334 -1.1276323 1.6871103 0.4687857 1.1362864 -0.55584997 1.0184857 -1.0697815 -1.9837773 0.38530242 0.7141609 -0.20386669 1.0288345 0.5069202 -2.988092 0.531259 0.008985782 -2.0280285 1.3793519 0.057610054 -0.014413932 1.7829353 -1.021828 0.10734422 -1.6620512 -1.4592942 -0.87360096 1.3647188 -0.5793078 0.540039 0.96288866 0.8014446 1.1322039 3.1062043 2.089771 0.1864281 1.1422052
-30767446 -0.01916118 0.27217245 -0.35836348 1.1410974 0.07056935 1.0435704 0.8054522 -0.8952369 -1.2354295 0.939225 -0.22725889 0.9726437 2.8948863 -1.8649333 -1.3285097 -1.5415998 -1.1374497 -0.114872165 -1.7972686 -0.28114507 0.69371516 0.8707597 -0.4848997 1.2423699 -0.050810974 -0.23289059 0.6854747 -0.17850459 0.12404633 -1.2011296 -0.14245267 -0.6678714 0.97605544 2.3103478 -0.96258795 0.59065616 2.080996 0.3149835 0.001894781 0.5728288 -0.13699834 0.87603456 1.0796064 0.00828553 -0.86598694 0.6243572 0.21752532 0.30907002 0.8367784 -0.07701788 0.53410256 0.026446015 -0.60890704 -1.9485822 0.33681288 -0.0925168 1.1507837 1.6242212 -0.3698252 -1.1488816 0.52683514 -0.2882399 -1.3661348 0.50878936 0.82427937 1.0585638 -0.5341509 0.33559653 0.69008195 -0.68262833 -1.45616 1.2094035 -0.75049937 -0.4604344 0.44015014 -1.3190536 -0.88847476 1.5726978 -0.63174057 0.51486796 0.5269451 1.3847129 0.36442706 0.109540984 0.5644176 -1.3303076 0.82225174 0.32807684 0.9525234 0.32278115 -0.2355692 -0.9012665 -0.62642795 0.037354767 -1.9789561 0.09208632 -0.48722768 -1.0998642 -1.214771 -0.41505858
-104530684 0.5028014 -0.43510544 -0.9003233 0.43897986 0.4411807 1.2132794 -0.29209793 -1.4347104 -0.7514292 0.9140295 -0.36959058 0.020136243 2.3071234 -2.2008975 -0.5156315 -2.2965672 -0.88348794 -0.6086448 -0.88244843 0.030926038 0.25939482 1.0622203 -0.30042833 1.1315651 0.6812461 -1.1760263 0.27247036 -0.34613255 0.5396952 -1.6551332 -0.06299819 -0.5009082 0.7768296 1.8898311 -1.4339917 -0.021528896 1.9859854 0.9858866 0.30021995 1.055434 -1.0345405 1.2049618 0.7604314 0.3452725 -0.7002548 0.6610716 0.9125214 0.30852512 1.0462097 -1.0510842 0.0018288901 -0.3618167 -0.619186 -1.6069849 0.81773156 0.027247647 0.3626198 1.5752411 -0.041143544 -0.45085475 0.69101393 -1.1111685 -1.156178 -0.06503008 1.0231029 0.05232424 -0.2991315 0.21669239 1.1153576 -0.51838243 -0.80037767 1.5451635 -0.3819119 -0.43900695 1.1842209 -1.2933034 -0.52003616 1.6125809 -0.8606108 0.08375233 0.2979973 0.7737599 -0.43072033 -0.0412972 0.62099093 -1.3823493 -0.18162909 0.5577477 -0.19674668 -0.112582296 -0.6610527 -0.5505915 -0.87643725 0.036346767 -2.1226013 -0.35708174 -0.44618398 -1.0419846 -1.5901726 0.5220516
-58386555 -1.3761078 0.6476126 0.93321294 -1.9902031 0.054674998 0.0704875 -0.7872228 0.98808706 1.1855685 -0.12712966 -0.36217412 0.90195906 -2.703143 -1.6433929 1.162862 1.8159947 0.34806505 3.289894 -0.6054721 -0.6001687 0.91354424 -1.2564397 1.8312726 0.73905563 -0.97102815 0.65861344 -0.20989369 0.053074256 -2.4573672 0.16190931 0.6373972 -0.4500479 -2.3444715 -2.311764 -3.0407755 0.5826115 -0.5819953 -1.5748763 -0.86488855 -1.5867637 -0.7610474 -0.7825005 -0.0033909425 0.18348521 -0.65892243 -0.24873406 -0.028456964 0.70869946 -1.6694947 0.4460041 -0.27818537 -2.3152828 0.82806176 0.51519555 -1.0953587 -0.22063227 -0.93621343 1.4005761 0.84194905 -0.14019795 -0.43552297 1.2751206 -1.1627955 0.05972455 -0.010580122 1.470257 0.82027775 -0.59422624 -1.2653283 -0.07162285 -0.8532018 -0.88854784 0.35193023 0.58239025 0.8561766 1.5245038 -0.08517954 -1.6794672 1.3506644 0.8685815 -1.2140424 1.1003586 -0.73314273 1.1461121 1.0907649 -1.4470357 0.45352757 -0.44529733 -0.7555041 -0.36242676 0.70068234 -0.21801727 -0.5756505 0.10833369 1.5346539 -0.5327971 2.3044968 1.7853372 -0.2174842 0.33453625
-78273543 -1.7245241 -0.98139364 -0.15307271 -1.3899467 1.0796963 -0.7636476 -1.2349927 1.1922663 0.39193213 0.13951932 0.49730006 0.74319696 -2.0363438 0.7626844 1.4376659 2.3718915 1.555481 0.99529606 -0.91684204 0.3362188 -0.37741438 -2.595141 0.98813295 1.0219543 0.49868125 0.9005745 -0.56855637 -0.5010802 -2.3427691 0.9482313 1.3328372 0.33081293 -1.5195795 -2.1799598 -1.743265 0.38023284 -1.691226 -1.2325945 0.16979572 -2.563544 -0.7930187 0.17024413 -0.35365486 -0.3863465 -2.0041833 -1.0639082 0.20032689 0.38586822 -0.9975018 0.11846681 0.3755461 -2.001909 0.415707 0.64036083 -2.002942 0.8627689 -0.7161157 0.96315867 1.6034247 0.5062245 -1.1447086 0.8032472 -0.43742794 -0.36059433 0.28389937 1.3242624 1.1466357 0.93756413 -1.7323724 1.2210938 -1.4948901 -0.83601344 -0.13547283 -0.3927137 0.6431567 1.8348354 0.9887653 -2.0883012 0.7361637 1.2232548 -2.2320018 0.2376306 0.3296368 -0.04009494 1.4345671 -1.6232032 -0.6323186 -1.4349067 -2.0242002 0.63088095 1.1895299 0.5225657 0.07321102 1.2379537 -0.28387117 0.43495414 1.5902653 2.1503358 0.6758055 -0.32291648
-48558367 -0.4020026 -1.6050932 0.9694541 0.99207735 -0.2585397 1.4354049 2.1562939 -0.8094539 -1.5387051 0.59838986 0.012574401 2.0554783 2.3711681 -2.776801 -0.87184185 -2.321407 -1.0004785 -0.30430892 -2.0807605 -0.03808213 -0.22885376 2.2715118 -0.47104636 -0.6401954 -1.6245751 -0.25879803 -1.575988 -1.805642 -0.49733967 -0.7446781 2.2965434 -0.094388925 -0.39826775 1.2856231 -1.1581268 0.61447275 0.7694276 1.1164327 0.06348631 0.091230325 -1.3533016 0.5265209 1.4244467 -0.05763226 -0.24672201 2.0931697 0.34287557 -1.0551726 -0.6269422 -1.4040828 0.71925795 0.011500483 -1.6760427 -2.7033224 1.1162801 0.14666888 -0.103963904 0.11005922 0.56721395 -0.43042722 0.82706004 0.62876004 -0.62579995 0.5851957 -0.8022486 -0.19679427 0.10731159 -0.3709307 0.5677942 -1.7584933 -0.7493157 0.48656037 -0.02127644 1.4595463 -0.033582635 -2.9602973 0.27352613 -1.5964859 -0.6107169 0.8407811 -0.35439715 0.35505283 0.06855302 -1.5540352 0.8081295 -1.218647 0.13309163 -2.4325314 -0.08014813 -0.5538203 0.17255332 -0.3154388 -1.1791061 0.051990505 -2.0452366 -0.95334804 -0.6339876 -1.7067206 -1.5303671 0.95009834
-38253951 -1.8784801 -0.54743046 1.0766418 -2.1788354 0.4990989 -0.42520958 -0.65965796 1.108288 -0.11098226 -0.12736692 0.5111437 -0.6985095 -2.2076502 -2.2305334 0.8365024 2.4935908 0.93866897 1.2172194 -1.3664751 0.5978345 0.23296484 -2.3323507 1.3590894 0.8734713 -0.4082792 0.9400583 -0.7040773 -0.360487 -1.3694931 0.7797669 -1.0733644 -0.7293776 -1.6252252 -1.497785 -3.39499 0.29305792 -0.9958404 -1.9463677 -0.7372957 0.1043121 -0.6305819 0.4459445 0.074595176 -1.4095391 -1.6934803 0.16985351 0.5651177 1.4813228 -0.20168255 0.74123955 1.1748574 -1.6054159 0.5795751 1.6696435 -0.39804858 -1.1233529 -1.7201606 2.5420809 0.57315433 -0.5103153 -1.2291012 1.8988738 -1.1030107 0.019293105 0.06156509 1.3488348 0.99260783 -0.67425364 -1.8289924 0.7968481 -1.427163 -1.8657604 0.5857789 0.9641055 0.18790948 0.852787 -0.7279476 -1.8641279 0.6949742 0.35502937 -1.3780676 0.511554 -0.074042894 0.8249734 1.2550331 -1.4860879 0.2586694 -1.3598583 -0.8808481 -0.4986105 -0.3151361 0.26599902 -0.0050176606 0.32166815 1.7862761 1.2826953 1.5244461 2.6794589 -0.53730536 0.421432
-33755395 0.37958005 0.38585678 -0.95707417 0.74782574 -0.67872083 1.5292889 0.89832544 -1.4967183 -0.94288826 0.74114656 -0.2900926 1.3308699 2.6026378 -2.1458452 -0.99328804 -1.4719293 -1.0575341 -0.12854908 -0.7346721 0.060803313 0.45547745 1.1734431 -0.5929108 -0.12327102 0.39134073 -0.057325833 0.31625184 -0.24899375 0.4770503 -1.0329905 0.091834486 -0.48304874 0.69525504 2.4797547 -1.1359951 0.21394393 1.423838 1.1413176 -0.4216636 0.6284192 -0.81640315 0.81827056 0.5108971 -0.24342477 0.33302408 0.612119 0.24001384 0.18610986 0.3897934 -1.0851938 0.2526472 0.2891448 -1.0659266 -2.380342 0.39609236 -0.086009346 1.2183295 1.1109687 -0.32797134 -0.9416288 0.90122455 -0.8984906 -1.2594727 1.0116128 1.7460374 0.65330964 -1.2854261 -0.31809238 0.37539297 -0.44001272 -0.6972528 1.3050073 -0.27415264 -0.029439906 0.12465625 -1.2302488 -1.1397867 1.405744 -1.0003372 0.3670432 0.1232154 0.46070385 -0.05706096 -0.643858 0.8695028 -0.9903404 -0.20170642 -0.081616186 1.1930411 -0.23092195 0.1435588 -0.6625089 -0.9332517 -0.47409678 -1.170076 -0.45112777 -0.0144224465 -1.1444013 -1.1411334 0.3579764
-39195765 -1.5529011 0.3556612 0.385833 -1.4579884 0.53745806 -1.4907038 -1.1224558 1.4349585 2.053477 -1.4988126 -0.6481712 1.917986 -3.1944203 -0.84097636 0.93220305 0.8492041 -0.116750285 0.83025503 -0.36260414 -0.18583049 -0.36145872 -0.83150953 -1.0475546 -2.0420463 -0.21197575 -0.07300072 0.75653636 0.08404549 -2.5192838 0.32649538 0.69003284 -0.65022975 -1.6876944 -0.45067126 -0.7449579 1.4888768 -0.22630285 -1.1846823 -0.7784327 -2.1406174 0.15523411 1.2741492 -1.5546186 -0.515339 -2.2778378 -1.1338906 0.3759735 0.1140342 -1.9967036 -0.8071186 1.7914987 -1.9791087 -0.8992348 0.59344894 -2.929286 0.059867457 -0.08032989 1.684712 1.4646419 -0.5194581 0.95672315 1.2201787 0.78742325 -0.24354212 0.20585293 2.3682597 0.4167231 -0.2891882 -1.0979182 -1.530309 -0.6034787 0.012740989 0.40105727 -0.18784645 1.4284058 2.839213 -0.3308252 -1.8254997 -0.008188792 -0.18523955 -0.11452194 1.3689656 -1.3607357 1.4625262 2.3495898 -1.0909653 0.915453 1.3032829 -1.6189535 -2.1668446 0.9382973 -1.009257 -0.91980976 0.3620047 2.227521 -1.4027944 1.87236 -0.7601584 0.66971934 -1.070039
-20954938 1.2151954 0.495464 0.021337468 -0.5862026 0.18436143 1.7775466 0.44960678 -2.7621577 0.69092375 0.37272227 -0.5221609 1.7745543 1.526193 -2.432791 0.54592705 -0.19760628 -0.75390005 1.0400434 1.8498656 0.10339174 -0.03563549 0.087173685 -0.2684162 0.4553746 -1.395093 -1.7351645 -0.058806334 -0.32563493 1.3699006 -0.41206288 0.5800517 -1.6065539 -0.8717406 1.7447776 -0.25151566 0.73412883 2.5529413 -0.9726804 -0.058041215 -0.5612314 -1.566757 0.10009681 0.5969318 0.76415753 0.55177236 -0.502441 -1.3627095 0.68350726 0.3487445 0.9563898 -1.582405 0.97946024 0.917962 -1.8469104 0.7670907 -0.37349573 1.025715 1.0371994 -1.6282835 0.64811444 1.3171358 0.6015957 -1.1460452 0.5718582 -0.14983307 -0.6114036 -1.0365535 -0.31717482 1.0243679 1.1139373 0.0729911 1.0149139 0.40094295 -1.4624716 1.0371232 -0.122952364 -0.24536406 0.3486608 0.59764135 -0.11699886 -0.022220502 1.481876 -0.40603554 -0.05482065 0.45604655 -1.1047783 -1.1396649 0.5767889 0.7199122 -0.34449074 -1.4027853 -1.3150518 -1.9815664 1.0301548 -1.4276025 1.2491896 0.19796783 -0.011087465 -0.86602414 -0.22840454
-161289869 0.8342526 -0.058506 -0.71086776 0.7541523 -0.4038694 1.1294206 0.01667198 -1.1155847 -0.43966112 0.3226442 0.16456811 -0.03949796 1.8782402 -2.2141464 -0.21409638 -2.156895 -1.101824 0.26530382 -0.103831366 0.36696285 -0.67055833 1.246945 -0.75844604 -0.27250096 -0.013266124 -1.0185331 -0.774911 -0.73935884 1.0427406 -1.5619072 0.052201066 -0.2535475 -1.0773176 1.7723719 -1.4945188 -0.44268194 1.5260259 0.67485684 0.053975735 -0.2873323 -0.9988455 1.0136651 1.505818 0.70830977 0.07533345 1.000729 -0.28532353 -0.75016046 0.8850908 -1.4553266 -0.10298719 -0.005610191 -0.571046 -1.9070411 0.7139756 -0.68225265 0.23715942 0.9473959 -0.17314121 0.40600157 0.56029207 -0.9007316 -0.014927633 0.28948775 0.21978845 -0.44859314 -0.5149092 -0.5494841 1.3270524 -0.053019807 0.22138914 2.0247269 -0.55891585 -1.1529015 1.2585688 -1.0180745 0.5332696 1.5392433 -1.6625936 -0.33258092 -0.8891114 1.0641221 -0.4007009 -0.8567638 0.9946351 -1.7016717 -0.8891378 0.07306284 0.19125175 -0.4374391 0.16328073 0.44705844 -0.73147684 -0.4232714 -1.2066734 0.00040942917 0.4981566 0.3546895 -1.0630852 1.4970479
-20823552 -0.8909589 0.46664688 -1.7918491 -2.452911 -1.0266436 0.60857147 -0.63870865 -1.2631516 -0.48654318 1.2093284 1.1751798 -2.6233108 0.40989363 -2.0729923 0.51141787 0.5336122 -0.39872995 -1.4444852 0.47525012 0.5280797 -0.5092921 -1.1599163 -0.98441696 -0.33022544 2.6915002 -1.5600969 1.7223214 -0.2237282 -1.5028816 2.5431361 -1.3439627 0.037559144 0.56169325 -0.47435665 -0.5006148 -0.0012026798 -3.2900622 -0.87035537 -1.0295457 -0.029421935 1.1995224 1.6233354 -0.61742055 0.11863685 2.0468774 0.015434302 0.59122086 0.18131226 0.035414685 -2.4460294 2.032532 1.7317078 1.7365537 1.5738014 2.4374993 -1.6880742 -0.42487106 2.8918984 -1.0719947 -1.7882018 0.7477218 0.36905828 -1.346311 0.7577103 0.9461601 -0.9365518 0.06891228 -2.2435503 -0.053850766 0.50268894 -0.4058514 0.36166033 -4.0864205 0.9958909 2.1352758 0.4735367 1.2691731 -0.83302236 -0.07767272 -0.5139922 -1.6070988 -0.62751824 -0.14761965 -0.088221624 0.15501286 0.49692976 -0.6094816 -2.1347013 1.6185739 -1.8262745 -0.28977022 0.75497586 2.9912632 -1.8623135 -0.40555716 2.9125059 0.40835598 -2.4136987 0.3748525 0.8259112
-23726135 -1.717063 0.8277433 2.930426 -0.34957382 0.7289766 3.177567 -1.1018271 0.6641816 2.2384346 -0.111032076 -0.015763681 -1.1434963 -2.6329527 -0.41374877 1.557847 0.115082085 -0.74612117 1.9989493 3.1427386 -0.40328467 2.240706 0.37139365 0.61914384 0.990217 -0.686506 0.13179933 -1.648218 0.11113019 -0.0262128 1.8364284 0.9655902 -1.0720176 -0.15437992 -1.2538782 -0.038045105 -0.7429227 0.40461197 -2.085136 -0.15138985 2.153543 -1.3489764 -1.8384109 -1.1092774 2.1223276 2.0975127 -1.8433691 0.55235595 0.792324 -0.45658153 0.9298086 -1.9041717 -0.6967608 1.628263 1.3092948 -0.95153564 -1.10947 0.3414716 -1.39989 0.17694782 0.5522248 1.4003365 1.8848281 -2.8886735 0.635622 0.7056163 0.031395324 0.18069214 -1.0260718 -1.4983388 -1.1017724 1.0651903 0.17460969 2.1616898 -1.3206468 0.6463364 1.2618393 0.89447105 -0.63740665 1.3971426 -0.8893102 1.1010759 1.384835 -0.71253043 2.87236 -0.6891451 -0.5931579 -0.7630997 1.2792381 1.9235685 -0.2677242 1.2142016 0.404179 -0.5669881 -1.6388617 0.8970624 0.6969484 0.36073932 -0.76507807 0.17651504 -0.96056074
-32192360 -1.6534421 0.67219406 1.0435824 -1.3061243 0.3059802 -1.4695834 -1.3438197 2.0231242 1.5765679 -1.4416158 -1.1926619 1.463677 -3.9716399 -0.35029328 0.5201817 1.4357117 0.24034183 0.67215353 -0.5465176 -0.39472428 -0.007134538 -0.81445086 -0.94544435 -1.9972537 0.0066350657 0.13063136 0.91979927 -0.4171552 -2.6334171 0.030197704 0.09092581 -1.341971 -1.0165244 -0.3202603 0.52077526 1.8840467 -0.61388934 -1.7271017 -0.95700836 -1.784014 0.19945468 0.6244456 -2.4155045 -0.65527076 -2.235653 -1.967074 0.16633111 -0.25362468 -2.51243 -0.29161724 1.8224399 -1.0264703 -0.3979345 1.2141093 -2.7258525 -0.39267036 -0.10508753 1.6769578 1.295893 -0.5315597 1.6330756 1.4260811 0.9464726 0.14560206 -0.03940647 2.5545096 0.44531223 -0.43362457 -1.5880644 -0.9944475 -0.55330944 -0.39580753 0.7127288 0.10663781 0.7794549 2.9811246 -0.5064901 -1.5138686 0.5375309 0.05311308 0.21504846 1.6047835 -1.1175475 1.5758691 2.036654 -1.5574697 0.90787095 1.7271178 -1.5369117 -1.3814945 0.83156395 -0.8501265 -0.9858394 0.35674784 2.4240978 -1.0966812 1.4949006 -0.59758884 0.2961491 -1.2917467
-16428580 -1.1004949 0.7076973 1.5024784 0.091096096 1.6458422 0.14221695 -2.2674057 1.0346744 1.852268 -0.061138634 0.5731853 0.020827731 -2.300279 -0.25521767 1.4698853 2.8761163 -0.17786802 1.572294 -0.21654041 -0.19195132 1.2057743 -1.1987039 -0.23582637 0.86578846 -0.41430944 -0.809563 -0.9970437 -0.64558053 -2.463631 1.226122 1.6623349 -0.5894829 -1.7038543 -1.7375576 -1.8751612 -0.1566976 -0.23695092 -1.489294 -0.23466577 -0.3566213 -0.6054638 -0.6644658 -1.0004723 0.1611808 -0.24997003 -1.2113357 -0.17884189 1.5176 -1.7496601 -0.04915814 -0.80943984 -2.3700728 0.26373193 1.303492 -1.8452548 -0.18570246 -1.4303437 0.85474056 1.0624983 0.19329666 -0.08938365 1.0645264 -0.6484433 -0.041688193 0.620654 1.6452464 1.5000092 0.53119034 -2.1190732 -0.30023187 -1.1483157 -0.40532357 0.25419995 -0.9186619 2.0742075 2.0985801 0.50174236 -2.0763366 0.923576 0.51203096 -1.7548339 1.3873509 -1.3436308 0.8445134 1.1337867 -0.90132487 -0.38228452 0.345665 -0.52596384 -0.00641979 0.5874178 0.19028355 -1.4164969 0.308025 1.4992758 0.6911128 2.8679075 1.5083165 0.23195118 -0.7405477
-41539254 1.5623018 1.8842559 -0.41521433 0.8683378 -2.2453365 0.23162371 -0.39759582 -1.5488747 -0.74271274 -0.0783017 -1.1167378 2.5147192 1.2468747 0.953248 -1.4019352 -2.6728475 -1.5176485 -0.9717466 -0.72605133 0.20297566 -0.9976639 0.88957506 -1.5117882 1.179311 -0.6462455 0.5942016 1.1163716 0.07753573 -0.21556965 -1.1612923 2.297287 1.4075906 -1.672013 1.434358 -1.2698704 1.1552279 0.2450113 2.0753589 -2.2854095 0.5943337 0.70999414 -0.03622687 0.2037408 0.43661 -1.4738202 1.5506306 -0.77348536 0.13877273 -2.4685295 0.4923857 -0.94883054 0.8201832 -1.4481503 -0.012117494 -0.9798774 -0.79031086 -0.5689282 0.13783588 1.2885789 -1.3555288 -0.35509354 0.36570343 -0.88125336 1.458635 1.474303 -0.06641673 -0.8693273 -0.4879526 0.047180545 0.60273623 0.7095022 1.0370587 0.82770157 -0.08918466 1.4653068 -0.7630431 1.3492991 0.6605976 -0.28742966 -0.6511571 -1.729164 -0.55525064 2.2237906 -2.481916 0.54721683 -0.17425564 -0.099132515 -0.9279969 -0.9957578 -1.2606015 -0.041917197 -0.82779306 1.6971071 -1.4105458 -1.5975745 0.52723575 -2.027588 -0.14884704 -1.0460286 -0.11106707
-44613773 -1.1210161 0.7114598 0.77617157 -1.0911052 1.333231 0.03966125 -1.4595873 1.2347937 2.7426515 -1.5593613 0.953955 -0.6370753 -1.5318425 0.75425917 2.6488945 3.1666057 -0.23992231 2.1575985 1.1567217 -0.62875825 1.5969158 -1.8038743 -0.585685 0.54257745 -0.37019503 1.7039467 -0.5823985 2.0710773 -2.151039 2.0938983 2.322512 0.054824166 -1.5360235 -1.9137841 -1.4300117 0.38667956 -1.1798378 -0.837879 0.28729242 -1.1888889 1.2163078 0.7210746 -1.207231 0.7899455 1.055815 0.007225807 0.5459974 1.0616889 0.46389052 -1.4985799 2.0107257 -2.4655886 0.8889643 3.165215 -2.0299332 -0.73268986 0.347772 -0.4396967 1.4491065 0.74810594 -0.16296932 1.9350919 -2.048655 -0.7846459 -0.12933391 -0.25149086 -0.30446708 0.31985006 -1.442382 0.14290917 -0.83060735 -1.2264726 0.87073267 -2.1763809 -0.120174326 0.96640795 1.6929159 -2.8322828 1.1721187 -0.32623938 0.2088409 2.3671772 -0.25790453 1.4262298 1.4026679 -1.3198361 0.6140827 0.7380427 1.1315714 -1.4257784 0.6620651 0.87669873 0.28610706 0.22560662 0.8467156 0.015585823 1.7267215 -1.122639 2.0446725 -0.6044776
-47661616 -0.1661821 -0.29754993 -1.1049232 -0.00036015775 -0.7334663 1.0389738 0.39619347 -1.8427641 0.06392926 0.24920733 -0.9479928 0.3599632 1.1226083 -3.076226 0.7536225 -1.5476599 -0.52328557 0.5204417 -0.4421237 -0.610307 -0.7087138 0.5425042 -0.064146146 0.49320686 0.18901318 -0.7049375 -0.7221094 -1.1580459 0.5986424 -0.72074836 1.1308486 -0.40786663 -1.348747 0.79461056 -2.8925269 -0.27161986 1.7536548 0.7353553 -1.5311925 -0.6952631 -1.7960457 1.4062002 0.83847326 0.547202 -0.18677557 0.64670175 0.086619794 0.1331712 0.86211205 -1.7937927 0.88118505 -0.926877 -0.08028485 -1.0358102 0.7163436 0.1931532 0.1967597 1.088756 -0.09001709 0.2724941 0.6872385 -0.54704607 -0.3604566 0.119170785 0.6119934 -0.27856493 -0.81042445 -0.9262999 0.5204941 -0.16281979 -0.6846433 1.7770439 -0.5883559 -0.52739155 1.6750336 -0.10059289 -0.26505643 1.0913147 -1.1897298 0.7027559 0.19352269 0.43607882 0.62305576 -0.77441376 1.2280611 -1.2627059 -0.85610616 0.86348134 0.6925601 -0.59311837 -0.5563285 0.39040083 -0.034191877 -1.1414987 -1.2076879 -0.49356475 0.52937984 -0.05805212 -0.16704349 1.3952391
-70946927 0.17863503 0.4351394 0.34301287 -0.12109549 0.2179164 1.7257521 0.9192438 -2.0042706 -0.2941685 1.0481325 -0.429244 1.4542197 1.5558113 -2.7266433 0.55555636 -1.363596 -0.4140291 0.4873912 -0.4284282 0.21427046 -0.004033396 0.5187389 -0.8230096 1.0016923 -0.80453426 -1.028417 0.24179055 -0.8449706 0.5904293 0.30593085 1.131901 -1.3092285 -0.635171 1.498465 -0.8006143 -0.16719465 1.5719733 -0.8018806 -0.2402811 0.35560495 -1.6873167 0.7290331 0.29488975 0.6111256 0.311379 0.14415611 -0.23639677 0.11958053 0.5620979 0.4546005 -0.3701088 -0.26314867 0.2620814 -1.5191278 0.5867027 0.27269253 0.16751514 1.5081726 -1.2587259 0.14953972 1.1592864 -0.03793025 -1.4259896 1.0240022 0.09471952 0.4129044 -0.5899168 -0.9707617 0.6666963 -0.22579254 -1.2467971 1.2309084 0.16472892 -0.4326682 1.0783246 0.31172976 -0.57694024 0.39231175 -0.10423881 0.30536574 1.0617015 0.73257446 0.16692577 -0.43589213 0.6774569 -1.3673358 -0.97259337 -0.11222481 0.6235015 -0.99836695 -1.1430278 -0.5168285 -1.1723565 0.32578877 -1.6454443 1.0996627 -0.58826196 -0.16917855 0.05446576 -0.2903604
-153073720 -1.0959038 -1.1767888 -1.1106852 -2.0788648 -0.7987364 -2.8068926 0.14254451 1.5193287 1.0400242 0.20892921 0.17428541 1.5840683 -0.62444216 0.32057643 2.5270975 -1.4581891 0.16669874 -0.84120363 2.5468414 1.8530428 -1.8685905 -0.642343 0.5458158 -0.4720124 0.99659324 0.20173502 1.0135854 2.6433406 -0.59194535 -1.4606228 -0.031895515 1.9387354 2.4500976 0.23293042 0.5824667 2.0385056 0.77350974 0.6218532 -1.5901215 -0.6009748 -1.417626 -1.1447115 -0.6354228 0.33099627 0.12751038 -1.6826501 -0.0761182 -0.9545403 2.677938 0.60386693 -1.117066 0.78101534 -0.70618516 0.83859587 -0.28215757 0.76174283 -0.28008068 -1.4584717 1.5245196 -0.60371166 -0.5222287 -0.018780561 -1.3211368 -1.330172 -0.33834013 -0.8713226 1.7667701 0.5502421 0.5837681 0.080805585 0.081923574 0.6568292 0.89633256 0.92284054 1.3330507 -3.5681906 1.0970428 1.0897071 -0.4130559 -2.9985886 2.5916438 -0.09054563 1.5819887 1.9044458 0.9198856 2.2483666 0.17802265 0.886925 -0.84195876 0.6476355 -1.872957 0.4135984 -1.4342083 1.0099251 -1.6248771 1.8577776 0.07784441 -1.7377144 -2.141277 -0.38610244
-31342849 -0.25474134 0.59973836 0.6945206 -1.2043523 0.06799171 2.464725 0.5893038 -1.0695966 1.6251206 -0.6791549 -1.6414285 0.60767514 -0.59022045 -2.6326468 1.8662343 0.5712595 -0.08566929 1.9544195 3.744798 0.5329996 0.24364412 -0.022121016 -0.11380216 -0.13709453 -2.0898714 0.28418562 -0.18103726 1.1264689 1.1979269 -0.3206643 0.024637021 -1.6704271 -0.3907687 0.6213418 0.75887376 -1.3868264 1.4678903 -0.23843528 0.23234147 1.052944 -2.3123949 -0.97558534 -0.5110225 0.61773336 1.2075257 -0.48339948 0.6847905 0.5842691 -0.29713082 1.0653005 -2.6323817 0.21639183 2.0931194 -0.022572415 -0.49805638 -0.4333135 0.096634954 -0.5506425 -1.4684441 0.99250156 2.4879296 1.5677665 -2.1618915 1.224393 1.321346 0.17656624 -1.0678937 -1.5808481 -1.1267129 0.86812955 0.74649596 0.64268005 1.2766935 -1.6939325 0.6066134 -0.46465045 -0.023223922 0.9359725 1.7475975 -0.5063434 1.0059886 1.145489 -0.30004445 1.7353691 -0.69249576 -1.1092336 -1.7606024 2.2423503 1.7901007 0.35418054 -0.9385745 0.5387644 -1.1290087 -1.9943736 0.85465145 0.475105 0.43270168 -1.2062266 -0.5584774 -0.6257001
-8162550 0.5585336 0.07617718 0.119714566 0.11567384 0.097126186 1.6344947 0.1059338 -1.9893552 -1.1886047 0.9298543 -0.5469648 2.0628858 2.238214 -1.2995656 -0.75124305 -1.2113596 -1.4751474 -0.15887025 -1.4168941 0.12981701 0.67436725 0.22387597 -0.7932347 1.2419504 -0.0570449 -1.6581767 1.251849 -0.20121859 0.97563714 0.37201446 0.2350252 -0.92950654 -0.34424353 2.2847416 -0.3377198 0.36872888 0.94635904 0.029509146 -0.18214238 0.96200633 0.0023935554 0.6166057 0.5619708 0.5514192 -0.5046069 0.9527662 -0.39574993 0.64529777 0.96646374 0.23850249 0.19914499 -0.21122785 0.34434813 -2.4488735 0.15481752 0.4007991 0.681098 2.275701 -0.8002331 0.26313668 0.70652544 0.8777039 -1.3264959 0.8539855 -0.35090142 1.0657382 -1.8473217 -0.3555925 0.41940165 -1.0624187 -1.2906784 1.5101515 -0.042141233 -0.6692366 0.6775558 -0.019418554 -0.7945106 0.30657616 0.31107238 0.073131636 1.3061191 0.9337502 0.8788512 -0.7552394 0.57583356 -1.2622209 0.40631405 0.67258185 0.5167138 -0.5169913 -0.6949673 -0.6667226 0.14105482 0.48796466 -3.238402 1.2626632 -1.045179 -1.0423003 -0.26467595 -0.5017619
-67096146 -0.6617143 0.5688289 0.933267 -1.3189296 0.9610218 3.60642 -1.2210797 0.10785419 2.851089 -1.685362 -0.6096106 -1.2897989 -0.54379284 0.7047585 0.06837935 0.08235423 -0.4094286 2.6153224 4.1093225 1.064706 2.1940632 0.9099587 1.1627576 0.5100829 -1.8333498 -0.024820825 -0.5117429 3.0178201 2.030073 0.9441826 0.28815046 -1.4284703 0.40983206 -0.41459602 0.49306667 -1.266952 -1.3347447 -0.07764359 0.58756465 0.8594176 -0.14039426 -1.5304729 -1.0310919 2.0394318 2.9049792 -2.5651975 1.1941038 0.3312679 0.0351443 0.26486468 -1.0931188 0.2885112 2.313843 0.8152527 0.13056426 -0.08424367 1.5934544 -2.0160754 -0.89508665 -0.028644562 1.9218622 1.5123549 -2.7038918 -0.39647892 1.3928559 0.268459 -1.2434324 -1.5034573 -0.64807296 -1.2137783 0.5097933 1.1415993 1.1961526 -2.5545974 -0.4882471 0.07986776 1.4352092 -0.16997458 2.571247 0.06417521 0.30221164 2.7575743 -0.7852408 2.8046079 -1.7530085 -1.1112666 -0.063882425 0.31772107 2.4531796 0.97144955 1.5798913 0.06917598 -0.103907675 -1.0161082 -0.07960438 -0.22929056 0.68745077 -0.033827443 0.8293043 0.2881916
-726 0.004920136 -0.63730544 0.27138 2.0716436 -0.5853636 1.6851931 0.23042715 -0.94156677 0.022174347 0.9330255 -0.59757185 -0.32836613 1.2562423 -2.0838313 -0.6092181 -0.41370997 -1.5596173 -1.0365794 -0.66440064 -0.62064695 0.38480476 0.834989 -0.5428227 0.2965135 1.1617621 -0.7430347 -0.6428993 -1.7905807 0.061789207 0.21210518 0.20256259 -0.42145675 0.432442 2.2387173 -1.0975395 -0.6412162 0.9977509 -0.005629822 -1.8531071 1.7420583 -1.0323343 0.2028254 0.374472 -0.46401748 0.20566808 0.15264487 -0.029784923 -0.10724316 0.058380056 -0.90532166 0.6201169 1.4491552 -0.8330627 -1.1057738 0.5361799 -0.8963162 1.5328952 0.90294874 -0.61937004 -0.69524634 0.036888916 0.22931904 -0.8089129 1.5639666 0.8461552 0.09149354 -0.7086266 -1.5001351 -0.33642858 0.8650994 -0.72668207 1.9011457 -0.7291722 0.53700143 1.5850163 -0.55592453 -0.26923597 2.5211365 -0.50383264 0.3353751 0.040538855 -0.48426935 -0.5258235 -0.9226624 0.115539744 -0.6916992 -1.4018716 0.8029333 1.6328657 -0.24604303 0.4207299 -0.10161604 0.18137187 -1.7479916 -1.0688735 1.3950317 -0.51912534 -0.23454422 -0.49968407 0.31192768
-1557310 -1.2765207 -0.28274938 1.8571582 -1.1691372 0.5132461 2.053137 -1.0601163 -2.01002 0.8885243 -0.035792395 -0.6340289 0.18880746 -3.2890332 -1.3283833 0.41710743 -0.6724253 0.5443664 0.6771153 2.2607687 0.7867489 1.284809 0.60314125 1.635614 0.34942678 -0.43680474 0.36011067 -0.44227004 -0.20935827 0.49806947 0.70572203 -0.11186051 -0.45820758 1.3580987 0.19168173 -0.031204553 -0.056772348 -0.53368014 -0.65525323 -0.83318806 3.507106 -3.76226 -2.7147927 -1.929809 1.8468375 3.011428 -1.5647542 1.832381 -1.3434243 -0.60441095 2.0184271 -1.9575416 -1.0830866 1.261208 0.6993897 -0.8721724 1.8057166 -0.87419736 -0.72615415 0.8998148 -0.46700716 1.6322364 0.85449904 -2.8378174 -0.24156862 1.047933 0.472396 0.34833914 -1.9434774 0.092384495 -1.6430564 1.3436396 0.0869241 2.276525 -0.46525586 1.470369 1.8742679 0.94898623 -0.22633068 -0.11143383 -0.88961107 1.7177588 0.012784354 1.0766712 2.555097 -0.16051963 -0.19942771 -2.0892825 1.1326908 -0.22667776 -1.0550829 0.87026453 -0.8595822 -1.805708 -0.3934514 -0.24423195 0.21881463 -0.8589359 0.3001493 -0.42624846 0.13198133
-171553 1.1975353 0.7396003 -0.87491786 -0.10640353 -0.39657018 2.4673169 0.9881597 -1.7173803 -0.7013329 0.64297414 -0.9262309 0.8296354 0.8232676 -3.4683552 0.866723 -0.41057223 0.4812604 0.3164425 1.3882664 0.50642544 0.16910152 0.8470213 -0.5779234 0.9402732 -0.3644095 -0.09952298 -0.7289811 -0.22490953 0.050070867 -1.0655973 -0.8088177 -0.18796097 0.3394173 2.423758 -0.102560095 -0.6304052 1.1907477 0.35242197 -0.35301873 0.6169292 -1.1413035 -0.43129048 1.6456149 0.1665716 0.56903714 1.3414074 0.2963387 1.3231894 -0.04714962 0.09580763 -0.76895195 1.8922038 -0.05393424 -1.3706027 -0.16507724 -1.2536935 0.9753061 0.08799529 -1.3214741 -0.41550273 1.1237195 -0.4276649 -1.3737019 1.7088714 2.0563757 0.32982707 -0.35414073 -1.7083936 -0.895881 2.5987058 0.21053329 1.2550094 0.9294984 -1.3462547 -0.5210364 -0.64525664 -0.5813736 1.6928982 0.20466162 -0.023743084 -0.9323488 0.35084236 -1.8546216 -1.7564204 -0.16356763 -1.3306694 -1.2830285 0.17137362 1.3903986 -0.89598113 0.9699807 -0.4643911 -0.89776057 -1.813751 -1.2483282 -0.6343339 -0.21507938 -0.5247195 0.25792223 0.26767552
-57154927 -1.5657322 -0.11720518 3.0081768 -1.811731 -0.44523457 1.4319241 0.5768877 0.6374471 3.136024 0.14344111 -1.8482256 0.4411083 -2.50747 -0.0076196613 1.1477035 -0.23303166 -0.3641213 1.4799489 3.9566703 1.0719026 0.65033275 0.20827012 1.5142871 0.6163285 -1.4706603 0.7642742 -1.337117 0.9270628 0.5533441 1.0958598 0.054761644 -0.01817002 0.7436036 0.013033145 0.91840184 -0.95525074 -0.022066033 0.07086819 -1.3287256 1.9830732 -2.6123223 -2.0223765 -1.9336683 1.4962543 1.6063002 -1.7090356 0.5631249 -0.57794356 -1.0041033 2.2392135 -2.435683 0.6473965 0.72799295 0.34051907 -0.3474569 0.75382715 0.5781438 -1.7205862 0.2126887 -0.08387284 2.1518333 1.9341592 -2.1443217 0.48577034 2.0622327 0.6190655 -0.78110397 -0.699169 -1.104246 -1.0882347 0.7721626 0.6488912 2.4191692 -0.4283144 0.6603997 1.1298803 0.25664014 0.5990603 2.7099876 -1.2218404 1.9822454 0.49562064 0.21833356 2.2784472 -1.1850623 0.5985304 -1.7221752 1.0437303 0.65215904 0.6120683 1.9527947 -0.52612 -0.96889967 -1.010329 0.24909027 0.61704814 0.7956962 -0.6008814 0.45654866 -0.11153129
-211740 -2.0008085 1.2746928 0.94567525 -1.2538737 -0.118658446 2.9884555 0.9379212 -1.7430799 -0.36139464 1.84547 0.14558591 -0.4594 0.18893233 -3.1810625 1.3281664 -0.77828765 -1.2308633 -0.307428 1.563644 0.046112314 1.4828225 -0.18378776 -1.0092192 0.40417826 1.0624003 -1.078693 -0.3650712 -1.031588 -0.75749165 2.0033138 1.4421432 -1.6010714 -0.16813408 0.9090852 -1.7060689 -0.4239139 0.7456837 -1.7342824 0.30384398 0.27355576 -1.9855736 1.0549756 -0.92976135 1.0674543 2.4806767 0.25864962 0.030063711 -0.3245947 0.3201248 -0.98808163 0.28002414 0.21556424 2.0052047 1.585499 1.0328252 -1.6481502 0.09231226 1.3415898 -0.15877922 0.12795906 1.1823956 0.8479158 -1.4902501 0.6870224 0.7374867 0.09149313 0.048536845 -1.6430271 0.47300616 0.31806895 -0.32245278 -0.40341872 0.1755331 -0.6587475 1.2299327 1.2896116 0.17972554 -0.33511502 1.3950697 -0.74870527 0.8147159 0.267291 -0.17928338 -0.033285726 0.34479332 -1.0385576 -0.2296965 -0.3717636 2.8155298 -2.458366 -0.534476 1.2964252 0.09731721 -0.4747613 -0.590352 3.4014542 0.36151245 -0.6750201 1.5099031 -0.27430847
-48181781 -0.36785415 1.3899817 -0.43541685 -1.122644 -1.8015772 0.45995882 0.25899032 -1.5638161 1.340736 -0.8825387 -2.62079 2.671717 -0.9129567 -3.4533556 0.4242234 -0.9124926 0.48937067 0.8754521 0.62688917 -0.87455463 -0.56996566 -0.46317196 0.6693894 0.586542 0.57883435 -0.06112098 -0.3248661 -0.7827794 -0.07896023 -0.4030439 1.2937579 -0.24783997 -2.8264384 0.3541699 -3.5888875 1.2164016 0.766052 0.4020954 -2.3289042 -1.2751813 -3.0547733 -0.3169525 0.6562591 0.2904491 -0.904347 0.71703774 -0.08015629 -0.024819719 -1.1986796 -0.0074325115 1.0871152 -0.4276561 0.72296286 0.081225805 -0.9267112 0.2507766 0.06629882 1.3497553 0.67258686 -0.60636413 0.839956 0.30993646 -1.2273989 -0.7264633 1.0623037 -0.06676885 -0.8921222 -2.3071597 -0.69188845 0.88367337 -0.037004404 1.4133714 0.665748 0.4653697 2.0758295 2.3646822 -0.6866106 -0.17282133 1.1703498 1.2200732 -0.6875051 -0.18619648 0.7775575 -0.69947547 1.6124787 -0.6548888 -1.1863894 0.11424681 0.052314866 -1.2299588 -0.041201513 -0.21762064 0.057067238 -1.2257099 -0.09168964 -0.44113246 0.58893937 1.269739 0.09871322 0.93371326
-53870457 -0.2505063 -0.30046582 -0.69636834 1.4492221 -0.015560146 -0.14912333 -0.86384183 0.6538571 -1.6222885 -0.14360058 -0.5086942 -0.53056085 1.1777573 3.1671686 -2.2959502 0.27460796 0.32749426 -1.4747117 0.39556634 -0.11198341 0.45576516 2.4092815 -1.4761503 -1.5829825 0.6943887 -0.73681056 1.1879613 0.13793309 1.3023688 -0.99821275 0.04837109 1.3033513 2.558567 -0.659695 1.962857 0.1896505 0.42565125 -0.8884141 -0.12808041 -0.6941118 1.3765421 1.376969 -0.4322405 0.31361642 -0.13756679 0.029104823 -0.15763237 -2.236625 -0.22523654 -0.8577343 -1.3640928 0.513606 -1.7202667 1.9008816 0.9226492 -0.60260564 -0.118354015 -3.1853852 1.9140587 0.8926876 -2.6078548 -2.1284087 2.6007738 1.172441 0.9465001 1.2831188 0.7147072 1.1502925 1.7689813 2.1265535 -0.3796879 0.07105926 0.37255865 0.37104207 -0.47622406 -0.9489391 -0.9025061 -0.16095576 -2.0303543 1.5776546 -2.0409248 0.073618464 0.8044706 0.13423036 -1.2287563 0.82844114 1.0874995 0.22317672 -1.8699342 -0.00937153 -1.1949196 -0.19236462 1.2267329 0.5651645 2.6858144 -0.89643687 -0.81432635 -0.8487286 0.12045967 -0.12579972
-99640384 -0.041249618 -0.77345407 0.905375 0.7825525 0.7063427 -1.6347632 -0.021171315 -0.4720826 -0.6958119 -0.7638964 1.4702346 0.29804045 1.500662 3.9607456 0.055768356 0.7391203 0.3989322 0.34441516 -0.34690732 1.7883104 -0.10448792 0.7589078 -0.19271977 1.1184349 -0.83482575 -0.4354466 0.07848212 1.1970768 0.7808132 -0.8897754 -0.4806078 1.2304121 0.96678716 1.1352232 2.6077592 -1.7218255 0.9662432 1.0959927 1.934315 -0.38391423 2.93661 -0.66439396 1.8360504 0.49352154 0.2760933 1.4429544 -0.7198183 -0.63769 0.88246185 0.25546187 -0.35116065 1.0724231 -0.7088694 0.068398975 -0.47258323 -0.42240876 -0.6223472 0.11277679 0.7446754 -0.0044546044 -0.7178147 0.19235185 2.7833238 0.12667476 0.12990133 1.4520847 2.3827143 0.40838 -0.20279355 0.021590583 -1.1408938 -1.124813 -1.800608 -0.5378841 -1.1199954 -1.2524394 0.7809146 1.8441762 0.19887392 0.013918304 0.1925804 -0.1589386 1.0729017 -1.7527628 -0.88727975 0.21543509 1.1004131 1.4108039 0.3259168 1.6620164 0.7443228 -0.47497013 0.77737427 -0.33101252 0.68840724 -0.25132075 -2.0363436 0.71050364 -0.0524211 0.83620197
-33509240 0.047179304 -0.81585795 -0.15602447 0.037133582 0.8347144 1.3236209 -0.1804305 -1.5644432 0.5042313 0.4485082 -0.53864574 2.286182 2.6083095 -0.85112375 -0.25387532 -1.2420856 -1.0486333 -0.04907854 -0.3567083 0.1511227 -0.8427683 -0.25364926 -0.7515197 2.1864903 -0.38539034 -1.4427216 1.0928153 0.13649054 0.6698975 -0.35111907 1.3869681 -0.9874881 0.3412688 1.9946749 -1.1859109 0.72628325 3.112288 0.23293343 -0.48212454 1.50399 -1.3013217 0.32888436 -0.2081727 0.011422662 -1.8189518 -0.3827231 -0.068932004 1.0348 1.0802281 0.87325853 -0.712052 -0.19140267 -0.24815707 -1.3411504 -0.3734696 0.8671725 0.5920178 0.8676991 -1.3157897 -1.3419725 -0.34136775 0.25518155 -1.1618803 -0.28589234 0.15106374 0.17269143 -0.63840955 0.6228064 0.3399771 -0.4008456 -0.8841199 1.5032303 -0.526808 -0.5346859 1.7457349 -2.0686688 -0.23355368 1.011401 0.77468187 -0.5960075 1.6309836 -0.18432581 -0.0060971947 0.08059201 0.0006026656 0.34185702 0.63741505 1.0099062 -0.48039442 1.0916537 -1.9069015 -0.08516282 -0.2194978 1.6264071 -2.4750857 1.9691544 -0.73338467 -0.6436208 -1.4482471 -2.1617472
-5319899 0.1489129 -0.5072434 0.14275698 1.2171981 -0.06796133 1.151908 -0.41518828 -1.3119123 -1.0846068 1.4499905 -0.36868024 0.905495 2.5585043 -0.8828218 -1.5678972 -2.1729403 -1.56075 -1.1237652 -0.93376315 0.043567635 -0.063360766 0.88430756 -1.1119516 0.08418917 0.37747878 -1.0669885 0.8872317 -0.47974816 0.08506427 -1.247321 0.7940738 0.39281076 0.7731674 2.0553527 -1.1075175 0.45055503 1.0818654 -0.081918225 -0.8337666 1.2974966 -0.28934288 0.69308853 0.4170703 0.0828768 -0.91912854 0.45181322 -0.5955772 -0.9861354 -0.45031437 -0.027552385 -0.444841 0.7891344 -1.6081406 -1.9360155 1.1425588 -0.6671084 0.28269598 1.7282478 0.016704433 -0.25727943 -0.5277788 -0.2271493 -1.6270447 1.7037148 0.029269902 0.51367974 -0.75675035 -0.09101018 1.0055823 0.74798876 -0.5262125 1.4647851 -0.36447558 0.24983445 1.7413125 -1.1744438 0.03757848 0.5233866 -0.019380463 -0.00070776744 -0.701944 0.4276108 -0.14190312 -0.8499546 0.34393382 -0.71763927 -0.31350416 -0.81583947 -0.56160843 -0.85406286 -0.415062 -0.7328032 -0.48544744 0.01085785 -2.5280282 1.5114468 -0.8830694 -0.5173441 -0.8399166 -0.20054837
-181031 0.69134444 1.4625818 -2.2717056 2.2341156 0.08608097 1.0241174 1.1898444 -2.2602262 -2.000298 0.5489913 -0.08412409 0.4824983 2.4665608 -2.3794477 -1.5707985 -0.33609873 -1.5644896 -1.7868932 -1.6660006 -1.2015162 0.6315991 -0.36275518 -1.0777342 1.691937 -0.045205973 1.0670027 -0.4057363 -0.84064704 1.4789342 -0.51034254 -2.4035852 0.46769947 0.68503 2.838986 -1.4593209 0.59505993 -0.08288134 0.28917575 -0.25985157 1.2084305 -0.74204564 -0.18374576 1.3364168 -2.7380972 -1.031655 -0.79352254 0.022468654 0.73946226 0.66123414 -0.37063664 1.5344967 -0.16466887 1.9654069 -1.9529445 -0.9959728 0.23683578 1.8660022 0.64127815 -2.3582091 -2.6071644 0.49953464 -0.5704865 -2.3136833 0.91182935 1.3832687 -1.0138907 0.59772146 -1.2785615 -1.7639244 -0.30009043 -0.22486563 -1.2273645 -1.5177811 0.35141662 -0.29828012 -2.5308793 -1.5737158 -0.4746342 -1.8198302 2.3190048 -0.105785474 -1.2599416 1.2541062 0.19732596 0.9312643 -0.5787108 -1.3538615 -0.57520205 2.224848 0.21487007 0.36668786 -1.4264009 1.2202076 -2.271773 -1.2405853 0.571977 -1.1485977 -0.98881716 -2.3747935 -0.5499113
-104224126 1.3406887 -0.08698381 0.3198958 -0.31015545 0.708957 1.1861095 -0.35783353 -2.4390888 1.0842272 -1.1846293 -0.8762365 0.65873575 2.8305645 -0.44652733 -0.1770268 -0.25529763 -0.79349786 0.98396283 2.8892205 0.51672643 0.19536278 0.42546275 -0.09302836 -1.1512563 -1.927312 -0.9415903 -0.13746263 1.6621209 2.6396933 -1.3066313 0.1747568 -1.2340678 -1.2299887 2.2273114 1.6213318 0.0919679 1.7352836 0.063364826 1.0625591 -0.9503239 -1.9415802 -0.7295853 0.17160597 0.12000464 0.8872471 -0.74632895 -2.6779692 -0.3133162 -0.059578333 0.5011637 -2.07094 1.2815552 1.5737181 -1.9962227 0.88214153 0.36661845 0.92592114 0.017230274 -2.1787338 0.8329901 1.9746486 1.0972941 -0.818512 -0.37870923 -0.6107879 -1.4385535 -0.8900405 -0.5948449 1.5608865 0.61969686 0.38938397 0.17726131 -0.12361268 -2.5014086 0.93891555 -1.126049 0.45756707 0.6777611 1.3155831 1.2464305 0.22447756 1.6141853 -0.7211543 0.67103344 -0.10086977 -1.4193661 -1.734142 0.6175558 1.1733518 0.09819825 -1.3269973 -2.2902281 -2.389771 1.241881 -1.5082558 1.2783763 0.23502487 1.6920961 -1.2476745 0.27241272
-121933057 -0.02773264 -0.8389624 0.8935421 0.80751616 0.64356786 -1.5599537 0.05214757 -0.38886338 -0.7164808 -0.6876224 1.4187248 0.27800438 1.5129163 4.0495906 0.007217506 0.6329798 0.39274424 0.2773018 -0.47732076 1.7724415 -0.027401844 0.858576 -0.1899019 0.96173966 -0.83661765 -0.36970884 0.042075727 1.1468424 0.901114 -0.8984925 -0.5067848 1.1785483 1.0438323 1.1608536 2.737606 -1.6796063 0.99192095 1.0928019 1.9343923 -0.44462994 2.9055908 -0.6055118 1.7809169 0.47909167 0.17154373 1.4403836 -0.7480807 -0.64552164 0.82535285 0.20370968 -0.46788073 1.0788188 -0.8193533 0.011354291 -0.36442274 -0.38285747 -0.5562492 -0.079313956 0.73787206 0.047926743 -0.7952982 0.054345816 2.941555 0.011510242 0.036100343 1.5213175 2.272778 0.5024625 -0.1211627 -0.08346943 -1.1260618 -1.185919 -1.7175325 -0.5008948 -1.1621712 -1.2090458 0.6459426 1.8735278 0.15992878 0.06699401 0.1988426 -0.26659465 0.98160917 -1.8002508 -0.9273245 0.22640939 1.1591898 1.3209559 0.2115029 1.6497113 0.6965034 -0.5637813 0.71402913 -0.15077645 0.83113515 -0.38926047 -2.0984902 0.7882685 -0.0943789 0.81469345
-5660514 -1.4417442 -0.1263369 1.2690799 -1.4271402 1.3588152 1.0418801 -1.0601323 1.3517897 1.035268 0.17292294 0.09908359 -0.17749745 -3.4406512 -1.1831367 0.9689114 1.9218547 0.5080224 0.833541 -0.13849118 0.29748186 0.35428682 -1.5025779 1.3349942 1.2729263 -1.2152379 -0.1754787 -1.7497519 -0.87469137 -2.1968791 1.1672459 -0.41776338 -0.85769546 -1.411298 -1.5539429 -2.775163 -0.9500577 -0.72645724 -1.6817625 -1.5570211 1.1345699 -1.7231928 -0.68485993 -0.9822086 0.13075256 -0.53766686 -0.99273413 1.2802969 0.58451456 -1.6839005 -0.016922664 -0.35811263 -1.8483669 0.08664648 1.353608 -1.1172456 0.5463263 -1.2540156 -0.004205859 1.0727445 -0.19929296 -1.0040995 0.3518788 -0.9541874 -0.681745 0.43548524 1.3746728 1.1367072 0.10513278 -1.811122 -0.40248 -0.6008657 -0.669514 0.94927704 -0.18108875 1.8366429 1.8204118 -0.0723445 -1.0897026 0.40289584 -0.4927165 -1.0318807 0.12427468 -0.5602219 0.33009276 0.8253872 0.79032373 -0.78483546 0.1928601 -1.578606 0.0888744 1.8368629 0.34746024 -0.64870125 0.3660815 1.1517074 0.9052773 2.6085582 2.5106773 0.2896422 0.4953321
-39424723 1.0970006 1.7473761 -0.82036406 1.151331 -1.8763965 -0.3604734 -0.30476102 -0.9435901 -0.72497636 -0.23613217 -0.79605174 1.9297594 1.2616808 1.6366589 -1.2834225 -2.216688 -1.6423191 -1.1729558 -0.9645878 0.4536194 -0.71302074 0.7542763 -1.3612033 0.9210101 -0.40800738 0.7052809 0.6607294 0.12123898 -0.31067684 -1.3300287 1.4945134 1.2754791 -1.1268302 1.6043369 -0.6344318 1.0069613 -0.021182049 1.9008473 -1.3371382 0.012227449 1.0936596 0.09343024 -0.17052312 -0.07261188 -1.372223 1.1203547 -0.2829815 0.08173506 -2.1038792 0.41968697 -0.66841227 0.67032576 -1.0125258 0.41163144 -0.7784928 -0.45461205 -0.19757107 -0.21556664 0.8702743 -1.4828954 -0.2568839 0.024530461 -0.20290872 0.8477574 1.2748768 -0.11674523 -0.31299445 -0.19802298 -0.3242463 0.10463477 0.4579916 0.38499185 0.1440483 0.31537285 1.0289603 -1.0109144 1.1190089 0.65430194 -0.4321966 -0.45544973 -1.5019838 -0.7249847 2.2016575 -1.8583059 0.37211236 0.072259925 0.06835617 -0.92820454 -0.545798 -0.47922966 -0.06583683 -0.52888095 1.675173 -1.268163 -0.9825607 0.47025535 -2.082227 -0.37713847 -1.6344508 -0.1943669
-99551215 0.268345 0.67350036 -2.9996815 -2.1720016 -1.1165727 -0.38959822 -0.51474345 -1.6443557 -1.5785486 0.64632726 1.089417 -1.1252258 0.7428537 0.2892892 -1.690457 0.43767557 1.039894 -2.2952504 1.3904593 -0.8715219 -1.0225929 -1.2746309 -2.2008462 -0.6827527 3.0488162 -1.4194806 5.243033 0.8772986 -1.3568623 0.75759345 -0.59171176 0.5039116 2.3967977 -1.8084502 -0.90129656 1.4411598 -2.6854157 -0.3486046 -2.15158 0.9379046 1.5285732 0.34922796 -0.26225424 0.19813108 1.1816657 1.0743219 1.1328433 -0.4315778 0.9855259 -2.0700903 1.7532209 0.67076534 2.291437 1.3352569 2.3147843 -0.8155835 -0.53137964 0.83571607 -1.4435047 -0.932743 -0.008819817 -1.999571 -1.3937358 1.5475403 -0.15969814 -1.164224 -0.036042813 -1.9769852 1.410015 1.2020515 -0.064111 -0.0357921 -4.6378064 1.0980887 1.3084065 0.488012 -0.0136588765 -2.593789 -0.31890565 1.0981624 -1.5582185 -1.464131 0.10503331 1.6499468 0.50588757 1.124792 -0.2240434 -1.7314336 -1.3628106 -1.5775366 -0.87236595 0.15923795 2.8870788 -1.2892307 0.79506594 1.1280444 0.44564435 -3.8592625 0.59295017 0.2878751
-71413469 2.707561 0.9866445 -1.6355755 0.9474486 -0.13374999 -0.28051433 0.649584 -1.32658 -0.5150075 -0.3226364 -0.5085958 0.25927317 -0.9684965 1.4483343 -1.0465764 1.3130028 0.507021 -1.6141618 0.08832537 -1.6295247 0.9066405 1.1420724 -1.080964 0.8459167 0.5978025 1.6709591 0.36812073 -1.921659 1.6122558 1.3822266 -0.54031193 0.0029296842 0.88053876 -1.2577868 2.0600886 1.5834191 -1.3429704 1.479934 -0.6154161 1.0156949 1.0530543 0.15826099 1.6909969 -1.4205061 0.659249 0.18032183 0.1682846 1.3363613 0.6531917 -0.49591547 -0.2866127 0.39111772 1.466615 -1.1087564 -0.4238678 1.0609907 1.299823 -1.7380339 0.024833182 0.50853103 0.17967752 -1.2713835 -0.93648666 0.6481799 0.58170867 -1.2625592 0.06633616 0.86300486 0.55554515 -1.2797118 0.3689264 -2.138165 0.77362 1.0040842 -0.65428036 -0.8648209 -2.4789152 -2.173008 -1.7438078 2.1035779 0.092458494 -1.6774356 1.2671185 -0.122125976 -0.33610836 0.23663841 -1.4045327 0.008738165 -1.5410856 0.39370343 -0.74181527 -2.155017 0.91090775 -0.9070235 1.5815009 -1.9621929 -0.22186948 -1.6588281 -1.5745298 0.28592288
-62663002 -0.6228295 0.63346577 0.26435906 0.83844876 1.063958 2.8620288 0.116539806 -0.10519693 2.085436 -1.4379764 -0.7863168 -0.7549511 -0.4360798 -0.85126036 2.1040642 0.87975746 -0.46455094 2.6121593 2.906093 -0.85491914 1.1038616 -0.9214834 -1.7269564 1.0637476 -2.1729825 0.815542 -1.7903274 1.5559174 0.23532134 0.7643469 1.9565512 -1.2443615 -1.4816118 -0.41585046 -0.05172499 -0.8527511 1.2824248 -0.47121778 1.5126339 -0.2769916 -1.0474283 -0.5647817 0.6619127 1.248995 0.27048016 -0.12982501 -0.26517114 1.7061522 -0.5085417 -0.26066405 0.77468055 -0.117400356 2.3035307 1.8670387 -0.96492296 -1.149019 -0.00761948 -1.0646429 -1.5618014 0.86319476 2.355368 1.9159728 -2.7195957 -0.5266847 0.7451642 -0.7920118 -0.3463684 -0.9131823 -1.4448935 0.89078826 0.6262371 0.835273 1.8248191 -4.3213134 0.109654725 -0.21984503 1.2770284 -0.32883573 1.1479018 0.33143008 0.65940875 2.2180088 -0.9403948 1.1985607 0.24710928 -2.787589 -0.3630622 1.5698819 2.2560837 0.4068554 0.014228198 2.109378 -0.21221592 -1.2987298 -0.25815502 0.29878512 1.4650143 -0.05989237 0.6120106 -1.5027642
-536699 -2.3596728 0.8492291 0.022593947 -3.449467 -0.82551706 0.5961835 0.23258577 -0.47852764 -0.28266612 1.409042 1.2270237 -2.2538314 -0.580266 -1.7119303 0.9246021 1.4579846 -1.0103098 -1.3805969 1.422486 1.050399 0.47229418 -1.6597373 -0.8993448 -0.4788425 2.822224 -0.35161844 1.505182 0.42788973 -1.7927941 3.0736575 -0.9865586 0.116067596 0.9262727 -0.2698957 -0.62026376 0.6406936 -3.3835704 -1.2396185 -0.5730141 0.4271385 0.015678084 0.7493627 -1.8237929 0.5646067 3.0856957 0.06312389 1.0124292 -1.4465903 0.2738884 -1.5131668 1.9984477 0.3296348 3.3952012 2.9202175 1.7569119 -1.1949915 -0.9403798 1.5496606 -0.62671536 -0.37215337 -0.08918893 0.83989245 -1.5933168 1.0697984 0.28498128 -1.0228481 0.35150394 -2.1396906 0.13064249 0.9238656 0.48908612 -0.9331157 -1.9282644 0.73250276 1.2896128 -0.63854593 1.2549844 -2.0065098 1.149714 -1.19724 -0.23399574 -0.6905876 0.15832019 0.71463794 0.40052179 0.5487211 -0.05575628 -1.2945336 2.1698427 -2.2406678 -0.68523335 2.233088 2.0120983 -0.74771786 0.96462184 4.511004 0.5902487 -2.1552596 1.0932081 0.06417043
-68567387 -0.049796715 0.33276382 1.5365834 0.4848351 1.1250634 1.7876717 0.13142195 -0.31597555 2.71129 -0.7914586 -1.6352863 -0.26150006 -1.0704634 -0.9400095 1.9760278 1.1092119 -0.19185065 2.7550986 3.9974484 -0.50314116 0.29565874 -1.0758029 -1.2487557 1.1374682 -2.5543723 0.25387722 -1.1517291 0.8289801 0.7172943 0.5408669 1.4340556 -0.77062273 -0.15080127 -0.002224131 1.0168561 -0.8660691 1.9433336 -0.4623987 1.1968881 0.7486585 -2.209099 -1.7037336 -0.030544238 1.2039193 0.54899013 -0.6363397 -0.17272839 1.8348213 -0.68263555 1.542162 -1.0816903 0.2651305 1.9862199 0.7667957 -0.85381085 -0.781951 -0.7387814 -0.87236756 -2.038563 0.74250114 2.6920383 1.80886 -2.427063 0.616007 1.0898991 -0.43688795 0.039053146 -0.35145393 -0.91636795 0.9561298 0.58597 1.097555 1.5724659 -3.1752896 0.021918807 -0.05373579 0.6466935 0.3049639 1.5649533 0.34827778 0.74827003 2.0377889 -0.9708049 1.9844357 -0.4170456 -2.3090935 -1.2381415 1.4465506 2.0411515 1.0383111 -0.28503615 0.6415812 -1.71464 -0.7773212 0.40701205 0.04588662 1.1312417 -0.63179094 -0.39591864 -1.2690209
-49525702 -2.1411746 0.069356434 0.69198334 -0.9752998 0.88483655 2.0043166 -0.26409477 -0.27474728 -0.15463735 1.7120781 0.91213876 1.138651 -1.7295756 -2.3386006 0.700135 0.95779264 0.61942005 2.0076222 -0.75444496 0.46922126 0.64762557 -1.7312467 1.6741686 1.6282278 0.08761002 -0.51091856 -0.4258816 -1.151538 -1.5480596 0.89221305 1.0897743 -1.9740185 -2.8267636 -1.0921432 -4.319555 -0.04373167 1.0960672 -3.607064 -1.190464 -0.42884675 -2.6492803 0.43932313 -0.5599375 0.12438539 -1.121378 -0.7747702 0.5445681 0.48283422 -0.32724112 0.7998115 -1.4913127 -1.5444257 -0.19412042 -0.39519796 -0.07106579 0.20026676 1.2362697 1.3280276 0.7477392 -0.6747661 -0.90555567 -0.5608581 -0.72279024 -0.19256037 0.46315026 0.45179766 1.6415802 0.37779212 -0.4452928 -1.164497 -1.8835198 -0.99058944 0.0018729537 0.9388233 1.4336499 2.1423743 -0.4721621 -0.9639243 0.69574344 -0.29421037 -0.5268028 0.24482694 -0.47173393 0.8621676 0.8005828 -1.0553883 -0.85517675 -1.3160455 -2.0007212 0.20121542 0.62510324 -0.5332861 -0.63030136 1.3289781 -0.5287963 1.4177799 1.9133679 2.5196342 -0.12775421 0.25919965
-171492242 -0.6256686 -1.0406117 -0.0044094026 0.8145498 0.40899187 1.4091072 -0.42024663 -0.8512432 -0.2846014 0.2585904 -1.4076251 0.46479714 2.3337264 -2.0253725 -1.5219371 -1.298058 -1.9335302 -0.24148409 -1.0757271 -0.35539433 0.14184833 0.7930816 -0.131932 0.59300643 0.37867957 -1.2677382 0.5753477 -0.21471412 0.7294595 -2.2883134 0.3320895 -0.8609833 0.050951187 1.9998595 -2.5284336 0.8638859 2.7977998 0.435709 0.23594056 0.8544144 -1.6772218 1.436613 0.3417087 0.38701132 -1.2213266 0.84450537 0.32170787 -1.2114584 0.2653497 -0.5902478 0.3430615 -0.35695636 -0.45665494 -1.1112361 0.89259565 0.28674063 1.0248672 0.9643116 -0.06717286 -1.2289788 -0.41056195 0.02999854 -0.74623036 0.27013344 1.0444907 -0.8915354 0.047747526 0.025112811 1.8672476 -0.06920585 -0.38833943 0.94227433 -1.1484473 0.30838144 1.1053666 -2.224137 0.048867907 1.6018635 0.18722235 0.54083604 -0.1031214 0.5169454 -0.634539 0.7391623 0.2749395 -1.5825598 0.39114538 0.6914733 -0.78216213 0.31335774 -0.5047792 -0.659114 -0.3606162 1.1641941 -1.8617342 0.15757203 -0.21657963 -0.39781374 -2.4950886 0.033252887
-677545 -1.3552185 -1.261047 -0.6810138 -1.952586 -0.36658117 -1.6753664 -0.23895617 0.59514856 1.7224325 -0.34320128 -0.4231469 1.159615 -0.7079729 -0.34113818 2.2910507 -1.1683085 -0.43492827 0.18271509 3.098705 2.4253933 -0.8103607 -0.10426992 1.1161122 -0.13309206 -0.32594258 0.45473504 -0.064477205 3.0223098 0.6003726 -0.9883496 -0.12563752 1.5662798 2.023141 1.049311 0.54871964 1.8056262 0.754402 0.4699472 -1.0105132 0.113186814 -2.4046786 -1.4205079 -1.0276837 -0.01741156 1.1024055 -2.132719 -0.021431884 -1.5834284 2.0987082 0.93150115 -2.0108984 0.2148158 -0.17842624 0.68795407 -0.4560411 1.388194 -0.34037375 -1.5422124 1.4599011 -0.86888105 -0.07764338 0.67357683 -1.7056736 -1.6950788 0.22006285 -0.8305046 1.7397171 -0.13430753 0.37880525 -0.71326274 0.36260784 0.27850834 1.5034728 1.0450616 1.794953 -3.070381 1.0293869 1.1253474 -0.17233458 -2.290527 3.0707467 -0.23545574 1.6865615 3.0649257 -0.15760761 1.7195772 -0.41071436 0.8758004 -0.45540622 0.8748231 -1.7586724 -0.377644 -1.935721 1.185562 -1.9451268 1.6738895 -0.25537443 -1.261482 -2.6316903 -0.5187562
-18277728 0.9949963 0.5133067 -0.9437727 -1.1963401 -2.159279 -1.4579428 0.4334904 0.54161465 -0.8576287 1.2206489 1.7246407 0.64161634 1.4987836 1.804011 -0.07915305 -1.0984114 0.5558539 -2.2462113 1.4334838 -0.19820426 -2.4291677 0.9100544 -1.6109276 0.24738063 0.50706846 1.0961665 3.623957 2.7229924 -1.1360391 -1.8177235 0.21328053 2.7544932 3.2633479 0.07711114 -0.45938256 2.200574 0.7560168 0.9103228 -2.4742403 -0.38816363 0.81167555 -0.010465578 -0.049347106 0.30022985 -0.62218726 1.2034997 -0.40321627 -1.1457161 -0.020195588 -0.09133304 -1.6106789 0.095295444 -0.71771586 0.4030351 0.68731695 -1.5778784 -0.7222466 -1.7822863 0.91784835 -0.26967087 -1.8533524 -1.2023057 -0.38064626 2.3691733 0.9149634 0.6269193 0.8165318 0.029735016 1.7635548 1.3044604 0.57591003 0.4550254 -1.3513575 -0.8343372 1.4754623 -1.2020719 -0.33738774 1.4204131 0.079139344 -0.7385274 -1.4248155 -1.6565083 1.515231 -0.41045603 0.09011063 2.1266549 1.1494823 -0.84080225 -2.099782 -0.57018256 -0.72975975 0.6996089 0.03255393 -0.43755272 1.9930161 1.0050938 -1.6864374 -1.6401403 -0.15113379 -1.0302126
-71068675 0.90572476 0.4412948 -0.5673239 -0.9309106 0.30321738 0.8238747 0.455667 -2.041112 0.49719423 0.39029878 -0.58954114 1.8952616 1.7033428 -2.7878666 1.1053641 -0.28342754 -0.47333407 1.0567175 1.0520011 0.5834872 -0.89537424 -0.12532653 -0.29625827 0.39826137 -1.4923406 -1.0504724 0.52629054 0.05837078 0.91770464 -0.7766816 0.34299013 -1.024908 -0.5666684 1.8556954 -0.15702784 0.5212134 2.3000371 -0.32336238 -0.30210707 -0.77460396 -1.6864349 0.047289874 0.5143375 0.39446676 0.14667195 -0.1964691 -0.8796188 0.816765 0.8190807 0.84971595 -1.4505881 0.28257877 0.8522126 -2.237659 0.28047022 0.27005437 0.87771165 1.0856736 -1.8174796 0.80540156 1.5114377 0.16008264 -0.85475796 0.5620292 -0.010705713 -0.3233187 -1.0051663 -0.039875362 0.5895344 0.41941857 -0.63143766 1.1663128 0.07549039 -1.830286 0.79993093 -1.0156366 -0.43212643 0.40577847 0.44687364 -0.19638877 0.53634965 1.5596752 0.26672363 -0.48264754 0.71504164 -0.9950368 -1.0993105 1.1437151 0.6362931 -0.3067243 -1.7173963 -1.3742473 -1.7966362 0.45331347 -0.8717275 0.8297061 0.28193966 -0.19067903 -0.49593747 -0.20527063
-131621457 2.6003358 -0.8711391 -0.69432825 0.5793006 0.6763418 1.295725 1.1690967 -2.8240578 -0.8481645 0.07714025 0.49261808 1.0855817 1.170168 -2.6985478 -0.2524821 -0.5302291 0.017743839 0.05186279 1.1130077 1.2843665 -1.2924225 0.72070646 -0.28600046 -0.066843376 -2.3821745 -0.59322286 -0.44500604 -0.43673304 2.597183 -1.4421227 -1.457667 -0.8065769 -0.11959417 3.5558908 -0.15593047 -0.4160699 1.0421103 0.066206165 0.5052882 -0.27164522 -0.026966918 0.41704208 1.2115489 0.26893622 -0.9899262 0.6377497 -0.24554646 -1.2972772 1.0090426 -0.25875053 -0.38902003 1.5849366 0.009446084 -2.4185452 -0.08609366 -0.92313945 0.9999398 0.5066711 -1.3002069 0.41307774 1.1494626 -0.29782313 -0.1705599 0.92691296 0.12644865 -0.08287434 -0.829836 -1.8560137 0.40447024 2.6467712 0.8452124 1.7319593 0.63613486 -2.4206955 0.13437258 -0.5670677 1.3495872 1.4677151 -1.2332852 -0.75899476 -2.2916455 1.0083576 -0.65352714 -0.27761674 0.51950955 -2.0611663 -1.7392735 -0.694316 -0.2256435 -0.40531424 1.0570642 -0.36476424 -1.2654343 0.22884063 -1.5272452 -0.206455 0.028940441 0.7418871 -0.5742346 1.8396658
-38491865 -1.9025617 -0.32382056 1.9434854 -1.8372232 0.21240972 2.7050703 0.19620854 -0.35396653 1.7424294 0.79568624 0.6906601 -1.8343551 -1.68179 -1.8761436 1.3904363 0.67665344 -0.72918475 -0.07712626 3.011137 0.622331 1.1361572 -0.18175323 0.18340653 -0.28452438 0.3827806 -0.77776843 -0.117951676 -0.37438673 -0.029193943 3.427677 -0.23263897 -1.0880995 1.628426 -0.4404605 -0.5191799 -1.2784208 -1.4555691 -1.6426196 -0.4146392 2.2181346 -1.2205939 0.06771046 -1.954978 1.4345545 3.6339061 -1.7971601 1.1280775 -1.4667987 0.72816867 -0.9271117 -0.02941692 0.98815054 2.1987536 2.156845 0.57291794 -1.8490678 0.09997711 0.04961709 0.28788638 -0.7185855 0.6297518 1.6686953 -2.3439085 0.7404224 0.92640394 -0.12392859 0.29910317 -2.0485854 -0.2338749 -0.709472 0.31873673 0.040830705 -0.39060482 0.2306967 1.4511873 1.1896455 1.2314197 -0.066871844 2.0329313 -1.7760186 0.2073628 -0.08561769 -0.40309888 2.206098 -0.8086941 0.18865994 -0.90539104 -0.18865523 2.203223 -0.8850911 0.7780719 1.2921156 1.1859828 -1.1063989 1.2463429 2.8771935 0.0556762 -1.6055737 1.0476148 0.008915008
-131177760 0.50637907 -0.8347117 -0.055765767 0.61522496 0.53292245 1.2228862 -0.41865113 -1.2214953 -0.53142333 0.30410436 -0.8682367 0.4363117 2.5447428 -1.3730494 -1.446521 -0.999976 -1.5923122 -0.3063825 -0.6811581 -0.098799214 0.2735563 1.3054218 -0.2588072 0.5392576 -0.15884136 -1.535841 0.21168716 -0.1400048 0.9086458 -2.174121 -0.049567394 -0.8730003 0.12809658 1.7786773 -1.2714548 0.98155415 2.6873698 0.55706114 0.2867337 0.7199714 -0.8765009 1.247316 0.77047384 0.9065376 -0.7813986 1.2516164 -0.29175943 -0.22644936 0.60218906 0.006522325 -0.29264823 -0.019862821 -0.61035234 -1.3059454 0.9093095 0.43175507 0.6366514 0.8732927 -0.23368163 -0.3523324 -0.09978805 0.3642754 -0.78077483 -0.093524866 0.49956042 -0.71556604 -0.55131495 0.6718901 2.2063732 -0.5462752 -0.1577998 1.1009705 -0.7641772 -0.8512629 1.2902255 -1.9928379 -0.1388485 1.3113227 -0.18486875 -0.0020716726 0.12798175 1.3576263 -0.32209855 0.16236103 0.15597068 -1.0564839 0.7934663 0.93771684 -0.7506196 0.3602509 -0.93211895 -0.71303546 -0.97316265 1.4943823 -2.1547532 0.38037944 0.076481484 -0.38011745 -2.3347156 0.073380716
-163634960 0.52161705 -0.95268387 0.08378493 0.98640317 -0.100035 -0.80873483 0.38768628 0.5444132 -0.58931285 -0.15912592 0.17735948 -0.49161747 0.50673944 2.974533 -0.87446976 0.29803088 0.37882614 -0.83643186 -1.4771682 0.4982449 0.13142562 1.2704321 -0.43611288 -0.71803945 0.22626998 0.7827647 -0.32136428 -0.15542345 1.1626955 -0.059459317 -0.8127136 0.3349386 1.1330059 0.13753843 3.0245242 -0.16245793 -0.43758693 0.872924 0.9013225 -0.16037613 1.6197308 0.25315237 0.5657683 -0.1780164 -0.57960874 0.8913821 -0.08378733 -0.31026015 0.28033313 -0.08818126 -0.06440929 0.52521044 -0.9377948 -0.048820756 0.5165271 0.31198826 -0.025494693 -1.7260729 -0.11512067 0.6345537 -1.0578686 -1.0175126 2.3409803 -0.6271424 -0.69101375 0.89742357 0.08178125 0.9664631 0.2854836 -0.6958991 -0.11196501 -1.0091385 -0.091116846 0.49873066 -1.4442592 -0.39595565 -0.6066145 0.38814792 -0.7306283 0.56789917 -0.028842393 -1.2006732 -0.01726335 -1.0802525 -0.97743386 0.25304854 0.9427105 -0.35451987 -0.8089369 0.8220107 -0.013361017 -0.38068685 0.25590298 1.0216681 1.489262 -1.5271612 -1.6110724 0.3414418 -0.17255706 0.18656959
-4630656 0.54332453 -0.91792685 0.121921666 0.9353679 -0.10986116 -0.7274826 0.44849753 0.5975317 -0.58417916 -0.09412237 0.1490001 -0.45217195 0.49369064 2.8202984 -0.8362135 0.24047044 0.3199869 -0.8489591 -1.5018842 0.49359852 0.16385397 1.2416688 -0.40163335 -0.73062783 0.2715285 0.7479709 -0.26283523 -0.13806966 1.1006516 -0.09252165 -0.83135945 0.34177592 1.0935366 0.11279681 2.9278998 -0.14764057 -0.42047516 0.8208056 0.80706626 -0.14961182 1.5522346 0.1710898 0.5530267 -0.12456559 -0.5766522 0.8819755 -0.10445667 -0.27210882 0.27553064 -0.16133246 -0.08369312 0.48970577 -0.9153401 -0.07139457 0.53681 0.31749442 -0.009586818 -1.697253 -0.10791415 0.54778576 -1.0107259 -1.0071629 2.2159054 -0.64933383 -0.6890182 0.86659706 0.068177775 0.89283305 0.2371502 -0.7287117 -0.018258912 -0.96898156 -0.10626211 0.48099047 -1.3461528 -0.38631096 -0.6314744 0.37793836 -0.70621413 0.50345594 -0.039121713 -1.1614623 -0.10063546 -1.0090024 -0.8680834 0.24970858 0.9245463 -0.39799526 -0.8419596 0.7509482 -0.0011299123 -0.40815407 0.17768727 1.0210868 1.4748383 -1.4969572 -1.5283569 0.3395137 -0.19344352 0.1767868
-43330829 -0.114051335 -1.5446556 -0.49063998 0.088839985 -1.2950068 0.46636373 0.8352113 -0.07040016 -0.41746488 -1.7929958 0.654308 -0.24904282 -0.3799333 3.2877092 -1.4309733 0.03681122 1.7253902 -0.28740636 -0.33754766 -0.3950262 -0.912166 0.8451391 -0.8949629 -0.30954504 -1.174741 1.9067804 -1.2471538 -0.6443132 2.344761 0.7353568 -0.33076546 -0.7953815 -0.24276415 0.8067052 2.735753 0.37358463 0.4986376 0.588545 -0.12127727 0.34222814 -0.15088919 -0.47745845 0.410652 -0.79846644 -1.3743504 0.2804619 -0.4493701 -0.9747548 0.4456679 0.60936546 1.1015403 1.7176838 -1.3274003 0.8597642 0.6073784 -1.500934 0.03054586 -1.6072398 -0.8294345 0.74841565 0.4626417 0.054460436 2.6064901 -1.0492901 0.20160927 0.2211219 0.18740773 1.2390629 -0.43566248 -0.73242134 -0.34671855 -0.8370125 -0.31695133 0.23101504 -1.2310829 0.18464623 0.74073344 0.21194196 -0.6864705 -0.120177224 -0.29515827 -1.1958646 1.7422725 -1.1916496 -0.81550944 -1.0106514 0.19164915 -0.20807523 -1.1247839 1.706015 0.3503275 0.18690646 1.2958587 0.7644163 1.5195132 -0.674052 -1.9524187 0.4436809 -1.1340245 0.92717373
-25543991 -0.79218674 1.544579 0.8866126 -1.6317086 0.21393882 -0.5090073 -0.6667609 0.7963303 0.48096383 -0.12970988 0.91181 -0.12165334 -2.3461874 0.21692213 0.22136644 3.6082597 0.08358892 2.0583942 -1.8356098 0.16220433 0.15196097 -2.5708513 1.0145038 0.62453294 -0.848533 1.1741211 -1.1450113 -0.09568199 -1.7610242 0.5965315 -0.70213395 -0.02993408 -2.3896093 -1.5290637 -2.9417827 -1.0284994 -1.5983186 -1.1454533 -0.23803884 -0.1632061 0.90043163 0.15107086 -0.77982765 -0.983248 -1.1069595 0.2790345 0.87103176 0.51209766 -1.63677 0.33869004 0.88517666 -1.4167311 -0.649741 1.6297948 -0.35859436 -0.2825407 -1.284951 1.8785287 0.34304035 -0.5516344 -1.857794 0.53260833 -0.8727813 -0.3074205 -0.46745193 1.8590418 0.5158865 1.2136796 -1.3709681 1.2010502 -0.63176996 -2.1972454 0.5939432 0.85825413 -0.20950393 0.67093337 0.08422958 -2.126363 0.35135645 -0.70383066 -2.4596233 0.8061368 0.17040564 -0.8362262 1.5917915 0.009419032 -0.12116892 -1.4128077 -0.7824382 -0.15723199 1.2622586 0.15793274 0.2182138 0.8868917 1.5982002 0.7535872 2.8011355 1.8310051 0.30842787 0.6997655
-101115363 1.5693644 -1.7558254 -0.100748084 0.51660985 0.8917517 -3.3268547 -0.6139062 1.302917 0.9035229 0.71007675 -0.50365216 -1.4008026 -1.2241222 3.3288145 -0.24003303 3.167333 1.3269037 1.5322089 0.89051425 0.10804488 -0.096363865 -3.2477937 1.1737098 0.2258707 0.9867972 0.8463375 -2.171535 -0.38111538 -2.3033803 -1.2073162 -0.4452392 0.32928666 -1.4082991 -0.9377239 2.0205638 -0.95060176 0.19546355 0.15208893 4.0092583 -2.1939812 1.0577478 1.1607243 -1.7880294 -0.71549094 0.2351126 0.9215135 0.4575778 0.38923663 -1.7376043 0.79164636 1.2945757 -1.7966251 -1.4848437 1.4769323 0.6970326 0.560279 -1.4889843 2.9893956 0.35526517 0.028605618 0.44345382 -0.7596275 1.4981947 -2.7791157 -0.7061942 1.8339201 0.35761204 3.9869232 1.5278771 1.3049108 0.4650715 -1.87066 -2.5557857 2.8355353 -1.7103215 0.69076866 -0.39317313 -2.0542512 0.116147675 -2.4747984 -0.056029078 0.05755134 -1.432234 -1.6374876 1.7576222 1.3022231 0.82781506 0.8705126 -1.5896214 -1.1316394 2.5912404 0.82924163 0.90937793 1.6531966 1.3671163 0.59137225 1.7659945 -1.6955353 -0.226971 3.833894
-692972 -0.7838644 0.85306114 1.8297483 -0.97574276 0.21221688 2.3386147 -0.5889548 -1.9869148 1.3413796 0.9223914 0.7826703 0.91541094 -1.9299465 -0.36179197 0.1381987 -1.6901972 -0.1703677 1.8045222 2.0369592 0.2181252 1.7095349 0.49313033 2.3605304 1.8464357 -0.79596764 0.123734124 -0.19051033 0.55361146 0.25651616 1.8021318 0.6962766 0.6191756 0.69139576 0.049269237 -0.2648142 -0.119035795 -0.40212193 -0.6614933 -0.33564538 2.6008875 -2.9937704 -3.6882572 -1.7253551 2.2466226 3.3922794 -1.7457314 1.6091357 -1.094244 -1.0716262 1.313642 -2.5458767 -1.7266225 1.0582353 -0.57301474 -1.3749808 1.1695464 0.18749177 -0.8899717 0.4346096 -1.0460358 1.8392017 0.707276 -2.5927339 0.34013706 0.98935777 1.1489973 0.17578314 -1.615153 0.17124504 -2.687758 1.8272275 0.19439232 1.5940531 0.079387225 1.439299 2.1894665 0.43870947 -0.27424693 0.5550337 -0.73604554 2.0174768 -0.5108114 0.8450399 2.8875294 0.02914544 0.41110644 -2.0411415 0.2480123 0.4910199 -1.613789 2.3849826 -1.1045635 -0.72674227 -0.9226027 0.033860352 -0.22180936 -1.0144639 -0.57809144 0.39245 0.004332923
-70432956 -1.396214 -0.58259016 0.05242504 0.43288964 0.86244863 1.6987749 -0.54631627 -0.83030754 -0.046627544 1.5504589 -1.0393012 1.1005664 1.1155434 -2.4784434 -1.0436068 -1.8603231 -1.3176979 0.7580537 -1.8973898 -0.080496386 0.50969857 -0.66768056 0.9449183 1.3632822 0.2599162 -1.6697239 0.08537608 -0.9410297 -0.36939898 -0.6371932 0.3342831 -1.0684106 -1.107862 1.4023174 -2.5023618 -0.35709187 2.3583136 -2.1133685 0.08547071 1.3133892 -2.2074308 0.36035228 -0.31473756 -0.16762032 -1.6149458 0.42782113 0.8031903 -0.059084393 -0.78269106 1.02694 -0.71442884 -0.55044776 -1.0138215 -0.76208335 0.5352301 0.32236907 0.6309311 2.1995618 -1.2326757 -1.5881585 -0.71990556 -0.6064195 -0.7628257 -0.3467453 0.16222821 -0.25530866 0.23975424 0.4765005 0.8201763 -0.17128594 -0.98331124 0.5643386 -0.52613425 1.6040732 1.4820751 -0.24023741 -0.4652236 0.69090754 0.30059093 -0.025291404 0.85821825 -0.011444484 -1.2149419 0.55534184 0.016063062 -1.0857226 -0.26855078 -0.342598 -1.0361022 -0.32991666 -0.41110888 -0.8975093 -0.38330328 1.4721463 -1.9602878 1.2035979 -0.27308318 0.43312174 -1.7188187 -0.5628749
-60359044 0.032477323 2.96759 -2.3040595 0.95722246 -1.632995 0.20372798 -0.7079306 -1.3504896 -1.0797791 -0.84840494 0.7098983 -0.41032392 1.288814 3.2741067 -1.9466016 -2.4906425 -0.34587434 -0.61013895 -0.5311134 -0.17947805 -0.8578446 -0.3331328 -1.5430877 0.037817728 0.57426786 0.4603679 1.9237481 0.89454013 0.39965504 -0.6490891 0.5406737 0.359391 -0.5843823 0.39642587 0.84416705 -0.2413957 -1.6044351 -0.34449574 -0.6109138 -0.31007358 2.2233284 -0.92115384 -1.8462417 -1.0468956 -1.3617488 -1.1617832 0.49943817 1.0588835 -0.49122995 0.012681282 0.74362254 1.0073903 -0.31362525 1.910663 0.4266922 -0.7394091 1.0208733 -1.057185 -1.8550413 -2.7045612 0.9039852 -2.0625124 0.8486369 -1.0820422 -0.7237259 -0.3389711 -0.24698195 -0.6129012 -1.2948639 -0.57792467 -0.010693467 -0.704625 -2.1121187 0.8173382 -0.8841922 -0.49563068 0.8924269 -0.9851104 -1.2545117 0.5191686 -0.3331572 -0.6971116 1.6410358 0.65066993 -0.0034521106 0.8222669 0.22978885 -1.9470547 1.2517295 0.15565376 -0.8978119 -0.8246786 3.1785755 -1.4481719 -0.326647 0.21731095 -2.1691096 -2.0800357 -0.6516713 -0.7689878
-72850297 -0.22884907 0.6164328 1.2365797 0.12290578 -0.3776367 -2.7289257 -0.49093544 1.394364 -0.89844847 0.30238664 -0.7004962 -1.1669954 -1.2151935 0.8832539 -0.36399505 0.2492696 0.30687597 0.08620548 -0.52333486 -0.20858426 0.86793715 -0.59530145 1.1844264 0.64593536 0.9338969 -0.2521386 -0.5773254 -1.3316444 -1.0095084 -1.4767833 -1.3650026 0.17329003 -0.20174117 -1.7922443 0.12601444 -0.1606204 0.2697938 -0.9094683 0.645811 -0.33898053 0.29747608 -0.8031696 0.7800891 -0.8784553 -1.3668317 1.5639654 -1.1504221 1.4596 -0.73857296 2.0180423 -0.17290771 -0.4745244 0.7071783 2.7675986 1.7354373 -0.9693492 -3.3826103 1.8638799 0.79990107 -0.5304053 -0.39642146 0.19585879 1.1535417 -0.6283755 -0.9870864 1.3187102 1.4467123 0.34060657 0.22786732 1.7469139 -0.6310403 -1.4519744 0.114894204 1.673147 -0.18281029 0.70771515 -1.1065351 -1.0402817 0.24325813 0.624833 -0.6080797 1.3580035 -0.053598 0.4206327 0.8050764 0.34035197 0.8129108 0.019659225 -1.0478054 -0.2649629 -1.6250162 0.17195769 0.07783701 -0.798009 2.3278484 1.0603573 1.8976132 1.7557188 -1.4850718 1.3278964
