2113 128
349 -3.5709207 -0.22441432 -0.80535436 -5.604488 1.7896478 -1.3734632 2.1471786 -1.8404762 -1.1708947 -1.7165079 0.5637731 1.3103745 0.74435884 -0.5683649 0.5892668 2.239946 -0.036915846 1.4505644 0.054311126 1.3941572 -1.2023392 0.07196616 2.7741654 0.56662613 -1.8635496 -0.20523693 -1.2234147 -0.4473297 -0.461046 1.3655374 0.85323656 -3.9306166 1.468438 3.4731102 1.1386477 -1.6773776 -2.1230268 -1.613641 0.22772697 2.236694 -2.2258995 0.37003618 2.1671588 0.77368915 0.09926832 -5.092484 3.5463724 0.8106999 1.9488307 -0.5037452 -2.423132 -0.47746646 0.5956827 -0.37336412 3.740644 0.7161705 4.198873 -0.7697867 -1.2312489 -3.3114748 -1.093886 4.161992 0.11064875 -1.1034856 2.516081 2.1112483 0.65793854 0.99042684 0.09371364 1.6109535 -0.44161353 -0.37409544 4.7751403 3.9698336 -1.3755115 -1.0834097 -2.523462 -0.81236476 0.5952825 1.5482645 -4.6780705 -3.4517164 -2.736663 0.98605865 0.84189814 0.29561836 -2.150881 1.4503654 -1.0931001 0.24138479 -0.76218325 5.288832 -1.3129886 0.6105904 0.28618246 -0.30752617 1.8075175 -0.5064009 1.8665988 2.529759 1.2790115 4.3627467 2.5462663 0.3634055 -2.9093978 3.6333025 3.1032612 -2.511524 1.3595446 0.54496497 -1.5047498 -2.0746608 -0.70927 -3.1104918 0.09189792 -0.81409436 -0.18055518 -2.1353664 2.319731 -0.7858491 3.070358 0.14170617 -0.7969115 0.26425958 0.48371202 -5.1687527 0.7234515 1.5454563
420 0.60560787 3.0618849 -2.2426996 1.6776491 2.4100304 -0.40346432 -1.6667616 3.703135 1.4051087 -2.8234415 1.6138238 1.8291788 -1.4661043 -2.5385818 0.15836611 -0.7351661 -3.813469 1.4837105 1.7377886 0.35494006 -0.45162132 -0.10068474 4.0327654 -1.2520393 4.7350183 0.5157755 -0.9909015 0.07973499 1.0976409 -0.099659435 0.41744792 5.5145683 0.03552055 -4.7773013 -0.58496386 0.92870367 -1.2879658 2.0393202 -2.257168 0.80565506 -1.9594897 1.1502087 0.5799742 -1.2176524 4.804776 -1.0589818 0.03605393 1.1439588 1.9112281 1.2919104 0.10719741 2.4029381 -1.5982631 -2.1170895 -0.82724863 -3.9823267 -1.1145895 0.114727646 -3.0109856 0.4689497 3.563276 -0.86506844 -0.79786044 0.27056846 -3.3033412 -1.0277078 -0.021048306 0.8817771 -0.32859483 6.191846 -5.26505 2.4610672 -3.0399535 1.4273047 2.975866 1.9680027 -5.2763267 1.4774733 -1.4182862 1.3781542 2.8809268 2.1949165 -1.8984464 0.08422317 -2.8329604 1.2442482 -2.298836 -4.841447 0.9491877 3.1010156 -0.4599505 -1.4813669 1.1536115 -0.16843446 0.5875598 -2.0513802 3.8359537 -0.03785175 -5.322671 -0.732848 -3.0816052 -2.0109909 3.427749 -3.4307446 -1.6723452 -0.077173285 -0.43736652 2.71356 -0.81566447 -0.7338555 1.1831379 1.4064125 -1.4418187 -0.91338474 2.8759918 2.493765 0.3172526 -2.393634 3.3969705 0.13448435 0.9565536 -5.772958 -0.47857836 -1.7720563 -2.0344355 -2.2668598 -2.5937135 -0.41207862
363 -0.038143728 -0.28963134 0.81409925 2.3146355 -1.8556888 -4.4824367 1.3508295 5.023492 -3.6072035 -0.07427079 3.4170642 -0.55375993 -0.42237929 2.7420037 -3.2667685 1.6175523 1.7315538 -1.5639637 -3.1728654 1.5456195 2.1199398 -2.523618 -4.0066156 0.10746267 3.5536265 -1.6032968 1.2621415 0.71402496 -0.8029916 -1.9832838 -3.2914011 -1.677797 1.9706804 -3.6977837 2.891935 -5.000297 2.0804787 1.7554333 1.1396765 0.17724878 1.773679 0.4467673 -2.3579183 -0.3919195 3.6047492 3.3221495 0.49136275 1.5417465 -0.0782048 0.3399561 -0.0017552759 2.317104 2.506522 2.865428 2.1473 -5.2055254 1.1485395 0.22392985 4.0058517 1.9421526 -1.1843344 1.2052284 2.2670984 2.5711715 0.72122365 -2.34667 -0.47180352 3.2174685 -0.14338939 -3.0179975 -0.054627825 -2.9441388 -1.5082088 -7.221484 2.3359053 3.9601407 3.6622868 1.2959858 1.0588139 -2.4609258 -5.6520386 -4.579308 4.511852 1.5662754 -1.253056 -0.13251413 -0.4021415 -1.0735736 0.6630116 -1.6998694 -2.1511452 0.064424 1.5559944 2.3017848 -1.5250318 -2.0977678 1.9387228 0.6519065 0.7191717 -0.637401 -3.3758664 3.030365 2.3752418 -0.99913245 -0.3039167 -3.1264706 -0.83330923 -1.3751488 3.6057508 -0.71788275 2.408952 -5.6260443 0.69241196 -1.0292329 -1.2558092 2.7081733 -1.4306076 0.18466178 -5.2737346 0.86159545 0.5614237 4.1964674 1.0447208 0.040399056 -0.8455038 1.5474911 -1.8618858 -4.152233
19 1.320214 -3.0436764 6.085908 2.5773065 -2.1989222 0.62396556 3.9220488 1.486961 3.3289428 0.77126473 -0.7672145 3.195321 -3.017045 1.1833802 -0.8279596 0.5704755 -2.080422 -0.4179438 -2.4852288 0.6860501 3.4481137 1.2055568 0.95296216 2.137639 -1.1178532 1.1762853 -0.30440634 1.9480778 -5.253884 1.916192 2.533837 -3.2097936 3.5629334 1.9201591 -4.3747854 -0.77939785 -0.5783743 -0.47439605 0.84805346 0.0553799 4.760894 -5.0140705 2.4647923 3.2635887 -0.5402334 -3.178995 1.88079 -0.51274264 -0.447398 1.9101071 -0.022798184 -0.78872657 6.2443094 -3.032261 -0.732719 -3.5658498 -4.6940365 1.7735715 -2.2939718 -2.1469367 3.3910692 0.6327522 -0.7503535 -4.5834527 1.7697116 -6.8276043 2.3151236 0.45026922 -0.47057587 -2.5732243 1.26812 -2.9483778 2.8353784 0.21123095 -1.0975286 0.88793015 -2.4396465 -1.0056225 1.6863533 0.7409174 6.1224036 0.53648186 4.1283994 -2.873343 4.406194 0.008099727 0.31003588 -2.0089443 1.7184545 0.4981265 -3.8044643 0.69232595 -3.2128046 -0.59854245 0.562562 -1.0923204 -1.4695058 -1.672034 -4.150896 -2.3938322 0.94503057 2.7401247 2.7633283 4.764961 0.09040425 0.24657272 -0.075339265 -0.13000286 -3.0143528 2.7497165 1.4989493 -0.73739684 7.7978725 -3.1342258 -2.3724265 -0.36832803 -1.1762197 -0.95374614 0.10613199 2.9744003 -0.47142535 2.449628 -0.8390382 4.6332107 0.26241544 1.1676313 2.6550264 1.0000219
1413 2.762687 3.8128874 -2.7419655 1.9406959 -0.53077346 -4.1219497 -0.26037505 -1.4288393 -0.478586 2.608222 -2.8225162 -1.0001113 -1.3796037 2.7048788 -0.84711957 -1.1720154 -0.85782206 4.320033 2.6409013 -2.7352588 1.4944535 0.795729 1.1343242 -0.27088553 -0.36135626 4.016798 -0.35244554 -2.7265477 -2.1249142 1.7259676 4.041151 3.088055 -0.26234314 -1.9024962 4.8065886 -0.15933634 -0.29103142 2.2433758 1.6519035 -2.7501068 1.6003559 0.10755492 0.07598322 -0.8411055 0.7125477 1.7514704 -3.1467776 -1.9715655 2.1874702 -0.45519197 2.3688004 -1.0582755 0.58603823 -2.1724813 -0.98477924 1.1685463 -3.351828 0.75555897 -1.4247262 0.7172639 -1.0826564 -1.2757274 0.3353972 -1.7357713 2.5959697 -0.70600665 1.3172129 -1.0292068 -1.4517227 -1.3735976 -0.6860503 -2.762968 0.49675372 -0.43864444 -4.4803185 -0.515842 0.39572388 0.12959112 -2.6381233 -2.3010182 -2.1597364 -4.4096684 1.0113883 0.88701725 3.1714842 -2.402519 1.3877462 0.48677874 -0.9969449 2.3308322 2.3005455 1.6687038 -0.0750625 -2.0068932 -0.74079585 0.8907311 3.1543121 4.474499 2.2072127 1.329306 1.61424 -0.8880499 0.38888448 -2.0212433 2.260083 -3.585952 -3.234124 2.4132235 0.5863964 -1.4070482 -2.2459137 1.3236433 0.72134626 -1.3656943 -1.7191303 -0.24819288 4.76577 2.7108688 -5.348664 -1.6463169 0.91591114 -0.1630281 2.2282956 -0.2349638 0.22664943 -2.637771 1.6387458 -0.48732564
57 -0.51181877 -1.1871443 -0.84679574 -2.498474 -1.1711785 2.0541406 -1.5528406 0.98879343 1.5754777 -2.1738112 -3.3542697 -2.8301237 4.8981137 0.20494913 0.4668322 0.3394975 -0.5024111 -1.565969 1.1890358 2.0719502 -2.0616047 1.333326 -1.8711686 0.388773 -0.7598293 3.0595846 0.9723012 -0.7996475 1.9233813 3.012371 -0.3744311 -2.7438233 0.3185666 2.1786718 -2.0936754 1.0619516 -2.3931334 2.4708724 -4.7646832 2.3451235 -3.0742679 -2.0425217 0.2942006 1.4535024 -4.6621456 1.3524507 -2.4960234 0.67816675 -0.6226374 -1.913969 0.01024284 -5.306993 -0.008091099 -0.07731081 1.1687182 2.9557557 0.22964971 -0.7417513 -1.2253567 3.274631 -0.6518368 -2.397403 1.4514854 2.0257316 -0.58255213 3.8975222 -0.6836503 -5.075257 -3.2841573 -0.15486553 3.836669 -1.6923562 0.6833013 -0.6174635 -1.7168442 1.5952893 3.3994436 -3.3796754 -1.1511276 -4.446179 1.8643502 3.9376311 5.836459 -2.0823627 -3.141086 -1.3792878 5.077797 0.8952372 1.5087086 -2.4440544 -0.084573425 -3.3617463 -3.7666006 -2.87148 -0.4725909 3.7621703 -3.8659668 0.572435 0.9079036 -0.41956392 0.53703874 -1.3007054 -0.28665888 -0.0011328313 1.6282197 0.8018176 -3.0235853 1.3749579 -0.7033377 -4.4484434 2.137841 -0.0022219 -2.2328413 5.1801615 5.012936 0.09587813 1.3717445 4.5425696 0.098013915 -1.2910471 0.16304599 1.4998763 1.3717505 -4.546002 2.9136987 1.7537241 2.1525748 0.9011656
174 2.781628 1.3709153 -0.5576254 1.7176107 -2.1567335 -0.74427754 -0.70352 -1.2123117 -3.9469233 1.3116997 -3.1608086 2.4985857 -1.0574067 2.837662 1.1893864 3.74285 4.2050815 -2.2040143 -2.4473639 -2.4709387 2.1179152 -1.1127466 3.3953753 -2.9818017 0.753502 -2.6293173 -0.46620986 1.2562591 1.847124 1.2039769 3.714659 0.2842661 -2.120329 -0.4466944 2.7479246 0.46684778 0.4572843 -4.20905 -0.010388631 -1.907196 3.4411817 1.64296 -0.29160044 -4.098168 2.9911919 2.8990016 -1.205313 0.54740465 -1.817361 3.8712795 -3.0853205 2.1862912 -1.8972954 1.8302851 -3.2349272 0.6523501 0.17153989 1.6195382 -0.19180432 -0.5991571 1.1026932 -2.0168324 -0.09326134 0.61963487 -1.2615434 0.56497175 -1.6982377 1.2137593 -0.50030917 -1.999431 4.4845963 6.1804194 -0.45701224 -0.39542824 -2.2155612 -7.26888 5.2900915 2.2540042 2.5610404 2.3963904 -1.7421533 2.4450574 -1.4129517 -0.92902315 -0.36391965 -0.44873518 0.84457195 -0.75263137 3.4238236 -1.6862309 3.3734155 -0.20891403 -1.6800797 -0.57626134 4.0759397 -1.4339707 -0.03424358 0.97970855 4.983962 -2.0377 1.2053076 -3.5364127 0.20571019 3.3440022 3.6218743 -2.3388221 -0.83511853 1.1484643 -4.3628545 -1.124401 -2.2649426 -4.3999395 2.8023715 2.6285682 -1.3869274 -2.4467955 1.1386048 1.9857169 0.29581478 0.33086973 -1.259147 1.8871305 -1.0822096 0.25766635 -1.1233137 -0.33676618 0.008044786 -0.77247643
77 -2.5331795 1.0217085 1.9839878 -3.7117352 -1.8922334 0.09831022 1.6454688 -1.3919952 1.6696775 -1.1506737 0.3734343 -1.78435 0.03341915 -1.6586583 -2.8422437 0.30056348 0.48962516 -0.22687165 1.5284396 1.1595765 -0.8097581 -2.4618638 -2.0167527 1.329798 0.8971119 -0.45345533 0.6604881 2.5692253 2.2759888 0.11694533 -2.1937253 -2.7856488 -4.5069294 -0.16881043 -0.28743282 -0.56785816 -1.0347432 -1.8864183 1.4096555 -0.3356512 -2.5703645 4.1144943 0.23822382 -0.27450255 0.64095366 -2.6304152 -0.04018944 0.58671427 0.053323843 -0.4605168 2.530549 -0.013133469 -1.5959153 -0.40623382 1.2490326 -3.21231 2.941317 0.9001065 -0.25452387 -0.49296653 0.4373427 0.28760496 0.24501655 0.20299563 2.061166 1.635842 -0.38382965 0.81002295 1.5687592 -0.2730794 -2.0847328 -0.10345064 -1.2045391 -0.09360007 2.7844775 0.71683854 -2.125231 1.2703797 0.08110067 -0.3463803 0.124967374 -0.2184934 -2.5076869 0.8059249 0.36170062 -1.0445652 0.23931722 0.010195456 -2.441334 -1.2632967 -0.94042295 2.3403046 0.4686006 -0.8132532 -1.8054295 2.6706588 -0.20825806 -3.0356503 -0.47787687 1.4287505 1.396774 1.5276892 -0.10065452 0.42103824 -0.5065986 0.85859466 1.7711766 -1.4587685 0.95318395 1.9881836 -1.972288 2.7515152 0.36502504 2.1905215 -1.4512514 0.5907317 -1.4664072 0.134538 -1.5941308 -1.5636027 1.5648549 1.474197 -0.765225 -0.5380911 1.6949548 -1.1070709 2.7093933 -1.5980228
72 -0.36079848 0.6314393 2.4858496 -1.6072814 -0.06655174 0.23199627 -0.3813465 -1.3876227 0.64749813 -1.4908344 -1.4223757 0.95108974 0.6395115 -0.17223452 1.4172035 0.7343369 -0.014796796 1.9273313 -1.7620655 0.6754966 0.4790625 -1.3561637 -0.7140024 4.2305994 -0.14028358 -0.264385 -0.1844602 0.6909473 0.8960278 -0.058092143 -2.6889102 -2.248605 -0.80713713 1.4727266 0.4254168 0.8773599 -0.32267714 -0.8715691 1.5690622 -1.3899882 0.11598973 2.5881016 -0.4387247 -1.691633 -0.38521 -2.390355 -2.4753752 -0.26670042 0.016740788 0.0985394 3.2841403 0.69107246 -2.0589395 0.42692575 3.0564692 -0.861175 1.0824264 0.8233744 0.30322996 -1.6503824 1.432042 -0.08535733 -2.8192747 2.3568945 -0.2594717 1.9775652 1.0106282 -0.12335491 -1.3435459 1.3318532 -2.3818123 1.8216262 -1.2870022 2.3722954 0.06220231 -0.011361485 -0.7921456 -0.112457424 1.1849284 2.754804 -2.3609905 -2.3456461 -2.0167282 2.7931755 0.75959706 0.33001477 -0.24162808 1.2396985 -1.7139773 0.4805043 0.006268235 1.7011433 -0.24373256 -0.9795477 -1.4165866 2.1968713 1.5899196 -1.7488546 -1.8234634 1.7575247 -1.023867 1.5087223 -1.4104133 1.1291629 0.16404463 1.0440456 2.8522747 -2.6056664 0.005691348 1.360462 -2.2781715 1.4573475 1.457529 0.507316 -2.873119 -0.6040707 -1.4866128 -2.1788447 -0.7283882 0.5903509 -0.8466295 1.6411562 -1.4943873 -1.836795 2.6058803 -0.96804005 -0.9224916 -2.9747305
1079 -2.7068164 0.85157675 0.5264529 -1.7421739 1.1824542 -2.3540308 0.34905106 -3.822748 0.7052203 -2.0230327 -0.7432355 1.4875906 -1.273123 2.2091951 -0.90151256 0.39339766 -1.1192347 1.8566958 -0.14182983 -1.267274 -2.3725195 -2.063992 0.16076766 1.3528382 0.3497488 -0.5698311 0.21903746 0.69036025 -0.5594647 -0.5981354 -0.07348236 -2.696972 -0.7679326 0.7997116 1.7483456 1.1177987 0.029865768 0.16044608 0.5841013 -2.5887344 1.1340677 4.3567595 -0.19181548 -0.7041626 0.41535747 -3.1581855 1.6857626 2.340856 0.7506351 -1.4404336 3.9967022 0.090733044 -1.8023084 0.29511824 2.4091473 -0.7826038 1.7046589 -1.0088754 1.1381804 -1.0153317 -0.12292356 -0.289985 -0.7326744 -0.1820679 -0.11032905 1.0664971 0.44960943 0.0006309431 2.4968817 0.26958993 -1.4360784 0.6827429 -0.03547804 0.9119469 1.2886322 0.7450365 0.00061314856 0.2552141 1.441606 1.8124607 -2.6695442 -1.9416559 -3.3568172 1.6565975 0.05766538 0.20528206 1.4684418 0.23480783 -1.5188657 -1.2763628 0.13686359 2.4055955 -1.6074516 -1.1766433 -0.9256892 0.9269043 0.6487177 -2.2039125 -0.3185556 1.381197 1.1709718 1.5923811 -2.2122073 0.5662642 -0.90375435 0.73575515 -0.01806385 -0.5703288 -0.035145465 1.5324261 -2.2926385 0.63124794 1.7236183 0.4733363 -1.8222405 0.6143672 -1.1656389 0.03205648 -2.353392 -0.26111823 0.9250259 1.4669997 -2.3167758 -1.0023917 -0.97763175 0.7462073 1.7662959 -1.3038263
142 -1.9685215 0.28397527 3.8172517 -0.3180742 -2.1648636 -1.4849786 0.39916986 -0.6357052 0.6300046 -1.6533972 -1.2540181 -0.26745215 -0.26808316 -0.37423325 -2.8881605 1.3487056 0.94879454 1.2711195 0.21768418 -0.44082242 0.3104726 1.0191238 -0.79369324 1.5461472 1.7686671 -1.11359 1.7340883 -1.508698 -1.152495 -0.8913427 0.3451134 -1.2238029 0.5215651 0.8394894 -2.5497925 -3.7650394 -0.3709375 3.3251376 1.4861181 -3.103746 -2.553852 2.8456552 3.84875 -0.557429 2.2079806 -2.96498 -2.0157084 -2.8506255 0.06236141 0.70054966 2.1621926 2.1078987 0.55406034 -1.0044886 2.8943994 -0.47339314 -1.8269774 1.1324314 1.3583125 -2.258295 1.6495322 3.2458193 -2.119497 -0.3969783 -1.4098132 2.897184 3.198727 -1.4895631 0.8838505 1.4142351 -0.4860111 -1.3228977 2.2121677 0.25816965 -0.24552472 0.8767522 -3.3025072 0.34529743 1.7365295 1.2356994 -1.3637096 -2.324377 0.86600107 2.3615773 1.4526349 -1.6835613 0.20698674 0.6227824 -0.185564 -0.66123825 -1.8143686 0.37565267 1.6529899 0.13889295 0.37130937 0.47612837 2.5967662 -1.448355 -0.93879426 1.3188597 -0.4073819 -0.86443007 -1.1973759 0.27822444 -0.00819509 2.3296251 1.5800201 -3.3715796 -0.20474921 -0.5154438 -1.433894 2.8908575 2.6952133 3.1966944 -3.2913234 0.23021585 -1.0329258 -0.62018496 -2.495009 -1.1072508 0.0733416 1.3882117 -0.43696877 -1.3578421 2.4813333 -0.9175364 1.4474837 -2.0757818
74 -1.7623913 2.7735882 1.0913901 -0.27927768 0.9719643 -1.0020349 0.21584709 -1.1486187 2.2654283 0.4675832 -3.468775 1.7678884 -0.46700865 0.05537909 0.11060209 0.011937558 -0.93912476 1.4106387 0.3620013 1.8219047 -0.27268642 -3.045139 -2.3426213 2.058608 0.26518583 -1.1712841 0.93724453 1.4280689 -0.5765386 -2.6512928 -1.7405697 -2.6470807 -0.67104495 -1.2756549 -0.79100347 -2.0323467 -2.520102 -1.3026869 1.7029763 -0.56395924 -1.7803358 1.4335591 -1.491271 -3.4447577 -0.7812723 -4.797947 -0.6505688 -1.6522824 1.0136405 -0.47167048 2.0521007 1.2649753 -2.169445 0.7633528 2.6688924 -0.3227051 0.7332157 0.8156568 -0.1209656 -2.3631349 -0.095869616 2.6538787 -2.4252484 0.82112294 -0.05888311 1.6583416 2.3015106 -2.7880182 0.7290248 -0.032430932 -2.1804833 3.3419535 -0.77494955 1.3212308 1.7426239 -0.3755201 -3.3188646 -1.7583312 0.697202 2.8798943 -2.57531 -1.5536888 -1.047815 4.0972705 -1.0749942 0.28635883 0.1056086 -1.583668 -2.087555 1.0816447 -0.106531456 0.843278 -0.9401716 -0.46861464 1.3884032 -0.26721713 0.15159889 -2.1888223 -0.59967935 0.3787929 -2.1204565 1.5529557 -0.8475014 -1.2303085 -0.7225896 0.7087822 0.9244564 -1.7924031 3.7380257 0.17030305 -2.9937625 1.5897815 0.5249074 0.30253327 -3.995254 -0.04950522 -0.62754095 -3.0269675 -0.5359793 -1.0961957 -1.3490788 0.3210893 -0.9218035 1.3428698 -1.797932 -0.75274956 0.72981393 -0.8040725
68 -2.3220682 1.6143919 1.9045309 -1.1424439 1.4491824 -0.60446584 -1.4142704 -1.2519368 0.9001115 -1.082171 -1.1986871 0.26584613 -0.3483151 1.7737356 0.70857793 0.28838992 2.1439397 0.4578894 -1.852132 -0.5845745 -1.00478 -1.3062973 1.4203106 3.003241 1.2806251 -2.2782977 -1.042661 0.20137416 2.7423542 0.64560336 -2.402148 -2.3419023 -1.9301162 1.1778057 -1.1427431 1.9519361 -0.25495654 -2.017213 3.124023 -1.4386033 -1.0604957 2.4853568 -0.519938 -0.6408286 1.1468296 0.13104169 -0.6497866 -0.75316906 2.6749148 0.8111467 0.6757494 0.5317219 -0.60592747 1.182788 4.555588 -1.2702494 2.6018226 -1.8433166 1.8941269 -0.60257804 1.9054519 2.3943233 1.8903344 0.58810055 0.4682355 0.7163989 0.4092198 0.36980432 2.2949243 -1.6335057 -2.5783308 0.28116938 1.5139916 -0.13844068 1.3485023 2.8570685 1.2504338 0.2643646 1.4291542 3.1552842 -2.212786 -0.08698276 -2.0373464 1.6388161 -0.10390808 0.36109585 -1.1261314 1.0327789 -2.7927651 -2.4422188 1.1992406 1.5628003 -1.5626303 -1.2182723 -0.45798 -0.50291467 0.5066231 -0.6271374 1.5575881 3.110323 -0.33066007 2.6519635 -1.2706608 -1.4266924 -1.9237095 0.82375836 2.5972826 1.4836433 2.076433 1.7233511 -1.8041359 -1.3846694 0.9120573 -0.527592 -1.3610048 -2.027492 -1.4448141 -0.3809003 -1.761503 0.24944101 0.81178886 2.9340487 -0.6878977 -0.61513734 -0.316135 -1.5372673 1.0560654 1.7185451
794 2.984555 0.10326578 -0.035373397 -1.8084303 -0.34868222 1.3854847 -1.8250422 -0.56937456 -0.261515 2.2056673 -0.2803832 -1.7762893 0.92224497 -1.3254784 -0.9482916 0.42431098 -1.5820991 0.21629176 3.9878368 -2.3195512 1.2496237 2.0747716 0.21712193 1.8013029 -0.60429054 -1.9384274 -0.58445483 -0.34745923 -1.4268252 -1.951687 0.7371356 -0.88107073 -1.6293267 3.4006803 -1.8808504 0.35132855 0.3348232 1.825864 -2.191164 0.27572903 0.4118248 -4.493609 -0.68245065 3.9706197 -4.3887625 0.6292253 -3.8567214 -2.247211 -1.7188501 -2.670063 -2.560383 0.36961132 4.0513334 -0.82652134 0.01225453 4.2464433 0.20057796 -2.2914147 3.1133778 -2.4251277 -5.356371 -2.8291097 1.0825193 -2.1009028 1.9741532 2.5895383 -4.8760977 -2.1996598 -1.7271727 0.9404586 -0.99751544 -1.9907026 -2.690761 0.500819 -3.137911 -0.14103779 3.1850073 -2.2411783 0.055774726 -2.9326825 3.6653 3.0740635 -0.6714991 0.6607852 -0.96687925 0.78775215 -0.226256 2.9627461 -0.8315661 -1.8601629 0.8268528 -6.326303 -0.70209324 0.059530836 -5.583995 0.67563057 -2.892333 -1.9186474 1.8780489 1.8834723 -2.5531423 -0.47544423 -5.122042 0.87146705 0.7879368 0.18104532 -1.3855208 -3.0343578 -0.4741579 -0.65530777 4.815829 3.3118958 -3.5348706 -1.7024233 4.729301 0.0063901707 -2.1139817 0.60272586 1.2187278 0.9132522 -1.0698487 -0.822826 3.0232244 -2.0821986 -3.1956685 -1.0005136 -0.07388804 2.4399831
65 -1.9282503 0.612897 1.9494206 -2.3435566 0.09070556 -0.8760559 0.6347483 -2.416194 -0.39532754 0.5742839 -2.894637 1.7892098 1.4083754 2.0759566 -0.67082244 -1.7254337 0.7474772 0.31437007 0.6411934 -1.2126173 -1.3371335 -0.19555688 0.16058376 1.4113225 2.8853545 -1.4614464 -0.073620126 0.740071 -0.5766328 -0.1260218 -1.9769174 -2.6882148 -0.68785596 0.7421645 0.69529635 -0.7382833 0.8493864 -1.0628337 1.4375778 0.4116295 0.03677791 3.0890727 1.0942662 -0.90888107 -0.17474389 -1.6489856 0.31398848 0.91578645 2.5550525 -0.24617848 2.4795587 -0.9874646 -1.1848638 0.43431225 1.4481193 -0.60161376 3.7005987 -0.3429003 -0.07146207 -0.8641101 -2.0590656 1.589473 -0.68305236 0.16578268 -0.72408766 1.8114346 0.18328401 -0.80352724 1.5279263 0.2876653 -2.403259 1.422804 0.124582164 1.1827966 0.08861584 1.4879789 -2.1349962 0.65834326 -1.4852762 2.3505344 -1.232157 -0.7393676 -0.11408499 2.7270687 1.6178344 0.85529244 0.63994944 -0.38005865 -0.720228 -0.0023368995 -0.30252528 2.5995746 -0.30132368 -2.2833123 -0.7282234 0.03816449 0.4240116 0.56242263 1.358129 2.0198708 -1.0627644 0.6510668 -1.6001079 -0.023794718 -1.2914944 1.3904617 1.0933442 -2.062757 2.3305287 0.31827554 -4.3644314 0.9142911 -0.59563553 1.8610194 -1.3661935 1.1890569 -1.197147 -2.4516957 0.21369052 -0.2467396 -0.39425495 0.7541621 -2.8191178 -0.4006852 1.6295122 -0.14870115 1.2571801 -1.3431019
73 -2.1360493 1.3906362 0.095603555 -2.4516404 0.99775475 0.616113 -0.48428187 -3.3298159 1.7690531 -0.51555705 -0.6539465 0.7962445 0.12756361 2.2082558 -0.24440537 -0.464154 -0.7872491 -1.1049386 0.52317894 -2.108899 -2.2390935 -0.24742776 -2.4307108 0.2682178 0.5018559 -0.66738874 0.059985075 1.4285226 -0.43333477 0.6469859 -0.34869295 -3.150844 -1.1193473 3.2592406 1.1969783 -0.2650716 -0.7179839 -0.21130668 1.3644258 0.90611726 -1.6791555 4.335893 0.6829878 -1.4330661 -0.09738017 -3.0040078 -0.026569111 1.7893491 1.2883644 -1.3234003 3.7664242 -0.075177796 -0.6357682 0.07753168 4.2958083 -1.1853317 3.5283148 -0.28649727 -0.15355289 0.62787026 -0.52968377 0.081167765 -2.187824 0.51587284 -1.3850667 1.0953035 0.1281573 1.2581958 0.25046197 0.8049628 -2.1156366 1.5902073 1.6155027 3.5619087 0.81876844 1.3636565 -0.71017385 0.5075739 -1.1094501 1.9247229 -1.1762015 -1.113087 -2.2124386 1.8717569 0.49420008 1.3183362 -0.17408516 0.29363373 -1.4728222 0.45237452 -0.13053134 1.3862634 0.481299 -1.1784544 0.15207866 0.9333768 -0.10255207 -1.4730446 0.89244056 0.74125 -1.0340778 1.3460127 -0.19475622 -0.13907495 -0.6785688 0.63146764 3.1439302 -2.2770827 -0.44911686 1.7425983 -2.3010154 1.4828447 2.1645658 1.4699453 -0.81824017 0.56505686 -0.073957205 -0.093812495 0.5396817 0.9161301 0.16967545 2.9189436 -2.8685184 -0.3053432 -0.045050334 0.23974021 1.8381872 1.1689732
83 -0.27080303 -1.0110728 1.1989125 -2.2132375 1.2266049 -0.46247494 0.9178952 -0.39464197 0.15810242 -2.1017253 -0.86482584 -0.95715314 -0.9745149 -0.5990034 0.30886617 -0.79072946 1.6601168 -1.7870928 -0.80096596 -0.6793707 -0.69943076 0.86586314 -2.4338644 1.31599 1.9539909 0.18189871 2.8732138 2.308002 1.2320535 -0.17988542 -1.540055 -1.953627 -2.2610295 2.4522476 1.2630199 -1.9308295 2.6958747 -1.1150482 1.008391 0.49101835 -1.0947932 2.6826081 0.9730756 -1.9290619 -0.6337615 -2.5879111 2.1302302 0.86023235 -0.03047007 0.042674422 2.4087949 1.2910297 -0.99346274 -0.2564017 1.3512622 -1.7167895 1.9844153 -0.91242796 0.66477853 -1.9890589 -1.342632 0.33727586 -0.98632056 0.5751403 -0.17539379 0.28925127 -0.5775328 -0.75632626 2.2822912 0.3711975 -1.5856708 0.5585897 0.7447936 1.5317179 0.033088874 1.2191643 -0.5900231 0.03087812 0.6121582 2.4362497 -2.5139945 -1.8497407 -2.2226377 3.7758625 0.42208466 -0.044637866 0.9125068 0.05652609 -1.3357956 -1.773072 -0.32245404 2.479803 2.203503 -1.0924647 -1.9436454 0.8419491 -0.1940062 -1.1930872 -0.52827233 1.3172138 -1.5183287 0.46302503 -0.44899806 0.21700448 -1.1658812 0.4965134 0.3457898 -2.5061793 0.17017984 2.1967652 -3.190185 0.8443145 0.3749139 2.6251016 -1.7258583 1.458505 -1.4377123 -1.2489831 -1.1136935 -0.43576926 -0.63871807 1.0983126 -2.4973922 -1.105997 -1.2851577 1.7873086 0.9869144 -0.55792886
511 1.1123582 -0.105604164 0.23180127 -2.3232152 -1.4741383 -0.29818246 -1.6492016 -1.8529371 -1.8854973 0.29889524 -0.70505464 -0.28240922 0.12263125 1.7716923 -1.2613547 0.9457073 -0.014986971 1.8110379 1.4616472 0.9699976 -1.8478569 0.08916285 -0.113907345 2.4922974 2.3136 -0.51776844 -0.7438655 -1.0857612 0.38644275 0.2739239 -1.1016136 -2.7398906 -1.9657924 1.5380936 -0.61714256 -1.2809206 -1.4307686 -0.50411934 2.2430303 -0.77090675 1.0605241 4.3758545 -0.96178406 0.22524688 2.2369435 -2.7755864 -3.372222 1.501693 -0.16699225 -0.38105017 2.354861 0.6044791 0.115384765 2.6213772 1.49734 -0.22855572 1.7346257 1.8524503 1.4979258 -2.3520088 1.4356773 1.2486446 -0.4009533 -0.33099073 0.41392407 2.3484213 -1.062429 0.6325431 0.5236719 -0.778516 -0.5960601 2.489819 1.0897161 1.901837 1.541683 -1.7886418 -0.42657837 0.11223177 1.8990282 2.1833956 -0.9198345 -1.0481535 -3.1757398 2.6058865 -1.804395 -0.8927477 1.8285851 1.1660447 -2.043592 -2.4046597 -0.82356244 0.6674408 0.3510345 -0.007740432 -0.40645584 1.2329942 1.7699463 1.5364273 1.5125929 1.6882561 -1.2762555 -1.5779613 0.006246942 -0.43611825 -2.8895798 0.57467085 3.7247732 -0.91760767 -0.7265888 -0.0038377964 -3.2004533 -0.73481494 2.8669634 0.38159657 -3.3368545 -0.38488218 -2.6716332 -0.7146115 1.3239608 -0.19303621 2.052002 1.9696412 -1.5152214 0.35590538 -0.7520857 0.73541987 -0.879981 -2.4601734
56 -1.1961102 -3.8592072 0.32624137 -2.8114414 0.12596327 0.24713238 -0.3118297 0.95714325 2.3812575 -0.57017714 -1.3790593 -3.1167126 0.36688942 -4.283883 -2.1898167 -2.233637 -1.9204082 -0.41656944 3.5261137 0.23269874 -1.886924 1.6512785 -2.851703 3.2466886 -1.2103496 3.7761402 -0.78824395 -1.3788843 -0.5912618 1.8258203 -1.2791334 0.052039012 -4.089543 1.702209 0.89245665 0.21123023 -1.4571509 2.6246738 -3.184036 0.62335354 -3.0346026 -0.266032 -0.35410985 0.44269302 -2.7809825 2.8075616 0.3015801 -1.0097121 -1.7596699 -3.7127206 0.7155342 -1.9528037 0.45612955 -2.3818624 2.1034625 0.7385016 1.3299737 0.5426758 -3.529329 2.4817705 -1.6376172 -2.1813877 0.6549119 0.72277075 2.0802345 3.125976 -0.76550496 -3.907225 -0.9151295 1.3313794 1.7055018 -0.042798556 -1.3707505 0.30413675 1.6763593 3.5557868 0.8710952 -2.9982905 -5.4514112 -2.5760853 4.0906625 4.535175 1.2179047 -0.06614111 -1.2852017 -1.1405687 1.5372413 1.8768533 0.99653274 -3.6782024 2.9118779 -2.3981066 -2.8914828 0.10373006 -1.2548089 2.895885 -1.2797723 0.6423134 0.49119818 -0.9793855 -0.58757126 -1.3883936 0.24025154 1.3833127 -2.1641564 0.7034607 -2.202672 2.2891788 -0.46462712 -1.0400054 1.1978539 0.51904285 -1.4163979 3.7952633 6.66685 -2.0164511 -0.3839301 2.8281364 0.064755335 -1.6289719 0.6524731 0.3613522 0.8024027 -2.0953162 1.5561888 4.092392 1.3549477 0.25200537
66 -0.7728472 0.23287451 0.2730187 -1.3107631 0.5641862 0.48538733 -0.20349881 -1.7334527 1.8270442 -0.8828726 -1.6748191 1.0320787 -1.3778937 1.3485329 0.9779272 -0.8323307 -0.482581 -0.942548 -0.7196959 -1.3505417 -1.2832825 -1.0958362 -0.018918475 1.5328207 -0.964712 -1.2422987 1.4938551 2.6896315 0.022466158 -1.8097113 -2.2102962 -3.067039 0.21922576 1.5878358 -0.17925104 -1.7105234 0.14865124 -0.8370404 0.7392469 -2.352553 -2.5065238 2.9392538 1.7193546 -1.1356614 0.9293411 -2.8233783 -0.15566283 1.3259858 2.5599115 -0.5075481 3.2861714 -0.83032477 -0.9610447 -1.0344948 3.0535855 -0.018997064 2.2712157 -0.8762645 -0.2646926 -1.3695856 -0.18965341 1.4192884 0.15123941 1.8056476 -1.7983236 0.532846 1.4612377 -1.4359463 1.4013443 2.3990798 -2.1790228 0.34051207 -0.0679955 1.9753516 3.3141534 1.0678254 -2.0505834 -0.93418497 -0.713768 3.0429883 -4.0918393 -2.0404131 -0.19144799 2.6603353 -1.7076808 0.8278879 0.82524735 0.26499766 -0.7879182 -0.5004444 1.7055465 2.670309 0.54638004 1.1579664 1.5464504 0.61979127 0.117769 -2.0888555 0.38421065 1.9362911 0.6773147 -0.31536126 -1.8257837 -1.790649 -1.0605651 2.5807471 2.5763032 -1.1784588 1.4598267 1.459053 -2.2887714 1.3289748 0.41035476 1.9935002 -1.2080047 0.34989673 -0.15019648 -1.8269317 -0.15434994 -1.0970874 1.5145514 1.4284576 -1.7547718 -0.1543216 1.011111 0.8278831 0.45395792 -0.09813706
1067 -1.9921069 -0.2981824 1.32819 -2.1989477 0.05976183 1.3971297 -1.1725533 -4.5047326 0.019404797 -0.9257966 -0.8916745 0.3331422 -0.2980655 1.1193464 -0.71245897 1.4192604 -0.14423303 -0.6751828 1.0008056 0.56325024 -1.510387 -1.391211 -1.6517729 0.55300957 0.6087665 -0.35844573 -0.88211393 0.42386633 0.86319613 -0.3154025 -2.7667394 -2.633053 -0.116223544 -1.1281009 1.2924186 1.1095498 -0.2135409 -0.24644056 2.007447 -1.4291854 -2.0715182 1.8435432 1.228537 -1.1451398 1.5695684 -3.44369 -0.33446676 0.6192497 1.5754125 -2.3020158 4.315137 -0.11149712 -1.0552421 0.20607087 2.5207546 1.1629736 2.6705172 0.5152623 -0.34483364 -1.5307747 -0.31536633 1.43282 -1.3402938 0.78190726 0.005607405 1.1222523 1.2219619 0.7025839 -0.34703135 0.21730474 -2.0656056 2.4327292 -0.7214704 2.8872402 0.9959231 0.36657077 -3.2664983 1.7210463 0.9395565 1.1801761 -2.1129012 0.09997125 -1.4462082 0.65281427 -0.43394357 1.6250019 0.43482947 -1.7620442 -0.24003246 -0.3690064 -1.3567414 0.74242735 -0.0962866 -0.20762928 2.3468895 0.24471743 1.309364 -3.0524287 -2.1025913 0.18435268 0.65743804 0.4757665 -0.31285352 1.6574546 -1.5894791 2.2146053 0.121353775 -2.587921 -0.021737961 1.5890647 -3.298157 1.1289883 0.6870846 1.5557127 -3.064958 -0.39642197 -2.3838162 0.60951465 -0.7524343 0.9881235 1.4932203 3.6225796 -2.5679173 -1.3279414 0.008944246 0.22528006 1.760964 -0.7842212
1038 -0.42587677 -0.39264324 2.8060305 -1.4939733 -0.124833405 -1.1540372 0.96797276 -2.802644 0.7543697 0.7241834 -1.2645152 0.452713 0.6648893 0.77191603 0.20466404 0.57402 1.59397 1.1998601 0.21706307 -1.0968926 -2.5137668 0.91969234 -0.014394919 1.4478124 0.70552033 -0.0350985 2.5709348 1.3791075 0.8437902 0.8792429 -2.321621 -2.1029537 -0.14926402 2.9975388 1.3830508 0.7533106 0.3339566 0.74679065 2.0022204 -0.47104123 -1.1766903 2.699994 1.6298724 -2.5283873 0.9063051 -1.9911128 0.7881688 0.88724965 0.8635949 -1.1115129 3.1237676 -0.6344813 -1.1188266 -0.13331269 2.5076344 -0.39173508 1.5090214 -0.5519304 0.53644454 0.20921741 -0.21463947 0.34415057 -2.0648572 1.5509907 0.2590435 0.83587635 -0.8553049 -1.2402272 2.0463092 0.86041105 -1.3709311 0.72537935 -0.02827728 0.6669394 1.8570234 1.2232678 -1.2394491 1.2711298 1.9224131 4.042467 -2.4052095 -1.8740507 -1.0925211 3.0428822 -0.31811622 0.18979149 -1.0366094 1.3983994 -2.224434 0.4450875 -0.17841841 1.5810388 -0.38110942 -0.86871797 -1.4151503 1.0388322 0.0069800233 -2.3792439 -2.0312219 1.3591062 -0.61937547 -1.2856154 -1.8820515 -0.71490866 0.03548094 -0.34766564 1.6277847 -2.0118032 -2.1913555 1.5495092 -3.6431587 0.32800096 -1.0679673 0.009029944 -1.8246348 -0.06882733 -0.6733273 -0.5153977 -0.9331579 -0.9427643 -0.635976 2.8587422 -1.7526231 -0.41293132 -0.0071140067 -1.0497558 1.6731002 -1.6045346
1103 -0.5205359 0.6176563 1.3552961 -1.589487 -1.2202822 -0.31870398 -1.1148449 -2.7545743 0.20764586 0.25887063 -0.8904967 0.4388418 -0.66340864 0.1933017 0.9184784 0.5349825 0.028574834 -0.22397572 2.280218 0.26821482 0.18685319 0.973576 -0.32941765 2.8658836 0.91671836 -1.8288563 1.2717257 0.03859186 -0.6605782 -1.063469 -1.5212703 -2.749759 -0.529591 1.0685971 -0.8825395 1.5029684 -0.45075262 0.74506456 1.5819687 1.1435283 -1.4597877 2.273441 1.639032 -2.013841 -0.7516507 -1.3493137 -0.66297454 0.57022333 0.923036 -0.37417015 0.498759 0.3895392 -1.1362551 0.5406117 2.8526626 -1.5007404 2.121303 0.9296597 1.5462027 -1.3125572 -1.3935702 0.53879017 -1.8720969 1.2417986 -1.2109544 0.552388 -0.15276182 0.36256802 1.9483687 0.46971196 -0.8514968 1.062247 -0.31668425 1.7889063 2.2762337 2.1704903 -1.0728137 -0.59291154 -2.2163622 0.8077662 -0.4937627 -1.2732286 -1.4569101 0.8366732 0.016870484 0.6656279 0.7455667 0.40850747 -2.1001933 -2.2488663 -0.43707344 2.3739085 -0.6052018 0.107093334 -1.6791778 1.9820007 -0.5978715 -2.3965225 -0.90872055 1.3257208 1.0075363 0.2940883 -2.4999402 -0.9627831 0.23200168 1.1860111 -0.05481075 -3.392416 1.7962797 1.4118637 -2.7822561 3.0960517 -1.1365455 2.0711079 -3.3130782 1.1956047 -1.4444457 -0.8097321 -0.31442776 -0.8593829 -0.012794684 0.4284566 -1.0312504 -2.1319988 1.3166275 -0.7919659 1.3449625 -0.7470648
557 -0.6514274 1.4213768 3.620474 -1.6144456 -1.0481814 0.040554475 -2.48593 -0.6787127 0.7787567 0.7333596 -2.0060265 -0.19573912 1.5935125 1.1518967 -2.3559415 1.4350814 -0.80607516 1.5273569 -0.14560063 0.3584816 -0.5686364 1.39372 -0.20631617 0.43653944 0.5062578 -2.2865646 -0.13437395 0.81578386 0.69546634 -2.2231197 -3.0072896 -0.72969466 -2.28994 2.6682472 0.71477544 -1.1500027 -0.118953295 0.12735066 0.8127586 1.6951799 -2.5296235 3.511737 1.4222951 -0.64781034 1.8838843 -2.5329685 0.068393834 0.59022945 0.06451802 -2.224031 2.1903937 -0.121823125 -1.2790321 -0.7178756 0.9723013 -1.1989887 -0.5568923 -2.6474197 0.8963012 -0.75356865 1.6839767 3.4144993 -0.89710414 -0.13928801 0.50591385 2.9178333 -1.5871432 2.4317362 2.9357843 -0.6879643 -1.0822874 1.1337881 1.154677 0.29307428 0.5891293 -0.45150644 0.27467626 1.7008263 1.5436978 2.701071 -0.61260486 -2.6826909 -0.38302714 1.5872868 -0.6966933 -1.7101979 1.2902987 2.5060322 -2.516558 0.15059744 0.041239806 -0.33549288 -1.2590932 -0.6800923 -3.253733 1.3198873 0.57472587 0.13704611 -0.88446915 1.588776 -2.9867191 1.3045799 -1.0352392 -1.5932827 -0.13812429 1.9975656 1.4794637 -0.21739131 -1.2473185 0.14958614 -1.1082112 0.34222353 -0.08474623 1.6300018 -1.3159231 -0.32924226 -0.36188236 -0.99889785 1.3435032 -0.6525469 -0.5900752 2.992282 -2.584854 -0.037137274 0.799162 0.6921209 1.0083266 -1.8823143
1275 -0.72699755 0.0040548686 1.5674632 -0.027263056 1.9134575 -0.2851462 0.25462806 -3.0356467 -0.2230424 0.65851235 0.5581779 0.17252703 -0.76978356 1.452438 1.0686976 -0.87024057 1.5526087 -1.2498783 0.9247963 0.2636862 -1.8476114 0.12961139 -2.3406367 0.73886275 1.2293185 -2.6252713 -0.2099796 1.1720197 -0.53636926 0.44476062 -0.73112935 -1.5562339 -0.44149217 1.0513994 0.5576798 0.41419291 0.087028705 -0.59982216 2.5370388 1.1748066 -2.0167072 2.8235326 -0.40915635 -0.65943384 0.29419866 -3.742364 1.9805895 1.1491096 1.7277222 -1.6989372 1.5895388 0.47155187 0.14436008 0.6620531 0.77477133 -0.06413507 1.0559101 0.7486234 0.78377646 0.7071594 -1.5986106 0.48872685 -0.41509333 -1.6541438 -0.76555216 1.8381022 1.3826432 0.8740702 2.9317951 -0.6091773 -1.0835907 0.54499805 -1.1190239 3.0666566 0.9364201 0.35252526 -1.9753247 -1.1743487 -0.25659215 0.8036915 -1.3253164 -1.1276188 -1.4369667 1.572271 0.11577086 -1.8005139 1.0016701 -0.20105048 -2.6058373 0.31732684 -2.7701988 4.3499513 0.83691376 -0.23949993 -1.2763722 0.37792394 -0.5478784 -0.13609514 -0.16408384 -0.29425412 -0.32122573 -0.02973897 -3.3134665 -0.81165814 -2.6563442 2.1123242 2.1285253 -1.584392 -1.3488984 2.1171098 -3.9083633 1.9662789 0.03205769 4.0899816 -1.4280915 0.3943984 -0.47467825 1.4474306 1.1871367 -0.6145992 0.18388583 -0.5259768 -1.9050573 -1.5053593 1.5320477 -0.037709557 2.0473802 -1.2221532
408 0.42843902 -0.90866405 1.7078651 -0.634301 1.4089551 0.22757839 -0.3555836 -1.9550052 -0.43953764 -1.0572901 0.012602259 1.088359 -1.2103624 1.4114133 1.1697637 -0.9753379 0.53159344 0.28545952 0.25645623 1.4867685 -1.2517385 0.8836324 0.65115595 1.9172758 -1.0838943 -2.4896562 0.42371237 1.4833976 0.88726765 -0.58065355 -2.6921816 -1.4576229 -2.3230698 -0.056218658 -0.52470833 -0.59237117 1.0940377 -0.19282193 1.2064869 -1.2621934 -0.21791708 1.8562642 -1.1032977 -1.5754998 0.29168618 -1.8779465 1.6466529 1.1004139 2.7097492 -2.4446635 3.0016437 0.75607234 -1.1965334 -1.9458846 3.0652826 -1.6876217 2.502196 1.0862775 -1.3933103 -0.4665318 -0.07446767 1.1049602 -1.1096249 1.4093091 -0.2554827 2.0129094 1.8935336 0.20613167 -0.090453595 -0.38927925 -0.8578141 1.3552469 -0.88288474 2.2310624 1.3584188 1.1464821 -2.2807481 0.32362407 1.0785142 2.1888323 -1.5171558 -1.8878334 -2.2562194 2.1581974 -1.0242971 0.7813117 3.2677872 -0.48110712 -1.245366 -1.6221641 -1.9620157 2.033914 0.1953797 -0.7547099 -2.034415 1.0316844 -0.4604527 -0.14345422 0.18215752 0.47154364 0.9558761 -0.82118106 -0.61777085 2.4931355 -2.3622308 1.777368 1.5984025 -1.4936044 0.779977 -0.35726655 -3.8871017 1.1699473 1.2542871 0.92060995 -2.2517319 1.9522213 -0.9060304 -0.33308846 -0.86203283 0.46532765 0.8858681 1.1947707 -2.6563244 -0.8602337 1.8134949 -0.65429854 0.053284835 0.3912221
44 -2.4159606 0.016452199 1.8237705 -1.1115928 1.3839092 -1.3977844 -0.30781808 -3.7911603 0.91829324 0.86462486 -0.17841387 2.1512222 -0.44028854 1.6314144 1.4110854 -1.1118982 1.9580458 -1.1738406 0.7937796 -0.6636091 -1.5902554 0.2240527 -0.7303714 1.327435 1.161435 -2.2205067 0.8422234 -0.5531582 1.1193777 -0.118052945 -2.4226813 -2.0339363 0.5763386 0.79924273 -0.036354717 1.3935655 -0.32719663 0.36461365 1.1318878 -1.5757837 -0.3274758 3.1402202 1.2769432 -2.8445218 1.2526747 -2.5586073 0.6729671 0.06827781 0.6261633 -1.4794664 2.7403495 0.7912706 -0.9501435 -0.6411519 3.6446657 -1.2824683 2.2763233 0.42728826 -0.80307263 -1.2437259 -0.6893551 -0.061077166 -1.9924952 0.05753947 -0.61201596 2.9482934 0.014467431 -0.0630649 2.8175142 -0.26852256 -0.870654 1.6826142 -0.4484075 1.9700632 -0.63701755 0.519941 -0.19842793 -1.1400166 0.55853605 0.8115481 -0.59151304 -1.6556106 -2.7999136 0.41736925 1.6891533 -1.0079082 0.40894672 -0.4035796 -1.6485032 -1.7274007 0.089771084 -0.05342855 0.2085904 -0.5877891 -0.014661148 0.70368856 1.3801473 -2.082331 0.32410398 0.96049225 1.3287293 0.09850494 -0.9489074 -0.40245116 -0.9972994 -0.43271312 0.8569388 -2.4907053 0.41365233 1.1784189 -3.1972756 0.8725145 -1.3370723 2.172724 -3.0913446 1.873427 -0.6316467 -1.513411 0.65737313 -0.56077677 -0.69028527 0.2633413 -0.9191051 -2.0200176 -0.21570072 2.0743334 1.627053 -0.578743
1106 -1.5111333 1.0968201 -0.4988378 -1.9544992 0.06551647 -1.3392259 -0.52586997 -1.5852412 0.49948916 0.7332052 -0.6062606 1.7617466 -0.18607156 1.4721076 0.47571918 -1.1685042 2.1094897 1.7364557 1.2905943 -0.81635165 -0.11193255 -0.42243603 -2.5504959 2.142248 1.6236 -0.97075105 0.66604835 -0.23752159 0.8166877 0.091536626 -0.87995183 -1.741341 -0.5248154 1.4427878 -0.21995345 -1.5571485 -0.025134042 -2.032167 3.1677742 0.39801213 -2.265431 5.757382 0.86061645 -1.0032548 -0.06598871 -2.3295035 -0.3360769 -0.5706243 0.62654513 -0.684467 1.0748453 -0.15897708 -0.4606933 -0.32598895 1.0256737 -1.5968225 1.197339 -0.062260848 0.5709489 -1.4489123 0.7974014 1.3485221 -1.8672184 -0.831315 0.512958 1.8821745 0.17679644 -0.59643567 1.5452372 0.8045031 0.7323526 -1.0382919 -2.0010617 0.83232784 2.6228936 2.0867386 -1.3650069 0.45838523 0.5987519 2.7584848 -2.5971296 -2.2441795 -0.95128137 1.7788032 -0.38902736 -1.6937344 2.6574051 0.6814954 1.2086061 -0.03554646 0.9660458 0.87375414 -0.041575167 -0.20266005 0.98697907 -0.56381744 -1.1578393 0.13649666 -0.5547833 -0.57583857 1.770765 0.19491537 -2.2247276 -0.7755843 -2.1641643 1.1965091 3.9286752 -2.8105283 1.2876804 2.3847992 -1.482338 1.30744 1.5685703 1.3305409 -4.2857394 1.212323 -0.08984696 -0.7777753 -0.03862247 -2.5687857 0.38294786 0.5311362 -2.2495837 0.7097191 0.2687579 -0.4578009 0.47146896 -0.7371558
1105 -1.5096085 0.21957895 0.19233419 -3.3122642 -0.28644556 -2.362525 -0.05574188 -0.07505988 1.5324109 1.1295246 -2.2445447 1.1999172 1.1621103 -0.41551566 -1.3658876 -1.1156586 0.49933937 0.9224432 2.0816467 1.1556993 -1.0458905 1.941275 -3.0320683 0.7912676 0.68838453 -3.3332918 1.6333486 1.0695325 -0.69797415 -1.5215251 -1.2257656 -1.5664107 -1.2506938 1.2451258 0.66920215 1.896856 -0.6855376 0.11586799 2.2401977 -0.1819474 -0.503711 3.3788452 1.4449791 -1.9162664 -0.40951455 -2.1603968 -0.58154577 1.8546385 0.13750635 -0.8711118 -0.16785067 0.1477388 -0.7443698 -0.46455735 3.88059 -0.83637816 0.8876161 -0.68440723 1.2476337 -0.44902644 0.098756425 -0.41973776 0.6884187 1.3791106 -1.0928282 1.458997 2.265058 0.9886614 1.5722753 0.13298634 -1.339919 1.1962554 0.5198123 2.2834656 0.37247804 0.2399876 -2.5461478 2.596499 1.274194 2.9913397 -2.4864502 -1.3980033 -1.092088 0.99866337 0.15464212 -1.9012517 0.57162154 -0.0017012999 -0.490107 -0.7820497 -0.43540138 -0.6329195 -0.21013387 -0.44314367 0.59057045 0.78097075 1.2671355 -0.8540573 -0.12485978 1.0972751 -1.9253002 -0.6313641 -2.2289188 -0.45440513 -0.7723521 -0.15726906 1.6448432 -1.9990792 -0.09440202 1.5766844 -2.7246783 0.6597772 3.1707184 1.9495221 -4.312137 -1.9762576 -0.14340691 0.60608387 0.35383907 -1.8559715 0.2936532 1.6795521 -1.689632 0.25237915 0.027902415 -0.63421696 0.8740594 0.40366298
745 -2.24617 1.6282871 1.4435791 0.58532846 -5.4777308 0.50090367 1.2596426 3.181538 -3.0556257 -1.8410228 1.2008103 -3.3210473 2.547932 -4.515072 -0.7549746 2.9499023 -0.48520926 -1.4350984 -2.356209 0.534511 -3.0314705 1.1966895 3.429998 -1.3587413 -5.947077 0.08839231 -2.532432 2.1698823 2.7348444 -0.03949981 2.3614733 -0.43635634 0.17585474 -1.5681984 -2.125269 -0.2962346 -5.103005 0.20102291 4.356331 -0.77408504 -2.7458773 1.5220964 1.4088575 -2.4913566 -2.054079 1.9070026 -4.684279 -3.1039305 0.73222864 2.4497988 1.4865519 1.091221 -1.115077 0.026701367 0.5700682 1.7225869 1.5848922 0.045177076 1.4339037 0.7958911 2.5314586 3.9179995 -0.7076056 -0.006845952 -0.95689696 1.9479362 0.39903453 1.8760003 -0.6323405 -0.32789046 -2.529765 0.14966299 2.4291391 -0.22743069 1.7424439 0.7653212 0.28041023 2.3315928 -1.9280294 -0.32864884 1.4014106 0.68330395 -3.4870813 -0.5914134 8.167446 2.5209424 -1.839309 1.9345953 -2.182005 -0.49796623 0.67499244 2.5531595 0.6080606 1.8046079 -1.0635499 -5.6342883 1.958005 -0.7316637 -0.4674248 -1.4248127 0.8707181 -0.03187689 -3.2630475 -3.4070733 -0.9390205 -0.098118626 -0.33542842 1.5134505 -2.204441 -2.535316 1.409703 4.264117 -3.231586 -3.3038962 -0.055884838 -3.0085423 1.1887459 -0.97557044 1.3624552 0.35812065 -1.8286239 0.7817048 0.87089145 -0.8115194 4.179093 -0.31094015 -1.5303304 -1.4819179
1118 0.69959944 0.20367603 0.7737929 0.023553435 -0.22450224 -1.9650341 0.06284435 -2.6594393 -0.8738835 0.6135873 -0.1369513 -0.43915284 -0.24403001 0.804748 -0.027025452 -1.5757483 0.6311841 -0.49110532 1.6172888 0.71880794 -1.1286764 -1.4436959 -0.5123121 1.2214671 1.1561215 -2.1448398 1.0497261 0.10969236 0.95770305 0.7353828 -2.491975 -2.0688994 -1.0635412 0.43912953 0.7632738 0.12092386 -0.172503 -2.0985053 2.0490549 0.832534 -1.3630697 2.372499 1.9165186 -1.3421491 0.49465123 -3.4051692 -0.14206658 -0.35983172 -0.43630084 -1.3596891 2.2875953 -1.5222887 -1.4048578 -0.8197008 2.0559316 -1.0051445 2.3896234 0.9961683 0.3719005 -2.7178092 0.13809565 0.8638254 0.1027554 0.38013193 -0.6178707 1.6115844 0.7987812 -0.36253348 3.3757892 -0.088446364 -0.081284426 0.57845986 0.7541766 2.0946934 1.3396349 0.88442266 -1.1086295 1.4667009 -1.6667424 2.148315 0.1343466 -1.2167169 -2.3967867 1.7252333 -0.6922726 0.7666328 2.3592665 0.8197072 -1.2986773 -1.1643776 -1.5365113 1.7443134 -0.23190801 -1.1679672 -1.6588126 2.057802 0.007447997 -1.8680905 -1.1627984 2.365744 0.77230555 0.6967176 -1.9999579 -1.1710294 -0.24918619 0.6115184 0.34545082 -2.4261506 1.7927897 1.3358557 -3.7788692 -0.0059132986 -0.51302963 0.74000347 -2.6841533 1.967561 1.6061401 -0.34206668 -0.12139947 0.7460106 -0.5489657 0.84084505 -1.7642862 -2.5360637 -0.5827823 -1.3184688 1.8588792 -0.72177935
1097 -1.901135 -0.4208003 -0.11890711 -1.2250037 0.697789 0.21296833 -0.74455976 -2.9061801 2.6929054 -0.100999475 0.30092767 0.27642843 -2.687788 1.3285491 -1.6020763 -1.0826638 1.4179678 1.0863501 0.3617706 -1.6131363 -1.2539749 -0.8750848 0.415741 0.014915776 0.25601134 -0.23373318 1.8213722 1.812719 1.4654521 -2.81975 -1.5723441 -2.82326 0.09842667 2.5177555 1.561902 -0.522188 1.3518914 -0.022549378 2.1036108 1.3348274 -2.5344882 2.80323 1.9478996 -1.329948 1.084135 -1.9744309 -1.3339417 -0.82362074 3.010433 0.34225586 1.6154882 -0.65066487 -0.4710808 1.2611476 1.9151903 -1.7828727 2.2283852 1.0388159 -0.8095083 -0.66650355 -0.20589808 0.05955609 -0.19867118 1.887474 0.8533975 1.0542369 0.006617075 0.101574466 0.99579537 0.24600567 -1.3121203 1.7930591 -1.6755564 1.4051613 1.3076171 0.7446098 0.3233059 -0.545429 -0.8805212 2.6227775 -1.8013942 -1.9325562 -4.9729767 2.4677684 0.9027833 1.3913276 1.1676967 -1.3703201 -0.9850183 0.096778534 -0.08069504 0.8941437 -0.48527727 -0.29620162 1.830026 1.6972635 1.2203468 -1.1577102 -0.6220324 0.69614136 -0.19565187 2.3095844 -1.8532283 -0.9830171 -1.7126957 1.3774989 3.641202 -2.0005202 0.60282964 3.483331 -2.591123 0.97157943 1.1125236 2.6429703 -1.0025598 1.1085654 -2.2167358 -1.5137719 0.51331335 0.44955096 -1.0934644 1.0379878 -0.727581 -1.9128361 1.9514953 -0.30351827 1.7546194 -1.4090337
647 -1.5996312 0.7468213 -2.2774668 -0.55739194 -2.658293 -2.8793807 1.4290063 -2.1931992 2.3423004 -1.0315043 0.2027992 -1.176428 2.3031166 1.603336 -0.66320986 0.030172676 -1.1914086 -1.5034039 1.2634326 -0.29747528 -4.7501516 -0.6428423 1.020305 -1.497564 -3.367024 -3.7904377 0.7819731 0.23299526 0.7580969 -1.8014586 -1.0090126 -3.4354618 1.2311245 3.1519036 -0.5623028 0.0009180863 0.34165725 -2.5372357 -0.5638473 2.2335727 0.110895395 2.2089005 0.22319458 -1.6691539 -1.1927427 -0.97583085 1.1531657 -0.36344326 0.44463482 -1.4368695 2.4891644 3.0954518 -2.4522684 0.57879555 3.3631935 -0.87614393 -0.60846496 -0.9487434 0.85108495 -0.109094165 -0.23237959 0.5304379 -2.557299 1.3583064 0.3347419 3.9592526 2.028328 2.9541636 0.9328914 0.23895928 -3.2354243 -0.019352375 3.4105234 3.2192674 -1.4378405 -0.7892349 0.60083514 -0.58019316 0.6756643 0.55001235 -1.2416383 -0.2796273 -3.6590636 1.8135929 2.0271215 0.34507996 -0.18096258 -0.22221054 -2.2227426 -0.8380838 -0.09218372 3.2055886 0.29053435 2.2680929 -0.084048726 -1.4271878 2.0800135 -1.0539417 -2.6359904 1.5901387 2.8367176 2.0186448 0.14895636 -0.17383046 -1.526066 1.3272946 1.3612785 2.0546634 -0.21910498 0.20647337 -2.870183 1.5310583 -1.8636351 0.8531179 -3.2274668 -0.7188397 -0.85277015 0.35253024 2.2391336 0.23987548 -0.8764209 1.3945884 -1.2811807 0.028929284 1.469302 0.3844374 0.10358405 -2.8342054
937 -1.280345 1.2534887 1.7112954 -3.0100572 0.545624 -1.2568555 0.25170878 -2.849665 2.2085826 0.605592 1.8890644 -0.41773856 0.5309354 2.0798066 0.13614519 -0.93739545 2.1899374 -0.27252463 0.30327696 1.7999216 0.5562889 -0.81221163 -1.2205843 0.028367281 0.68720853 -3.0789704 0.3528285 -0.050635286 1.0707451 -0.73059464 -2.1525493 -1.1851981 -0.20105045 1.1607767 -0.60960436 -0.02912171 1.1302465 -0.16765313 0.4724462 -0.18721099 -1.6021117 3.726901 1.9344732 -1.755576 -1.1804454 -0.09353524 2.592704 0.7150704 1.3733065 -1.4763263 2.1382 0.5037424 -0.2973901 -0.9844372 1.596068 -0.36970884 0.3964311 -0.4919062 -1.1910105 -2.4940012 -0.93500525 -0.18688032 -1.7448789 -0.6376262 -0.4398196 0.22354278 0.39305192 0.7715497 2.8802803 0.22775118 -3.16601 0.26587158 0.95495623 2.8402514 -0.7104476 0.8564384 -0.4220948 1.721022 0.6292812 1.7207191 -1.4677808 -0.69090444 -2.8647382 0.26915073 0.38558036 -0.3815796 -0.33834365 0.9387021 -1.1940024 -1.2555715 0.044366296 1.2131897 -0.45910722 0.65517575 -0.9589619 0.025261162 1.8560501 -1.8950717 -3.0776494 1.8359922 -0.241069 -0.13579106 -1.0058099 -0.08788058 -0.7186465 -0.010264755 2.8314812 -1.7673576 1.3546942 1.6464539 -2.6531212 2.0757906 -0.023139227 1.876849 -1.9300486 -1.0828573 -1.0943513 0.054813273 -0.12784335 -0.647519 0.3155904 -1.062125 -1.5258121 -0.6151342 0.9992801 0.56499076 2.0335193 -1.5129322
1094 -1.0198865 1.8651111 0.63989145 -3.653319 -0.7632784 -0.87996906 0.16016525 -3.6037583 0.31161857 -0.8783403 -0.621032 0.652037 0.46502876 2.592647 0.4797222 -2.695047 1.5131444 1.4598526 1.6311561 -1.0628481 -1.1063327 0.3342345 -2.7423654 0.8476451 0.59275013 -2.5539348 0.38146827 0.42188993 0.633631 -0.80999047 -2.4600036 -0.90771705 -1.2827227 2.4971328 0.44921127 0.82674915 0.033837542 1.0600681 0.9614056 1.6060212 -1.3329312 1.9618261 -1.1756763 -1.5734972 -0.09448532 -2.9334023 0.7242484 -0.550004 0.72638303 -0.80214965 0.6872214 -0.19495337 -1.0246261 0.37661758 1.2299707 -1.5896173 1.555094 0.7969252 1.6672891 -2.5957723 -0.44029126 1.5104046 -1.0218202 1.0761937 -0.8719966 0.53501886 0.13575779 -1.3554786 2.7736037 -1.0665747 -1.0228599 1.1433786 -0.51607597 0.19853705 1.9266778 0.6278599 -1.1019819 1.3199366 -1.0380157 3.2465394 0.28671196 -0.8085271 -1.5941246 1.9605289 0.48473486 1.5801651 -0.62197614 -0.8757325 -2.061771 -0.0137090655 1.0457217 3.6896884 -0.5016808 -2.4201345 -0.3681082 0.95059496 -0.019306388 -1.1877972 0.04147286 0.85551035 1.1384946 -0.34555468 -1.7365469 -0.27634752 -1.8785504 0.69065857 -0.06091255 -1.9526867 0.8057573 -0.2195361 -2.7504914 1.2979591 -0.24401513 1.4979888 -2.0575814 1.4491824 -1.2214435 0.4007928 0.81347823 -1.7028627 -1.0809615 1.4761732 0.0020709238 -2.3483994 1.0604635 -1.0795052 0.46943676 -0.59451723
71 -2.6861722 1.7589757 0.76512355 -1.523728 -0.08732185 1.5415992 -0.53779197 -0.9418509 -0.09581851 1.7250772 -3.1165607 -0.029298345 -0.5533631 -0.6609445 0.43655255 -0.24878305 -0.40574846 0.6928535 -1.3462569 0.72695005 -1.8643211 -0.073511966 0.32277787 2.1398864 3.6237767 -1.8507929 0.86074305 -1.8378706 0.30155745 -1.5724667 -2.344076 -1.288971 -2.493596 0.9879428 0.0071786745 1.5669188 0.97189325 -0.88867563 1.363692 0.8179506 0.8374587 3.1562295 -0.2932935 -0.71838295 2.0798569 -0.76745164 -0.162285 0.4762016 1.2815253 -0.61045146 3.268634 -0.74320155 -0.046060566 0.10330674 0.7352167 -0.47020617 2.0067642 -0.22919413 -0.7567629 -0.6386813 0.50577 1.9826864 0.31985766 0.41442013 0.14033927 2.3978014 0.11897607 0.58558005 1.787271 -0.5898326 -1.3244228 0.019128133 1.7532074 2.6203442 0.72328776 2.315061 -1.5166596 1.1089865 0.616736 1.7804941 -1.3407773 -0.87888575 -1.6912574 1.9220918 0.36963797 0.7577141 0.21270084 -1.7970287 -2.1489844 -1.8550528 -0.13053264 2.151082 0.44019902 -1.5667288 -1.1443769 1.3206052 -0.70981956 -0.1814267 2.1804006 2.6943984 -0.8596822 1.79856 0.30693948 -1.2552657 -0.61772645 2.8527038 2.4170399 -0.3123559 -0.09700864 2.4253416 -2.2286296 0.4168483 -0.91920996 0.635582 -3.748429 1.6422466 -1.8652064 -0.47068492 -1.4727565 0.42104745 0.622595 2.1109824 -1.9745364 -0.8781548 0.59403557 -2.3617644 1.947257 -0.16240591
54 -1.4610298 -0.54500115 1.12776 -2.2314966 -0.11317634 -1.0589004 -0.6681908 -3.225011 1.2090511 1.440357 -0.28019935 -1.3310599 -1.163375 -0.113815345 -1.1440073 -0.40308824 0.8291504 0.42956597 1.8987108 -1.008472 -2.2942915 0.6368822 -0.9162765 2.2738876 0.7422782 -0.2449742 1.4883761 -1.8070395 -0.9127482 -1.0904694 -2.3438165 -2.1981027 -0.4214515 0.4002946 -2.1422582 -0.9460212 -0.28177574 0.805348 -0.32005337 1.7936901 -1.2779503 2.8924813 0.97005814 0.83660334 0.24730974 -2.4356627 1.1646053 -0.06129525 2.6038427 1.0887403 2.2161593 -1.575248 -1.9664241 -0.012654964 2.7611182 -1.6190873 4.226587 0.012645401 -0.9648684 1.1900736 0.9965231 0.3943861 -1.2094012 -0.67269874 0.37217912 1.087125 0.89293957 -0.30570102 0.7228343 -0.008085241 0.30573535 0.6786969 1.1002482 1.931474 0.9125445 1.9100355 -1.4092344 2.7733052 -0.025481578 0.883066 -3.8760567 -1.0665432 -2.3888016 3.2076497 0.1810835 -0.9729811 0.6669792 -0.50511265 -0.09130935 -1.6778457 0.82786125 1.1151676 -2.807038 -0.6234254 -1.753298 2.0701542 -0.8445197 -2.371575 -0.044738736 0.083643906 -0.6089032 -0.017674878 -1.6231633 -0.02998645 -0.9151698 0.23170306 1.9367865 -1.7146118 -0.3490365 0.7692959 -3.7662702 1.4805886 1.3468714 2.8541148 -1.4522274 0.6972648 -1.9759235 0.6257513 -0.92782104 1.8778548 -0.24396387 2.0272622 -1.8860638 -1.5888153 2.419366 0.046663877 2.0608523 -2.3231568
1110 -1.2572507 -0.99798435 -1.481948 -1.7108607 -2.006878 -2.0701106 1.1920911 -2.027863 -1.521034 -0.09087758 1.4071846 -1.977893 -0.17265055 -0.6274266 -1.1531712 -0.7112808 3.2734485 0.1060757 -0.5763756 0.11667966 -3.5911326 0.34695047 2.080429 0.97460604 -2.4730864 -1.8837149 -2.5960712 0.8308832 0.2811145 2.597859 -1.1179323 -1.7099137 -0.22880551 -1.751271 3.0584302 -0.9101932 -2.338329 -0.0004268857 3.5587077 -3.212291 -2.6469026 2.5135102 2.8739119 -2.0206118 -2.502521 0.8245443 0.66958374 -0.12723704 1.6376071 0.4149774 1.8067272 0.7907224 0.9816268 -0.0035427005 1.9978446 3.250127 0.6995767 1.1507074 0.5416822 -2.0005357 1.2402753 2.0104496 -3.12861 -0.45687008 -1.1452804 4.80135 0.4696477 1.9642999 1.0969757 1.9649531 -0.48040757 0.7439173 2.83286 0.8819021 1.7282052 1.8730236 -1.8280584 1.5250093 -1.0982493 1.6460991 -2.0119948 -0.42477223 -2.356328 1.4058772 3.0819926 0.9829896 0.008886036 -0.3438193 0.95462716 1.6388485 -0.7015021 4.5986304 3.0964856 2.5048108 -0.61489946 -0.19454452 1.2018434 1.3387896 -3.2062113 0.3607475 0.80574507 1.4564928 -5.547067 -1.8614178 -2.1853278 3.088248 1.5074345 0.49319553 1.0696836 3.5000246 -2.9261324 0.94076735 -0.6485664 1.4590392 -0.67283136 -1.1166219 1.4797988 -1.8642678 2.274971 1.0793049 0.45297423 1.0583098 0.38062245 -1.7059671 1.5089529 -1.0103439 0.29532987 -1.9068137
64 0.45791373 0.16163546 0.4960376 -1.7243884 -0.17451528 0.054737996 -0.79964644 -2.782485 0.07955427 0.090946466 -4.2000017 -0.3948058 -0.8632312 0.62596 1.7441274 -0.84602696 -1.57266 -0.84127784 -0.84514177 1.2755221 -4.0981965 -0.40638626 -0.4537661 1.8274804 0.3842221 -0.88040745 -0.49070457 -2.1278162 -0.88770473 -0.879655 -1.367253 -2.2650313 -0.9386727 0.40702483 0.44112918 0.802588 0.34277588 0.15324129 1.7170242 -0.7123403 2.2026083 1.1747085 1.2717422 -2.162772 -1.0750977 -1.8634964 1.1958957 1.0611894 0.4095811 -0.9092676 1.443024 3.28248 -1.0610067 -2.2450526 3.3297892 0.7526938 -0.6951317 -0.18300717 -0.6107543 -3.0676289 0.7944569 1.9183921 -2.397809 1.4957622 0.66097003 1.8890007 -3.5607643 -1.5334934 0.90140086 1.1229196 -2.5207074 2.2296207 1.5402547 2.4192557 1.6087815 2.395878 -3.0161722 0.7093317 0.68445605 1.285101 -0.7341844 -0.080934584 -0.06017547 3.2557292 -2.003056 -1.7917746 0.32647932 -0.093962245 -2.5532782 0.45532668 1.6078153 0.8758839 0.29307428 -1.018629 -0.35847312 1.1862725 0.2728069 -0.7016088 0.053169217 0.20310532 -2.5889063 -0.34740108 0.055050705 1.2093897 -0.6966879 0.080010146 2.4777687 -2.8020809 0.29794922 1.7136631 -2.5073235 -2.0745108 3.2717128 0.82716256 -3.9108558 2.4474757 1.1788752 -1.5558628 -0.32751784 0.33960807 0.0743156 2.4059298 -1.9738375 -0.80151784 1.609509 -0.38363478 -0.89318025 0.088964365
1293 -3.098835 -0.45564717 0.24228525 -4.239073 0.2162278 -1.6228834 -0.7955063 -1.87999 1.051742 0.835221 -0.8876685 -1.1322043 0.83369434 1.2400383 0.24868065 -0.19563368 0.8743555 0.35064548 0.4622353 0.3690304 0.18513186 0.054030225 -2.2668345 1.0662112 0.6364977 -3.0723608 -0.3966008 0.18881926 -0.2781677 -0.75962335 0.081876405 -3.2389915 -2.715189 1.0062292 1.5060383 1.9825764 -0.675984 0.65976465 0.6156927 1.4801319 -2.3296113 4.483231 -0.31087136 -1.6754926 0.24575323 -2.3916018 -0.48849702 0.9488478 0.17058219 -1.4721943 1.3961251 0.6788302 -1.1585292 -0.5930014 1.264229 1.4118547 1.0827532 0.35909608 0.738793 -1.4756279 0.8644565 0.006882419 -1.5397611 -0.85522676 -1.9497664 1.0339285 1.0279614 0.7006098 1.1324804 0.66034317 -1.1346015 0.12323014 -0.57317144 2.794088 0.6201884 0.7824041 -0.48034507 1.7508512 -0.09253615 1.2925812 -2.4876883 -1.9003053 -2.745082 2.0132127 0.60743374 0.59618664 0.5812929 1.2682666 -0.27654383 -1.2787899 -0.5302236 0.3544103 -0.19276294 0.077422336 -0.6086631 -0.83031213 -0.28754538 -1.3258994 -0.3871448 1.1026299 -1.3096545 -0.260965 -1.928507 -0.3283571 0.15733466 1.7150784 0.40918103 -1.0806655 -0.087801665 0.30390945 -2.280687 -0.66693056 1.2216686 1.2358276 -2.3799417 -0.15802234 -0.22481707 3.5751433 0.285662 -1.0470409 -0.7803089 1.6682254 -0.76571894 0.29225022 0.008359401 -0.9376354 -0.9961297 -2.0602844
550 -2.3929653 1.7890036 -0.47407255 -2.3771732 1.4414686 -0.046996854 -1.7924815 0.13308017 -0.86048365 0.31083715 -0.7824142 1.2424786 -2.3472533 0.36595815 -0.35060856 2.3712018 1.4469385 1.4682797 -0.42642695 0.40308723 -1.3942653 -1.4041651 1.6866366 1.0039569 1.541671 -0.9637678 0.6751696 -0.6562782 0.11847464 -2.9014444 -1.8034261 -2.7551074 -2.8295815 1.9921674 0.8916517 2.020126 -1.3171189 0.048541076 0.777208 -1.1735723 -2.4914489 1.4881731 0.38945433 -2.815581 1.8994383 -2.0846326 0.1437436 2.532315 1.1255598 -0.58888423 -0.20168132 1.921888 0.043626823 1.2202864 3.251087 -0.03230211 0.7631422 -2.5476778 2.417603 -2.6271787 -1.0029898 4.2515993 2.057521 -0.543462 -0.49374592 1.4579611 0.6043389 2.3856742 1.7689712 1.905575 -1.9479146 -1.0320129 -0.8304848 1.7551644 -3.0611465 -0.64752454 -1.8117219 -0.99830735 0.5086136 -0.8498866 -2.5906997 0.15850306 -0.10322302 2.9559696 1.4845573 -0.07676702 0.82884115 1.3494043 -1.7087861 -1.5963315 -1.5470904 0.51391304 0.2777637 -0.9888198 -3.1402545 -0.4773125 -0.21557559 -1.7151152 -1.8308017 3.7597303 -2.7795625 -0.26430917 -0.6715045 -0.8292131 -0.67452025 -0.7779774 2.1072547 -0.8961939 1.0971011 1.6107504 -2.7237515 1.6948576 1.100065 0.9383107 -1.8535659 1.3922441 -2.367736 -2.0714862 -1.2208487 -1.8200413 -0.06372647 0.9418848 0.96353155 1.4532379 4.7428527 -1.2616965 1.3246461 1.4758315
730 -0.7573123 -1.4274654 1.3760469 -1.0621071 1.2521278 -0.7170825 -0.97713196 -2.4356987 -0.12973599 0.4448784 -2.2665696 1.0367384 -2.0391874 2.3217494 0.009558321 -0.5680797 0.38965297 -1.8930084 0.62979496 -0.3324701 -2.2075677 -2.2146869 -1.9302018 2.067921 0.73753136 -2.6042023 1.3333308 0.8420551 0.21672076 -0.33960533 -2.7077606 -1.5751128 0.17994198 1.4252677 -0.79343635 0.56490844 1.419131 2.0929964 1.5956986 0.5634031 -1.6608032 3.9539032 2.9671412 -0.14921455 -0.5356872 -1.2260972 1.236936 -1.0187413 2.3717282 -2.1337502 2.6398146 -1.3924123 -1.2098337 -0.038899086 1.8748084 -1.4465723 2.7243028 0.8605372 0.42332327 -1.3370469 -0.25708702 0.20539142 -2.0395634 1.0608337 -0.450508 0.94804466 1.2492586 -0.14006774 0.2615924 1.7508413 -1.3780848 -0.5725906 -0.50886667 2.836062 2.8685045 0.9820281 -1.7234483 0.20724708 -0.3298012 1.7893138 -2.2073915 -1.6782706 -2.4709935 3.4865258 -1.3135846 0.51915777 -1.0810654 1.1151917 -1.3476751 -1.0775691 0.4988864 3.2185166 -0.31653175 0.17970333 -0.87021637 0.7204097 -0.36485875 0.96008414 0.28102607 1.1272126 -1.3637416 1.8204404 -1.8644096 1.3244542 -0.9376927 0.6877687 2.0456553 -1.0669715 0.2761473 0.6183696 -2.3003943 -0.52235675 -0.53882104 1.6378485 -2.5904958 0.012066972 -0.29839405 -0.6520084 -0.4834839 -1.5007516 0.54171944 -0.45770735 -1.0359409 -0.6149092 -1.3047886 0.43615878 0.9195794 -0.8810687
1270 -1.30764 -2.1872125 0.42516062 -1.8400452 0.8433017 -2.5022764 1.406205 -2.9386778 -0.9666509 -0.9707678 -1.0030643 1.9863073 0.28748286 -0.5177259 0.6737007 -1.1239787 0.88348365 2.2941508 -1.6403499 -0.039951887 -0.764468 -1.9201623 -1.885711 3.8889103 1.0051659 -3.2657328 -1.1627316 0.15881726 0.80823183 0.513507 -1.4748207 -1.9769948 -0.41392455 -0.30642503 -0.5260297 0.16659488 -0.3003207 0.6339857 0.724685 0.5191519 -3.3331153 2.4813087 1.9848719 -1.4591929 -0.10468318 -1.4965017 0.015640687 1.10916 0.7897472 -1.9181758 1.7078999 0.72695845 -1.40225 0.0236815 1.8238541 -0.45202032 -0.36010817 0.07633874 2.5512972 -0.8014247 -0.9423958 1.5550121 -2.562024 -0.03619932 -1.1833749 1.6871794 -1.5688338 -0.8905139 1.5699248 0.27523923 -1.3772085 -0.00021248251 -0.17159061 -0.76067674 -1.6842742 -0.2421526 -1.7290516 3.4568708 -1.8629787 1.281649 -1.3695395 -1.8295996 -1.957342 1.5207231 1.2382452 -0.48682228 1.9254532 1.3561789 -0.6353298 -0.0065537295 -0.9641842 2.573464 -0.2505092 -0.03677146 -1.4072045 1.002937 0.2298642 -0.9018832 -0.9725275 -0.122333825 2.0391061 -0.9184338 -2.273847 -0.6172874 -1.6988239 2.707276 0.88198453 -0.41355866 2.0992987 1.0948275 -3.1775038 3.0719821 2.0245502 -0.17486972 -2.1188438 -0.23426099 -1.2774179 1.0577033 1.8804353 -1.0597509 -1.2020326 0.3051356 -2.2759933 -0.22655712 0.2296748 -1.2192184 0.65434605 -0.31419086
1298 0.6063372 0.55745625 2.4043255 -2.962123 1.3800305 -0.9374674 -2.0665853 -2.1582446 1.4115932 0.0327312 0.006549715 3.4889278 0.5133713 -0.505885 0.77480793 -1.3602651 2.1607914 2.5103652 -1.6894746 -0.5204228 -1.6858199 -0.60724175 -2.213529 2.0026703 -0.49676386 -2.3299809 -0.6838456 0.34368232 0.42248556 -0.34548584 -2.0959232 -1.1473887 -1.8388702 0.67128986 0.41657606 1.5390794 1.4779462 1.2247436 -1.455032 0.83502126 0.1340907 2.586232 2.0544841 -1.5371643 1.5240766 -2.098465 1.5687022 0.7315832 1.0362624 -0.043985307 -0.29701883 0.42087355 -0.09942204 -1.0874631 2.5734901 -0.09654715 2.7004786 -0.68735486 1.4036592 -1.1662953 0.07343252 -0.49182695 -1.1024343 0.35630882 -1.7238957 0.22336778 0.2678397 1.0293715 1.3419416 -1.2368543 -0.78603476 0.15655465 0.845381 0.80075043 -0.049428325 -0.1144726 -0.3025406 1.9042858 1.9563043 0.16891645 -0.47303027 -3.0056877 -1.3420653 1.4945608 0.53923607 0.33966932 -0.47650144 1.3831577 -1.809697 0.1922644 -0.21362664 2.1091094 -0.27760708 -0.89283055 -0.022086477 0.6795475 -1.3803484 -0.5330938 -3.272769 1.069363 -0.13155977 1.1215289 -1.1281463 0.64165455 -2.013983 -0.30498272 0.9448184 -1.9039575 0.43853205 2.0867443 -2.6278896 1.8030051 1.8783548 2.0841045 -2.9529116 -0.9899249 -0.52025855 0.5238979 0.61576194 -1.2816452 0.3912794 1.369425 -4.155928 -1.5955561 0.6518702 0.33223775 0.6014459 -0.13592128
653 -3.0173974 0.56976086 1.5121496 -2.0108457 0.83583194 -2.286735 0.00909148 -1.7497463 2.747634 2.4858077 -1.0185196 -0.59807223 -1.409308 0.1569913 -0.09059931 -1.3559252 2.3285499 1.319486 -0.91990316 -1.9027609 -3.2518425 -1.0097334 -1.3128455 2.6178737 1.0452256 -2.955748 -0.055722944 -0.5877183 1.7847006 -0.9052778 -1.9036491 0.03482581 -2.4471898 0.8842203 1.5105933 -1.0190051 0.22419965 0.98113304 0.7155201 0.2917655 -0.5940102 3.0924406 0.18326728 -2.6094406 1.6936065 -2.472408 1.6928889 0.88749456 -0.588069 -0.26719043 -0.978706 -0.43729284 -1.2899095 1.8566985 2.0815275 1.8190868 2.2490351 -0.8702186 1.1969365 0.06905267 -2.1738617 1.441121 -0.9039178 -0.18194573 -1.5080935 0.11085856 1.0736313 2.3910005 1.0902392 -0.26387846 -0.85993487 -0.27123725 0.16041715 0.81093645 3.3916523 -0.45482546 -0.38104424 1.6771562 -0.9158855 -0.95802 -1.7696377 -1.0522399 0.1584364 1.1410204 -0.11604522 0.06646996 0.9679121 1.5928804 -0.8932057 0.6709714 -1.0593677 1.8613158 0.61176586 0.9247247 -0.96992916 2.1257317 0.6890379 -0.33034495 -2.8929532 2.7109861 -0.5022292 0.50287825 -0.6876188 -0.6173222 -1.3123837 2.3851628 3.8942275 -1.5654742 0.04316026 1.3978859 -3.3970683 0.70074326 0.9249342 1.4437001 -3.35211 -2.1460247 0.5617841 0.17548813 1.7244747 -1.6070639 0.56604636 0.1680707 -1.1225429 -0.9559659 1.5951364 -0.025232904 0.51154804 -1.2837882
548 -2.1362324 1.0418782 0.5034336 -1.9801342 0.8793834 -1.5051343 1.0930463 -2.1956635 2.8513532 0.39007482 1.0745814 1.2732369 0.039617572 1.0351099 0.78923446 -1.6048611 -0.100994475 -0.14959612 1.2859949 -1.4441788 1.8302642 0.59513205 1.1984291 3.0725617 1.1703495 -3.2608342 1.0729038 0.6165968 -1.5787616 -2.7023225 -1.1317551 -2.2632744 -0.6772205 0.89592093 0.7835061 0.6199296 -1.1035938 -0.3539326 1.6390861 0.19749345 -1.5135261 3.3241603 0.30411357 -0.24322289 0.8073046 -1.6427842 0.90181834 2.686261 0.491996 -0.912751 1.1150358 0.8312539 -0.00029820783 -1.3091346 1.6365696 -0.26104352 2.1649506 2.3230283 -0.060932085 -0.7648756 1.4102226 0.16771889 -2.6224754 -2.1641526 -0.56602687 0.30672517 -0.07672651 0.7413947 0.8644569 -0.008889472 -2.634717 0.3507173 -0.9922173 2.3604271 0.4635337 0.009453044 -0.9663437 0.8290022 1.9595528 1.7481076 -1.745774 -0.9772033 -2.724203 -2.0369172 -0.66390324 -0.42990547 -1.1932088 0.71411604 -0.62058264 -1.617876 -0.27370813 0.56433576 -0.15022902 -1.1507803 -1.7927166 1.6803936 0.9352009 -3.4594386 -0.4542896 0.7573716 -1.8262641 1.81615 -2.2369933 -0.34704554 0.77986455 2.3213222 0.055354476 -1.1573095 1.1811076 0.41608047 -2.382303 1.4457662 1.9054983 1.782462 -3.066507 0.4782925 0.0030195925 -0.9621043 0.2995838 -1.2666013 2.7822604 -0.07760791 -1.970721 -1.5063096 0.20515968 1.6197562 0.73009574 -0.6273474
1262 -1.4423965 -1.6638356 0.6625901 -1.6747706 0.4865904 0.7893356 -1.4199252 -2.7779512 0.88180166 0.2722251 0.2769579 0.29768705 -1.9449958 1.3162813 0.07683507 -2.4469745 1.5496784 -1.793254 -2.1235087 -0.07057566 -0.29561785 0.55294466 -1.0337033 1.9779072 0.13034563 -3.8370786 0.40055096 -0.67245096 0.35338068 -0.7406528 -1.2419325 -2.1931148 -1.2065474 0.9031545 -0.58581597 1.6853198 1.3930181 0.022523912 0.5305351 0.2384638 -2.204759 2.7162101 -0.6108105 0.05764293 -0.06685923 -0.8245904 1.5512855 0.5710735 1.6170467 -1.1410482 -0.14315116 -0.63757974 0.3218732 -2.2621472 0.39796156 -0.4871648 2.2743719 -1.3973305 0.7578525 -1.0202714 0.27722004 0.8030644 -1.6302052 -0.20596391 -2.1366289 1.2940542 -1.200806 -0.47576264 0.7016518 -0.091127254 -1.784667 -0.44795674 0.1618779 1.6379168 0.22057626 0.6026607 -0.5456198 2.4395106 -0.7756641 0.41252398 -2.837396 -0.9665783 -1.7501011 2.9183264 1.0855045 0.3067831 0.587833 0.21576378 -0.99200946 -0.16272959 -0.08358896 0.6531705 -0.15566012 -0.92275137 -1.3727679 1.2061958 0.7474139 -1.0319222 -0.5137795 2.5280147 2.3142107 0.4893164 -1.4815633 -1.0924437 -1.9261274 -0.5464743 1.7133472 -2.2868073 2.2950287 0.9088668 -4.6189156 1.1331266 1.7399356 1.7772831 -2.0754957 0.33281285 -0.88040644 -0.4968256 1.1549723 -0.14363636 -0.6324615 0.7712046 -1.536816 -0.6445476 0.60621995 1.0565488 1.6237755 -1.3086956
1195 -1.8052036 1.6034691 -0.5127409 -2.435958 -1.8935887 -2.03131 -0.5857987 -3.9495862 -0.038648553 0.8777691 1.9867756 1.5579671 1.4360315 0.38331333 0.36121428 0.8327851 0.95085293 0.26893812 -0.3635432 -0.8170911 -0.7699713 -0.22962984 -0.9370076 2.3903742 1.6478453 -3.3461766 -0.85046464 -0.21265736 -1.9893279 1.4732916 1.3455119 -1.2563818 0.35447758 0.96766156 -0.6650488 0.3705385 0.19554704 -1.5933902 -0.3508137 1.6042081 -2.5793955 1.7941229 0.99035275 -1.6963036 0.41571334 -2.0444734 -1.683225 0.9582136 0.4623904 -1.6355062 1.3983282 0.94806063 2.2187545 0.2257583 0.44193977 -0.28619808 1.7868223 0.9361874 0.40503204 -1.4878742 0.6368194 1.2580975 -3.173128 -1.3827485 -0.23683201 -0.46557212 0.3457095 -0.12273891 2.3149655 0.024978481 -2.7409754 0.33837748 -0.51469696 1.8914852 0.44391754 0.2601851 -0.55842966 0.001995528 -0.93542516 3.2134466 -1.4812593 -4.3445854 -2.008282 0.8157364 1.2972178 -1.4738907 1.3195992 -0.77020234 -1.1588051 1.3845092 -3.001277 1.295036 -0.08216918 -1.0970489 -0.5764505 0.4000507 0.09710221 0.17014168 -0.15789536 0.8377801 -0.12881048 0.33771074 -2.0545805 -0.5982442 -2.6530812 1.4326391 1.798762 -0.5941356 -0.8281502 -0.044816915 -3.3765564 2.8062024 1.1516626 3.3292503 -0.7365359 0.95258987 0.1848872 1.3820926 2.472779 -0.036460586 0.15972362 0.0339729 -1.5493015 -1.5008742 0.21032311 -0.21988018 -0.03372782 -1.729099
513 0.73322475 -0.4474366 1.717475 -1.2124693 -1.5296423 -2.3548925 1.9227425 -0.9441366 1.6872495 0.086696155 0.64594364 0.949848 -0.8950529 3.6713064 -2.2274752 3.0268595 1.1982901 0.19610603 1.1104734 2.637366 -2.4774945 -1.0543281 0.6628254 0.44705877 1.0771881 -2.394923 -0.11540496 0.18223968 1.5554649 -1.3862039 -3.9096088 -1.129303 -1.7134899 0.38852385 0.8456368 -1.8105302 -2.1651196 -1.0436871 -1.4340672 -1.8301085 1.5698091 2.339032 -0.7092688 -4.2389207 1.9762341 0.17020807 -0.3709325 0.16466847 3.3837433 -1.4909717 4.6284666 1.4717612 -1.4806967 3.09428 1.8564379 -3.4763138 -1.3381941 -0.6639117 2.6427276 -0.55444723 0.28357187 -0.4923574 2.057796 2.2045238 2.0204024 1.8102382 1.1940849 3.6212773 0.46996918 -1.3390685 -2.8408334 -1.14166 -0.053345 -1.8858757 2.1973538 3.4107533 -1.287833 1.8614845 0.19339146 0.19906108 -3.760327 0.68475175 1.0438837 1.3567758 -1.9813038 0.30021667 0.13702162 -0.78142834 -2.9106317 -2.3266885 -0.49040827 -1.1874815 -1.7629223 -0.6068741 1.497086 0.9084949 1.464688 0.34588093 1.8538924 0.27841574 0.7560614 0.5231241 2.3412201 1.6526393 -5.3059077 0.81100804 2.684357 0.13312066 3.67184 0.8045214 -1.0350177 -1.2511218 -0.9071984 1.4282284 -1.6680309 -1.3637737 -3.992515 -2.3865392 -2.8163369 -1.2280465 -3.2709095 5.5716214 1.770322 0.30385754 0.49039367 -4.909142 0.3029286 -1.8746234
758 0.71990085 0.25955632 2.2551208 0.3037166 -0.69644827 -0.30546895 -0.84546375 -2.587696 1.0058433 0.70049876 -3.596486 -1.7036803 -0.66179824 2.5099483 1.6751896 0.3893331 -0.046657745 -1.2381096 -1.2518437 0.085550204 -0.6809508 1.7909238 0.5862423 1.2767053 -0.7815851 -3.489003 -0.9538867 2.357979 0.24649172 -0.3703148 -2.3111768 -2.1648114 0.6976985 -0.99690056 1.6674052 1.1857834 1.0178599 -0.8567533 0.7635132 0.71955866 0.6396028 1.2418926 -0.0596271 -2.121646 2.5420303 -1.1245676 1.7694476 0.87327874 -1.0421736 -1.8623494 1.6285017 0.24511927 0.5015818 -0.49399972 1.0515194 1.1118304 1.255471 1.0505388 0.62202024 -3.7762985 2.442534 -0.38476795 -1.3079934 -2.586492 -2.5838819 2.11344 1.2435567 3.0210674 0.30767357 -1.6846503 -0.7367553 0.82650083 0.37041613 1.0018499 1.8938563 -0.40184116 -2.0728924 -0.33116043 0.9290064 2.438853 -2.377181 0.3530082 -2.8077576 0.6618284 -0.45409244 -0.84926856 1.8579525 -0.21671493 1.0659786 -3.2158563 0.7736588 3.5654182 1.865088 0.11729574 -1.0466133 -0.7852994 0.6490584 -0.43180496 -0.55087817 0.007134809 -1.8315442 0.14795214 -2.3254645 1.961612 0.38119012 -0.4387286 0.5211364 -1.1067841 -0.37146202 1.1765506 -2.5824015 -2.504239 0.54555106 0.9088796 -3.6560214 -0.91365314 -3.3581972 -1.1542017 1.4519454 0.8880875 2.3686705 3.1060472 -1.5463316 -2.0458007 -0.6041198 -0.4658592 -0.63117516 3.476211
940 -1.0128465 1.2622898 3.448815 -4.3095593 0.1620777 -0.5019312 -0.33077753 -3.9534812 1.32234 -0.18482757 0.21814083 -1.1862282 0.8578462 0.2979285 -0.5439091 -0.83028626 3.0533175 0.42814595 -3.2981849 0.5070792 -3.2407286 1.0714515 -2.3870866 0.85941094 0.43857887 -1.3256257 0.33282104 -0.2950721 0.2492436 0.029226884 -1.1838106 -2.1259427 -0.23441473 0.52344525 0.18046956 -1.1278337 -0.24942236 -0.536392 0.69627744 -2.7783074 -1.3054199 1.2885771 0.80543804 -1.5408278 -1.9551939 -0.16898632 -0.12660421 1.4551398 0.29451886 -1.2286389 -1.5684681 0.19696143 0.0060693137 -0.5479422 2.9311342 -2.198817 0.99916637 -0.027556224 1.2328235 -0.23407592 0.32833573 -1.018564 -0.4060804 -1.0748641 0.9452964 0.5482308 0.22172555 1.1095161 2.1540587 0.5639512 -2.0676904 1.0493687 -0.81452185 -0.123766206 1.5965598 -1.2985947 -0.37918228 1.5693338 1.6736389 1.2542518 -5.2297955 0.033243317 -0.5262391 2.455305 1.8085594 1.1036944 1.0897758 0.34234133 -1.6169485 -0.86792064 -0.25472733 0.545716 0.29372504 0.12394901 -0.033009358 1.284704 -0.62304723 -1.166934 -1.5295533 2.5719886 0.8228986 -0.328786 -2.1064377 0.59883076 -1.7954503 1.5939889 3.4503727 -1.8347037 1.1933849 1.8230108 -1.602384 -0.09259688 -0.121610075 1.4413652 -2.4686089 -0.9444131 -0.63641953 2.6580844 0.036317185 -2.0452476 1.3071433 0.7395151 -1.0557711 0.71823764 -0.99518317 0.31037456 1.4772255 -1.4075247
1112 -2.661976 2.6669247 0.17781727 -1.8316306 0.4514854 -0.39654168 0.045016352 -1.0627519 -0.88785577 1.1211201 -2.8110275 -0.73596495 -0.46983808 0.3055466 1.8306005 -1.4256705 0.6668561 -0.68038315 -0.74976635 0.4731049 -1.0459862 -0.82432497 -0.009122442 1.0730877 0.46323952 -3.0556633 0.36353222 -1.2383995 -0.95011646 -0.17351732 -2.117093 -0.8426279 -2.8161638 2.055288 0.6055323 0.0989877 0.4073731 -0.7348473 1.3053839 0.15601403 -2.1826491 3.0743203 0.9650055 -1.8830816 -0.017892295 -2.7850435 -0.48868385 -1.6300718 0.99616194 -0.47043946 1.833719 -0.98185086 -0.5962934 1.0263827 2.5837145 -0.5967211 1.2189568 -0.24793074 0.51685506 2.3370576 0.6826249 1.5679573 0.66713053 -0.50870067 -0.15237808 -1.0178792 1.6604624 0.4356182 1.3325453 0.48324123 -0.95545506 1.469338 0.48078284 2.27425 1.4138284 1.0109174 -2.394539 -0.2799814 -0.06470125 2.1582255 -2.4283228 -3.1299334 0.45815575 2.503159 -0.27208096 -0.2377915 0.74890417 0.40144524 -2.7054367 -2.1241326 0.29949492 2.15413 -1.350378 1.0725332 -1.5348268 1.0269002 0.09948332 -1.4221883 -0.7599442 1.4829711 -0.8793902 -0.23016168 -1.5318124 1.1117017 -0.6242819 0.97894853 0.8994485 -1.6517441 -0.023527186 0.45014796 -3.189713 1.9424556 0.08825732 2.0077567 -1.5401984 0.6567501 0.32954636 -0.3978078 0.44827414 -1.0150605 0.5556985 1.8741751 -0.7781097 -2.0286338 -0.40950668 -0.029698092 -0.54105186 -0.5224505
43 -0.33944988 0.6192494 3.319207 0.25539705 -0.8060048 -0.6199464 -1.7968817 -3.08138 0.24050517 0.4391363 0.5722691 0.23798673 -0.37686732 1.6690171 -1.441028 -1.4695392 1.2425228 0.37884656 2.0788612 0.882233 -2.1931715 -0.54632354 -1.3034973 2.3447504 -0.08787854 -0.04875804 0.76462764 -0.78137964 -0.36567444 -1.1209232 -2.1438124 -2.6712003 0.42110637 0.060763925 -0.5246309 -0.34525448 -2.3319628 -0.5326322 -0.020355916 -0.9780882 0.079821564 0.6298598 0.42834696 -2.027749 -0.306846 -1.0976664 0.53823817 0.48731846 -0.19765596 -0.6605776 0.8902426 0.306045 -2.0010748 -0.86576456 1.9846687 -0.4830593 2.57026 -0.50562835 0.23457137 -2.0129862 0.2601088 3.8921685 -0.45328695 0.83900476 0.41475403 1.8068633 0.13672493 2.4071102 1.550684 -0.9882693 -0.51514053 1.2995708 -1.288453 1.6958895 1.3792543 2.482392 -0.8680743 1.0974865 -0.21722955 3.6484623 -1.0347332 -0.875917 -0.7516151 1.2470883 -1.4120586 -0.54065007 -0.74350256 0.48283654 0.33741236 -1.8647006 -0.13530497 1.912982 -1.7380267 -0.40793797 0.11723968 0.56170404 1.2824355 -1.5735646 0.35000178 2.2166827 -0.2589665 -0.771506 -1.7733011 -0.06790196 -0.5299682 0.11836588 0.9952199 -1.438983 -0.9143718 1.9521354 -2.923137 0.36163616 1.198272 0.7281674 -3.0089538 0.19531132 -1.5929565 0.8745174 -0.006497838 -0.1413709 2.2706783 0.41274247 -1.9461998 -0.39941245 0.03359857 -2.507788 1.0024675 -1.2949599
1113 0.5595159 -1.1859754 0.93517816 -1.7152554 1.577159 -1.4232105 -0.113253385 -2.9762385 0.82489854 -0.21458104 0.3121232 1.9928539 -0.20500185 1.8202868 0.38735768 -1.2037904 0.89793295 -0.24931541 -0.73442596 -1.5833385 0.26655656 -0.5142676 -1.3423144 1.8283299 -0.5147202 -1.1238703 1.7917554 0.13427565 1.4458642 -1.053694 -3.5319757 -1.6419139 -0.1857124 1.5532906 1.7806545 0.041352093 0.72237706 -0.36814055 2.6606655 -0.76063174 -1.3767389 2.5356054 1.6568002 -1.5885506 -1.4228505 -2.2869148 0.48658633 1.5538381 -0.039648544 -1.8744093 2.5510526 -0.9825503 -1.1241233 -1.8422983 0.86313045 -0.28679314 1.2417991 -0.7050849 0.67175376 -1.0117179 -0.48794037 -0.8004985 -0.5239631 -0.13360879 -0.006072608 1.0701002 -0.14283778 0.1394669 1.8963698 1.3598984 0.539812 0.626439 1.1854067 1.8102123 0.89082634 0.1115257 -1.4249164 1.1424127 -0.8942579 2.221947 -0.7939387 -2.789996 -1.2036902 3.9419038 -0.62402123 0.97852355 1.0223167 0.8452196 -1.4120107 -0.5841983 0.35470533 0.86048627 0.007850386 0.65218234 0.54727 1.6667625 0.0023803392 -2.606674 -1.837032 0.82316184 -1.7051463 -1.6005448 -1.2465969 -1.739069 -1.4912692 1.3879579 0.52186245 -0.9587391 0.33401206 1.2436934 -4.100062 0.1273001 -2.5875962 0.7927071 -1.4009352 2.1086226 -2.279381 0.22615339 0.17051506 -0.82501185 -0.75875455 -0.17109531 -0.9771302 -1.0244367 1.6428006 -1.0506893 1.3899249 -1.0942724
463 -2.0907793 0.535249 -0.99866426 -1.743092 1.1437362 -0.6132299 -0.18977219 -1.0925493 -0.51099074 0.35175163 1.3975357 1.2398497 1.6453918 0.6124545 0.26379213 -0.26492748 1.9766067 0.91379046 1.6091443 0.24846734 0.4500487 -0.808284 0.6223821 1.9768659 -0.7114791 -1.953492 -0.09442559 -0.34538543 0.85965294 -1.9780518 -1.0243587 -2.0180862 -1.120977 -1.9516224 2.9862957 -0.76838005 1.3713478 -1.9537436 1.8694289 -0.12077776 -1.9932241 4.0232115 -2.0194657 -3.1126552 -0.5764762 -3.9983878 -1.0591671 1.7505046 0.5728139 -0.99799067 0.2553814 1.2432789 -0.26080093 0.9619302 2.9885979 -1.7079822 0.8804158 0.9528796 1.075055 -2.6195936 -0.82918155 2.6405728 -2.9090674 -1.352347 0.40719643 -0.2458137 2.9941657 0.9358927 1.8732395 -0.1652881 -1.0388092 -1.1859299 -0.53435004 2.68426 0.3021102 1.909152 -0.31339386 0.86011285 1.8106453 3.0194035 -3.7432933 -0.41787103 -0.49291348 2.064415 0.35635024 -0.73538214 1.7306681 1.6319696 0.048353374 0.056131482 -0.14276811 1.0233732 0.26949155 0.9307964 -0.7440348 -0.46811432 0.5641698 -0.50613976 -0.37784085 0.5260075 -1.037869 -1.3986619 -0.5026312 -0.8200807 -0.77965415 1.4814461 0.9443665 -1.2223958 1.0633212 2.999776 0.7764566 0.21508913 2.7459176 2.6891406 -2.7571917 1.1443144 1.7354105 1.7006265 -2.3655982 -0.95257354 -0.7034231 0.44874817 -0.38808236 0.9775098 -0.6686655 0.468834 0.607919 -0.3417028
501 -0.34762692 0.30992934 2.5139046 -1.7073259 1.2363358 -0.23203482 0.24112529 -2.5471594 -0.2515874 -0.9676104 0.6713704 3.0100226 0.58916557 -0.7978301 1.1075703 0.09492656 -0.04911179 1.1384208 3.3479412 -1.2427962 0.5930472 -0.552057 -0.6601346 2.5822144 1.7589533 -2.3210666 1.33062 -1.0011653 0.3259346 1.1834587 -1.0497508 -2.4456916 -1.7742531 1.6712217 1.0218183 1.6669716 0.022141691 0.072585545 2.3254294 0.764416 -0.8567284 2.010128 0.17724541 -1.6103979 -1.1075191 -2.6348526 -0.1342379 0.99826926 1.2655611 -1.142967 2.6795568 -0.41237053 -2.353109 0.0142849265 2.2133503 -1.325967 0.8065385 0.9175325 1.0908873 0.4721994 -0.87221074 1.7222726 -1.3714274 0.6655681 -0.44254845 2.3101141 0.91687155 0.901647 0.48940983 0.58755666 0.32706472 -0.9154069 -0.614045 3.3762696 0.32901207 1.1154166 -0.051498987 1.9559705 0.3711029 1.7058057 -1.7983729 -1.6950383 -2.471391 2.588496 1.1847522 -1.0109239 0.26758036 1.5719247 0.76047736 -0.8659301 0.21042022 2.6889384 -1.4289465 -0.69597983 -3.1513991 1.1025647 -0.3347216 -0.028975694 0.19342123 1.9678174 -0.446686 -0.12002905 -1.6262596 -0.50361514 -1.264938 1.7518384 3.2004943 -2.0558805 1.4344329 1.2176565 -1.5029172 0.32865745 0.83613014 2.3364403 0.15353203 1.9518782 -1.2174741 0.5142351 0.55068326 -0.5135529 -2.9766166 0.21955958 -2.0929623 -0.020058809 -1.3918529 -0.20977601 -0.038458217 -0.32355878
1180 -0.31880194 -0.6723452 -2.4622073 -0.9023942 -4.4587803 -3.0616086 1.1709466 4.2112384 -2.3413622 -1.3384136 -0.6418075 -0.46839696 0.12680672 -2.6933842 -1.5172423 2.121303 -2.518645 -0.31258455 -0.06173426 -1.4927142 -1.433119 1.6027294 2.1630569 0.58873355 -4.707563 -2.7932928 -1.275562 0.9783293 1.2703846 -0.7250819 2.7986102 -1.1054105 0.44658634 -0.015017167 0.56432766 -0.2313493 -1.9189394 -0.121110775 1.4309671 0.08684299 0.631154 3.3040133 2.8378956 -1.7643263 1.0741817 -0.47991693 -0.021346897 -1.1163739 0.2921529 -0.034946218 0.8320485 2.0395334 0.7475202 0.79356927 1.38545 1.2287602 0.3917251 0.93602836 2.872099 -2.3300357 2.5845244 1.4869056 -1.9085248 0.84046817 -0.804574 1.3538537 0.4772725 2.5483804 -1.2814903 1.4828327 -2.7747898 -0.77790076 3.710006 2.0413606 0.11735048 -0.14184393 0.8915552 2.2411969 -3.2693822 0.7767499 -0.5445725 -3.9138803 -3.7699745 0.8769027 2.8905106 1.5525098 -3.6776078 -0.55498683 0.93184215 1.9132411 -0.39609396 4.558299 -0.97049564 3.9583774 -1.6317945 -3.5059855 3.8112426 2.027801 -1.7289672 -0.928874 3.03317 0.23560034 -1.7423095 -2.157172 -3.1273952 3.1675377 -1.2256905 2.227098 -0.71498555 -1.2155067 0.4782484 3.282041 -1.7466329 -1.7823063 -1.6580179 -2.019248 2.7317455 -0.9217707 2.757027 -0.5662806 -1.0063282 -0.6393821 -0.23153916 -0.5168265 2.2886033 -3.312071 -1.2186753 0.18384103
1027 0.13055588 -0.37092674 -0.42205003 -2.640985 0.6076079 -2.787627 -1.5818479 -0.8270421 -1.2174864 -0.14728162 0.6957534 0.33716592 -0.9246589 2.052306 -1.0321345 -0.4789381 0.2489523 0.071322076 0.1622593 1.7308245 -0.7249176 1.1113027 -0.47191447 2.336856 2.6156812 -0.09508563 1.621062 -1.4320595 0.6900833 -0.26591748 -2.9347177 -1.8860569 -1.1419711 2.4072413 0.17486367 -1.555483 -2.2600274 -1.8243705 0.23804565 1.181009 -0.90979326 3.1555932 1.1939994 -1.780101 -0.3475461 -1.6200187 1.1343235 1.8063657 -0.15670954 -0.64171916 0.26251647 -0.88868386 0.37501538 1.0105648 1.3932303 -1.8605353 1.1041887 0.5894398 0.21024561 0.4846956 -0.10545864 0.28005993 -1.3382643 -0.9980218 -1.1455916 2.4498672 1.5369837 1.4199945 1.4656864 -0.56202126 -0.09708017 -0.4437273 -0.75687075 0.83994067 0.10262237 0.10770441 -1.0081522 3.305454 0.6552308 -0.3322573 -4.9120317 -0.6074773 -0.2981715 0.93613636 1.5609602 -1.3004773 1.8348178 0.51958466 -0.8052173 -0.6387938 0.5558475 -0.10709966 0.19908556 0.18763983 0.78721124 0.46321818 -0.22269644 -0.28051573 -2.143368 0.06741198 0.16093777 0.008152283 -3.6870847 1.2031038 -2.0796862 0.21105255 1.6611785 -0.78656083 1.1015769 2.9090068 -3.0087628 1.2251878 0.061822716 2.5559556 -2.3526225 0.4678155 -1.6975173 -0.29605106 -1.2543411 -1.5942625 -0.15688139 0.6174317 -0.7392186 -0.18093202 -0.7188461 -0.5704495 2.146803 -1.3725219
1272 -1.2090464 1.0356339 1.6431491 -2.038505 0.8451754 -1.1073965 -1.5435005 -3.0898395 0.29073727 -1.1123127 -1.55841 1.4789757 -0.52148956 0.101285145 -2.3177876 -0.3508355 1.1005228 0.70803 -0.8229478 -2.2338934 -0.95018184 -1.7800465 -1.973949 1.7273219 -1.4248179 -2.010036 -1.0307541 -0.306136 0.9925144 1.2689384 -2.3641648 -1.475772 -0.33559197 0.45219058 1.4752027 2.312475 0.9291901 0.21766897 0.49814513 -1.438421 -2.1293552 1.6709381 1.628212 -0.34414357 -0.4660246 -2.6856363 0.65577525 0.13600892 -0.3705047 -0.33640978 2.2943192 0.8400338 0.059009288 -2.2216463 1.5796057 0.58270663 1.6753315 -1.130007 1.7034692 -0.40661326 0.27073792 0.12448961 -0.52716666 0.52086335 0.071169026 -0.17650269 2.1328948 0.60184246 4.03525 -1.1570672 0.47009763 1.8229396 -1.1361067 1.5282266 0.812799 0.06409631 -1.7102294 0.31682652 1.3863493 1.8706292 -2.2324119 -0.94133383 -1.5966427 2.751227 0.33772078 -0.8237656 1.0894009 0.11593942 -1.1368787 -1.1566093 -0.9953343 1.4323188 0.17107968 -1.1246737 -0.31163752 -1.0269164 0.8332567 -0.36825982 -0.593692 1.0490603 -1.5835404 0.3467689 -2.1141741 -1.076979 -2.0081286 1.3980465 -0.25750628 -3.0079722 0.3232995 1.9667723 -3.4109714 -0.0070063183 1.5341157 1.3741012 -3.2790663 -1.0841073 -1.7647017 0.880029 -1.6823865 0.053776298 -1.2794191 -0.19618885 -0.5570764 -0.5402651 1.3265247 0.3910416 1.5110868 -0.06622326
565 -0.18141815 -1.7635285 0.013433448 -3.050582 0.17838167 -1.0820574 1.511477 0.14558172 1.7984806 1.8557954 0.90112376 0.31273136 -0.3543804 0.4742465 -0.51646304 0.27194616 0.5502022 0.29842374 -0.49997246 2.5651124 -1.0765967 -0.3551551 0.40384218 0.3130939 -0.67689455 -1.0364208 -0.7650162 -1.260183 1.7718154 0.9543906 -2.8824282 -0.41966793 0.36266544 0.9982538 -0.48520824 -0.60863686 0.5726266 1.2132415 1.7797118 -0.664802 -1.2073721 1.8888988 -1.5472362 -3.2115824 -0.37707475 -1.0557946 1.254608 2.4970577 0.7750954 0.146072 1.5569748 1.7280735 -1.3643658 0.8303249 0.25803503 -1.5269212 1.2368478 -0.8058606 2.0708437 -0.47641343 -0.352351 3.2812688 -1.6456357 -0.21357721 0.3987709 0.68171155 0.71638894 -0.2945366 3.0366945 0.44111288 -0.23356675 1.1211253 1.7008039 -0.24433166 2.6773627 2.263069 1.4435315 1.6285518 2.1046178 0.6079631 -4.710277 -2.386712 -1.5042082 2.8245625 2.4242723 -0.84284806 1.060839 1.0817868 -2.5291328 -0.76936847 -0.608549 -1.9304974 -0.23640761 -0.21215086 -0.5783814 -3.4014783 0.74222565 -0.4426364 -0.65112513 0.24888667 -1.0875139 -1.2939899 -0.038920272 1.4447004 -0.2855586 2.1259627 0.029436516 -4.598932 2.9003565 3.4036798 -3.603984 0.20981605 1.1089839 1.1412328 -2.2795928 2.5333111 -3.2326791 -0.7042997 -0.85608834 -0.8911686 -1.6947992 0.43080133 0.22316279 0.5226429 -1.5731971 0.6318524 0.6557033 -1.0731972
541 -2.7101295 -0.38975668 1.5238236 -2.3979042 -0.9331986 -0.8325317 -2.33991 -0.49251765 0.7408314 0.45928913 -0.49946886 1.002611 -0.051178675 0.3319364 0.4282159 -1.2682163 2.780014 0.7830648 -1.1462284 -0.91261846 -2.3957553 -0.42174482 -2.1480026 3.4984772 0.5481034 -0.87326944 0.618407 0.00075633236 1.1246614 1.2327671 -2.926722 -2.9999514 -1.3533624 1.0682752 -0.0767579 0.10126696 0.96057063 0.4517805 0.5852083 0.83189774 -0.82145166 2.2264092 0.343991 -1.254744 -0.56181884 -2.786226 1.0368097 1.4194446 1.6516935 -2.3255992 1.0258625 0.6033902 1.100991 -1.7549305 0.68662393 -0.54533786 0.9359233 1.98017 2.7984798 -1.6189245 -1.3506373 2.1474395 -0.40864596 -0.65090555 -1.4522793 0.7360573 -0.8103111 0.023411917 0.73254275 -0.42004696 -0.18495518 2.2205567 -1.9687622 0.36463588 0.05451307 1.2805597 -0.7447967 0.3679922 0.334824 0.74189484 -1.6133142 -1.4418216 0.4907339 1.7275009 0.44787604 1.2428589 -0.869159 2.8797536 0.13609374 -0.7172 -2.2477598 1.3714434 0.012284772 -1.4211695 0.3456503 0.4630498 1.206172 0.8337119 -2.7642682 1.537767 -1.5580708 -0.5396863 -1.1070868 0.19100358 -1.3933783 0.3991338 0.6452703 -2.8566031 0.5501948 0.4708617 -3.862132 0.13747059 0.04190959 1.2717725 -1.9025053 -2.3038492 0.777135 -0.24613178 -0.21398321 -1.0552391 -0.6606216 0.06507362 -1.221974 -0.42591795 -0.3403604 -1.7295135 0.745425 0.32244048
1086 -1.7166873 1.8004974 -1.3147464 0.86322004 0.091329016 -0.9705836 0.4513151 -3.3493698 1.296556 -0.96211463 -0.7851593 -0.14943458 -0.37074536 1.2138795 0.025754705 -1.830459 1.5337644 -0.063622005 1.8994378 0.1302806 0.30673182 -0.17319407 -0.470588 1.753619 -0.164424 -0.20790425 0.22599956 0.2684108 -0.7678552 -1.7541597 -1.7541933 -2.168654 -1.7787199 1.3162705 0.7557657 2.3854976 1.5702161 0.3997061 0.57879007 -0.86877924 -0.7928041 1.0325105 1.2542862 -1.7314773 0.066687495 -3.006461 -0.6255718 0.3100614 0.4694066 0.52945995 2.7268507 0.23664245 -0.2795383 0.16727044 2.1622233 -2.4802582 1.0935761 -0.3488952 1.1198713 -1.163186 0.4857545 1.275888 -0.3452663 1.2541026 0.9743344 4.4728537 1.0897342 0.5175382 1.736044 -0.05620781 -1.7105186 -0.2543827 0.28364414 2.7884896 -0.5665167 0.86523056 -1.4962296 -1.1064993 -1.2864194 2.594307 -2.1833417 -1.9401742 -2.3710122 2.5253408 -0.12952241 0.8740373 -0.40263024 0.14214672 -2.278301 -1.2554783 -0.048591387 1.1481835 1.7441537 0.23901114 0.40894878 0.9516686 0.60488355 -0.83049065 -0.8517721 1.4951979 -0.96368587 1.9407096 -1.0143071 -1.1355478 -0.24262905 2.2189415 1.1041851 -1.1733509 0.9780227 1.3116086 -2.2634413 0.2503343 2.9363036 0.018288832 -3.1271405 2.0463758 0.13207811 -0.88636774 1.1321892 -0.27550307 1.2608693 2.9826274 -1.0204843 1.4719027 -0.31255716 -0.8500341 -0.46139568 -0.79277235
509 -1.2775512 -0.3792947 3.449711 -3.544748 -2.5401692 1.2147198 0.47462296 0.20321383 1.9246002 0.1482005 -1.5432161 0.50214756 -0.19617912 -1.4102807 -3.1162348 2.1037233 1.5078396 4.111692 1.1417193 1.240422 -0.89116406 -1.7276124 -0.48522648 -0.46099323 2.3179152 0.6877238 1.594449 -1.9305676 0.26370096 -1.943544 -0.2125114 -2.0201526 0.9071791 -2.0341113 1.0477741 -0.7685607 0.7448807 0.8083786 1.200642 -1.5925859 -1.9861695 2.6411824 -0.85962135 -1.054891 0.82984823 -1.0970364 -1.3607862 1.4989685 -1.9403224 1.6397713 3.0440998 -0.3624495 0.14795685 -2.3834808 2.2394876 -1.965929 -1.6204169 2.2609322 0.5933082 1.3738998 2.1801665 4.163077 -0.14899626 1.4673607 0.4854088 1.3665744 1.5562844 -0.29345027 1.157988 -0.7296352 -2.7237043 3.5993998 2.6417363 2.115253 1.5238969 -1.861967 0.05646457 -2.496124 -1.069845 0.1586125 -0.048680265 -1.4040082 -1.557393 1.4350494 0.34947968 -1.2896022 -0.8428042 0.6211595 -0.7378979 0.058686458 0.40478364 0.93190354 -1.8382895 -2.7357337 -1.5935135 0.19770893 1.6840342 -1.1660831 0.63512075 1.8476877 -3.042317 0.11176539 0.45307502 -2.4757717 -1.9495358 1.010713 2.6886606 -1.4016747 0.2133888 -2.4103224 -4.9980173 -0.5901105 1.8879617 1.207815 -3.80502 0.809586 0.06318895 -0.72095203 -0.48703113 -1.7790692 -1.4581497 1.1649418 -1.8716385 0.5735009 2.3960168 0.09188321 -0.9439653 -2.6171439
549 -0.55204886 0.5096867 1.3432431 -2.176678 -0.7317291 -2.2491345 0.13328356 0.7070003 0.26853612 2.2210627 0.5634203 3.9135454 -2.1397152 2.036896 -0.01503018 0.70109236 -1.3950983 -0.019977525 0.7746864 1.2822179 -0.7729916 -1.659084 -0.3984941 1.1733755 1.2885408 -0.113665394 -0.3977082 -1.9200999 2.2756774 -1.5505177 -2.9961183 -3.9357536 -1.7430366 2.7092574 0.79013944 -0.60767776 0.015133553 -0.30297244 -1.2512343 0.23918243 -0.21959694 2.516184 0.06968188 -3.0880377 1.2256738 1.6539947 2.0528836 1.9761114 -0.39368394 -1.1997181 0.84746677 1.376989 0.76984745 4.640552 -0.6236663 -1.2791069 0.89586884 0.697284 0.1994582 -0.75336623 1.0330615 1.7338142 -0.7802825 1.2068708 -1.3314704 1.6316297 2.2602272 1.7309496 4.0463595 -1.3679188 -0.4370278 -0.20154452 -0.37309676 0.035177317 2.1586645 0.5959691 -1.3323231 3.0030816 1.6584315 -0.4534971 -3.990352 -1.0940332 -1.6361778 1.4614313 1.3901016 -0.1454447 2.664996 0.7065952 -2.9262311 -1.0136628 -0.29031172 -0.7589666 -0.0823078 0.88205284 -0.7915745 -0.8727761 1.1372819 -2.0661314 -0.73788136 2.2729356 -2.6197805 0.77887213 0.27332595 -1.072318 -0.858663 0.042371344 -0.7249112 -1.6686863 -0.72224647 2.1478581 -2.7054174 1.4766748 1.0168674 -0.43685403 -3.5040426 0.0005328497 -2.4466293 -2.3294306 -0.5387747 -2.676529 -1.6373395 -0.6333847 0.8327227 -2.000976 -0.7252658 -0.35094374 1.8550119 -0.7325353
601 -1.0431486 0.4291003 -1.3320841 -2.6863503 -0.8895955 -1.2165807 -2.2783852 -1.243583 -0.5989993 0.6140917 -0.5322896 0.1939691 -0.44406503 1.912429 0.16607927 0.49048167 0.5982736 -0.49374247 -0.4257205 0.43491495 0.48740786 -3.3044615 0.678681 -0.745821 0.15671568 -3.6349046 -0.33703622 -2.0152144 0.36037874 -0.70100886 -1.6072373 -1.7412275 -0.15854861 1.1550115 -0.21624196 -0.041820455 0.5702019 1.9186875 0.46964183 0.7502901 0.17657141 3.645938 0.16031618 -0.49717456 -0.6752744 -2.2447414 0.112420715 0.8254493 0.17207973 -0.2449119 0.6423717 0.08087516 -0.31963536 -2.2604258 1.0551031 1.0687364 -0.67999554 0.9667675 0.37927568 -3.7059062 1.620235 2.777944 -2.1015277 -0.26908487 -1.2139688 1.2629876 -0.19102588 1.2947466 -0.09023229 -1.5162947 -0.4954632 0.38355058 -0.31508446 0.6186653 1.0733931 2.9579618 -1.371846 0.30799633 -1.2088007 2.3275816 -1.2577552 0.64309037 -1.1587934 1.7041761 0.18090364 0.2070683 2.0191371 0.82052344 -1.2080902 2.418456 0.20712069 0.2628404 1.7500366 -0.5918478 -0.8763968 0.17123246 0.86426675 -0.7603014 -0.07537689 1.385001 -3.2049756 0.6040783 -1.4530215 -0.05489685 -0.17207883 1.330261 2.626736 -1.888898 -0.20036148 2.734949 -2.5010629 0.5184301 0.030629765 2.065722 -3.7647676 0.566116 -2.2226171 -0.73605746 -0.9876336 -3.0181916 0.4263921 1.7777389 -2.0215704 -0.25435102 1.1249146 -1.7814863 -1.1680753 -1.2241871
517 -1.7154161 -0.21173964 1.028707 -2.9106057 -0.12799463 -1.2545798 -1.566672 -4.2746377 1.4364033 -0.9280321 0.8585534 2.6950731 -0.43256655 3.065584 -2.0472946 -1.0799234 -0.29160318 2.122444 -0.7374425 -0.67319334 -2.0429928 -0.051809385 -0.55872023 0.100204796 1.1399871 0.3282135 -0.71248406 -0.46369117 0.7981976 0.51762474 -0.5411839 -3.7593813 -0.8428273 -0.21092537 1.1776555 -1.0914521 -2.0639536 -0.8793497 0.5931271 0.6485512 -0.87474453 3.6393003 0.02220766 -0.97648853 -0.7615516 -1.440146 1.755061 3.2371736 -0.02601502 -0.5797187 -0.9846674 -1.3357861 -1.0552386 -2.7706623 0.58677524 1.1027123 2.3027802 -0.31823674 2.0661395 -1.0014446 1.8300273 1.1958321 -0.46043482 -2.590529 0.46021596 0.69761926 0.85011727 1.8462322 2.2417476 1.1945875 -0.0029484248 0.49662128 -0.14789721 0.86503667 0.30881608 0.12969321 -0.006139396 2.1605237 0.9663385 1.4304694 -2.5743816 -2.2794962 0.63085026 0.85637224 0.10610248 -0.041338492 1.8330319 -0.31561032 1.3786507 -0.98295546 -0.4095659 0.82222575 -1.2414873 -2.0137808 0.36112052 0.72053456 -1.2257649 -0.71657115 -1.4114329 1.1646088 1.882662 -0.44357902 -2.1219702 -0.96554005 -0.508458 -0.307103 2.2235026 -1.3070731 -0.9319105 2.5578222 -2.2323408 0.7777643 1.9804338 3.212429 -3.019333 0.70497125 -1.0070539 1.7624792 0.29228258 -1.7408825 2.1054976 0.103984535 -1.1588948 1.2484235 -0.5811898 0.33673787 1.4146566 -0.3761696
1277 -2.5717788 0.48646334 1.9249982 -3.23091 1.844793 -0.94604635 -1.027752 -1.344927 1.618663 0.72817904 0.44833347 0.8053684 0.5054124 1.8146727 0.25994244 -1.7411497 1.6708666 1.263871 -0.06734589 0.27796182 -0.16839989 -1.6833181 -0.46485615 2.1474376 -0.28654402 -2.050566 -1.1521637 -0.7814728 2.4119253 -1.7857323 0.37581858 -1.4643314 -0.97106814 0.45938328 -0.8574366 0.6675538 -0.21290807 0.285724 0.042753406 -1.1322656 -1.6652006 3.6276681 0.888176 -1.0087988 0.040027525 -3.033277 -1.1378148 0.873056 -0.9231532 0.2962449 2.6140442 1.0049919 0.021746894 0.5456851 1.9470221 -0.800612 0.7292567 0.39648682 1.2266653 0.2838828 -0.98775136 -0.38996226 -3.3083858 -1.9682806 -1.3707958 1.3219795 0.009679981 1.3798226 1.7598308 -1.7059296 -1.7079837 1.2238764 -1.1953356 1.3096623 0.065315284 -0.43364027 -1.8787547 1.8407618 -1.0544657 0.89940006 -2.0907116 -0.940886 -1.799679 1.3211517 1.6566814 0.71982217 1.9542378 1.4727994 -2.5526872 -1.5685804 -0.6508264 0.42650068 0.2863512 -0.6915589 -2.877392 2.6747484 2.2221732 -0.30324173 -0.8896902 0.68416554 -0.2324457 0.77613604 -1.9268538 0.7819602 -1.7035764 1.0659223 0.087961726 -1.6242497 0.73866475 2.1151686 -0.7061149 1.2144635 0.31008396 0.38124853 -2.527495 -0.15509045 -0.17350562 2.1857426 1.9320911 -0.8720145 -1.4554663 0.8925142 -1.450643 -0.42063978 0.08175617 -0.7720145 0.709502 -1.2895974
1299 -0.4096258 -1.5194074 1.440713 -2.870722 1.4177217 -0.78530186 -0.5758571 -3.7107916 1.0934756 0.088433094 0.49165577 0.49752438 -0.65036047 0.32374132 -0.48368502 -1.1696801 1.496369 0.978918 0.73327553 -0.13353059 -0.15207368 -1.155962 -1.8792768 0.56418073 0.16278067 -1.0686288 0.82543206 -1.0790644 -1.4515291 -0.28402808 -1.3536929 -3.8524492 -0.683398 0.5984776 -0.0747867 0.31012383 0.98326415 -0.23101336 0.203374 -1.2305763 -0.63533914 1.9667222 -0.58553725 -0.98466253 -0.47266582 -2.5057359 2.3618948 1.4483173 1.1572219 -2.366086 -0.62152654 0.23782653 -0.37891486 -0.87638336 1.1270494 1.843982 0.8238776 0.9980743 0.5697623 -0.86266154 -0.68467575 1.3624434 -0.9033851 -1.2439014 -1.0841722 0.4244127 0.8334601 -0.17760172 1.7967048 -0.13387617 1.1070622 -1.1973773 -0.9656473 1.3334918 0.6753204 -0.69419765 -1.2512791 1.8031871 -0.13248509 0.6560751 -3.7562099 -1.0249383 -1.3341807 1.382848 0.041006483 -1.4616743 1.3339142 -1.4233714 -0.28294078 1.2838277 -1.353339 2.485875 -0.1492061 0.5244033 -0.9448138 -0.879008 1.6138313 -1.5596471 -0.54754376 2.4539418 1.0277693 -0.47101277 -2.606187 -1.0515546 -1.51126 2.4896898 1.1890855 -3.195311 1.3947413 1.6519802 -2.0033884 0.95587415 -0.22530325 1.8170362 -1.667397 -0.6018019 -1.7156136 1.0946662 1.3032368 -0.019454472 -1.0805138 0.10138532 -1.244877 -1.4854833 0.9240955 0.8933886 2.9549332 -1.5399898
505 0.15973048 -1.5095948 -1.2124978 -1.3713379 0.083136894 -1.5276144 0.297184 -0.6924385 -0.88833714 -0.58402777 0.4106087 -0.5472784 2.9624305 1.5585093 -3.1223881 0.9918648 3.7453618 3.217053 -0.82592076 -0.16039637 -1.471103 0.58736956 -1.5195298 0.7369599 0.4878671 0.45890015 -0.22937347 -1.0677853 1.1632043 -2.0466328 -1.0907099 -2.7723074 -0.69056183 -0.48243868 1.533698 1.8446273 -0.03467269 -0.0773536 -1.6416715 -1.2185925 -0.5102489 1.4762735 0.26975623 0.73401994 0.43543094 -1.2002889 -0.036195334 1.0172666 0.33465934 -2.993988 1.8266636 -0.36748886 0.8882233 1.3559438 0.63321906 2.464334 2.8523674 0.4715896 3.2539601 -1.8142029 2.789829 2.4909215 -0.5916124 -2.2314544 0.28473097 2.1197162 -2.4413948 0.37221727 1.8633943 0.6616227 -3.170318 0.65559304 -0.26015982 1.6231718 0.6732794 0.027692322 1.8885057 0.08434159 0.7295556 1.4201684 -0.8628875 -0.82734895 0.10926489 2.2110572 -0.13986954 -3.211675 0.44504514 -0.1591616 0.57781774 0.45817077 1.3532648 3.2871087 -0.19333045 -0.63530606 -2.0053742 -0.09181634 -0.8251303 0.5026884 -3.157755 0.85349274 -0.2882949 -1.3257248 -2.7365158 -2.5120866 -1.606845 2.1263518 -0.45982096 -2.0720942 1.288514 -0.7686703 -0.76386875 2.1314592 -1.887032 1.7641491 -1.9455035 1.6091235 -1.7441367 2.2703617 -1.2944406 -0.03715002 -0.5004344 1.6160973 -0.20478757 -0.028770138 2.4267495 -2.8848739 0.8226801 1.514628
41 -2.0777998 1.4751245 0.46051472 1.5024564 -4.480387 -0.70909995 -1.1173214 0.36393124 0.45995593 -2.17333 -3.6744263 -3.2119763 1.1907116 -0.6527142 -3.3362682 3.3244183 2.0814874 0.81652844 -0.33269188 1.9264734 0.7109172 1.5490719 1.9216067 3.1362524 2.4349606 0.44918007 -2.5334384 -0.24507672 -1.2601956 1.3453622 0.20351297 -4.337602 -3.4596815 -1.3677348 0.625824 -0.7461846 0.1455997 1.5662377 -0.9738027 -1.5489103 0.91789144 -0.10322805 3.3161407 -0.26467544 0.18067564 -4.822434 -1.606165 -2.5674825 -0.55744964 -1.1975678 3.3393996 3.6787093 -0.4526003 -0.42103222 1.5563087 -0.8116261 2.7402084 -1.5524546 1.7180998 -0.24847925 0.71706593 1.550158 0.07457142 0.49861643 0.07257242 2.8944485 -2.2308378 -0.7384446 -1.5375916 1.4516906 -2.701561 2.0235863 -0.47052023 -0.47342214 -0.62895113 0.070553154 -3.2638185 -1.3684802 -4.922403 0.0572648 0.08145786 -1.6746438 0.9679378 2.3125777 -1.7923814 0.71936387 -0.4597479 0.21163747 -1.4307321 -3.138907 0.14000954 -0.14067394 -0.0062481016 -1.4553417 -2.0048115 -1.4076836 4.1680336 -1.5531392 0.87550634 4.2096634 -1.8128693 1.684114 1.2303259 -1.2665305 -0.66704994 0.26889288 0.775048 -4.0285506 -0.106261246 -0.4689714 -1.4435391 3.5314565 1.9376012 -0.8517353 -0.8802429 0.19295193 -2.1594014 -0.5005509 0.24719268 -1.0778813 -1.4462457 1.0700767 -0.16713357 0.9466857 -2.0596943 2.883984 -0.88628083 -1.3690435
756 -1.7154642 -0.17233035 0.236125 -1.8954303 -1.6738105 0.98764455 0.48840088 -2.6942322 1.3304377 2.1546528 -0.012096201 -0.907956 -1.8490132 0.7315138 -0.5780354 -0.04076469 1.7688088 1.3789473 0.17738606 0.48721933 -0.607728 0.75780433 -1.6148704 1.1081355 0.20539534 -0.8568468 1.7011439 -0.63906676 0.93202096 -0.32949013 -1.3857275 -2.1340308 -0.23926744 1.2198702 2.1706948 0.05959759 0.5105005 -1.3902373 1.4130057 -0.18985806 -0.3808171 1.7645463 0.66818637 -2.4958105 0.22874181 -3.3210132 2.4947186 0.3416618 2.2944777 -0.073416315 3.0806606 0.9756311 -0.96128577 -0.0013888207 -1.0406864 -0.27857402 1.7334433 0.50496024 2.4052992 -0.22531463 0.89819354 0.3471651 -0.88635916 -1.013064 1.2734703 2.5866833 0.024727434 0.48590845 1.4318128 -0.009035572 -1.2904991 1.0983838 -0.16211353 2.6364102 -0.12911548 0.28224584 -1.7297951 -0.33643425 -1.4971797 1.6255621 -1.5726421 -0.75874776 -0.6428581 1.6254131 -0.62406784 0.23035282 -0.24589092 0.30782646 -0.31232092 -0.2567248 1.6210916 2.394953 0.36511147 -0.5668773 -1.5737268 1.4369335 1.1377788 -3.1733565 0.5450802 0.29063457 -0.30858988 0.14089267 -0.26809493 -1.4901199 -0.10672697 -0.25314224 1.0123616 -1.4704988 -0.31725186 2.3313777 -1.9846591 0.8701815 1.5656446 0.38965014 -2.820774 2.4069412 -2.3966496 1.7711157 -0.4890178 -0.66723007 -0.105528034 0.5020227 -1.2515932 -2.5406988 -2.076538 2.4473522 -0.20999914 -0.10683828
464 -1.2532872 1.978275 1.2928958 -1.1784171 -0.45116568 -0.00271177 1.2372541 -2.8369255 1.29736 0.88240063 -0.36387217 -0.51563686 -1.1983596 -0.1321803 1.7508185 0.9806161 1.8293046 0.47559083 -0.27160674 0.609158 -0.012201868 -0.8281446 -0.8355213 1.962056 -0.3547463 -1.7111229 -1.2928661 -0.19147173 -0.7647494 1.6874802 -1.74831 -2.6486192 0.28007972 -0.5316089 0.07881553 0.41894212 0.95138764 -1.1437858 2.7005155 0.7139056 -1.9613557 2.652243 0.31478763 -0.56301117 0.6271171 -3.530469 0.467388 -0.97048503 1.5476274 -1.2200987 1.8310027 1.0701929 -2.4273956 2.140627 1.537557 -1.0940185 1.3586015 -0.75873804 0.5690085 -0.46955717 -0.19742598 3.3487408 -0.3754056 2.1780639 -0.75741285 1.6416162 -1.2064534 -0.38416508 2.8863027 -1.3314053 -0.20042452 1.2611994 -0.3179041 2.4459052 1.795249 1.9770404 -0.7978962 0.23289083 -0.058416095 1.7110555 0.13190825 -0.9694557 -3.749077 2.1090102 1.1222204 1.2560953 -0.8047482 0.9123053 -1.1538819 -0.3228808 -0.19311635 1.5254134 -1.3950915 -0.9934767 -1.5305806 2.3534753 0.0561862 -1.5416931 0.25621653 1.1213757 1.4439306 0.670904 -0.20964539 -0.43919688 -2.1791296 0.07670099 1.1959344 -0.3390945 0.6276373 -0.9260556 -0.5239194 1.0985316 -0.12521997 1.0209738 -3.2640994 0.9008413 0.109650575 2.5155203 -0.53173584 -1.449108 -0.15239164 1.4326667 -1.8158128 -2.3444917 -2.105823 -0.6261887 0.5720909 2.0915236
